{"learner":{"attributes":{"best_iteration":"315","best_score":"0.01515897805740936","scikit_learn":"{\"_estimator_type\": \"regressor\"}"},"feature_names":[],"feature_types":[],"gradient_booster":{"model":{"gbtree_model_param":{"num_parallel_tree":"1","num_trees":"366"},"iteration_indptr":[0,1,2,3,4,5,6,7,8,9,10,11,12,13,14,15,16,17,18,19,20,21,22,23,24,25,26,27,28,29,30,31,32,33,34,35,36,37,38,39,40,41,42,43,44,45,46,47,48,49,50,51,52,53,54,55,56,57,58,59,60,61,62,63,64,65,66,67,68,69,70,71,72,73,74,75,76,77,78,79,80,81,82,83,84,85,86,87,88,89,90,91,92,93,94,95,96,97,98,99,100,101,102,103,104,105,106,107,108,109,110,111,112,113,114,115,116,117,118,119,120,121,122,123,124,125,126,127,128,129,130,131,132,133,134,135,136,137,138,139,140,141,142,143,144,145,146,147,148,149,150,151,152,153,154,155,156,157,158,159,160,161,162,163,164,165,166,167,168,169,170,171,172,173,174,175,176,177,178,179,180,181,182,183,184,185,186,187,188,189,190,191,192,193,194,195,196,197,198,199,200,201,202,203,204,205,206,207,208,209,210,211,212,213,214,215,216,217,218,219,220,221,222,223,224,225,226,227,228,229,230,231,232,233,234,235,236,237,238,239,240,241,242,243,244,245,246,247,248,249,250,251,252,253,254,255,256,257,258,259,260,261,262,263,264,265,266,267,268,269,270,271,272,273,274,275,276,277,278,279,280,281,282,283,284,285,286,287,288,289,290,291,292,293,294,295,296,297,298,299,300,301,302,303,304,305,306,307,308,309,310,311,312,313,314,315,316,317,318,319,320,321,322,323,324,325,326,327,328,329,330,331,332,333,334,335,336,337,338,339,340,341,342,343,344,345,346,347,348,349,350,351,352,353,354,355,356,357,358,359,360,361,362,363,364,365,366],"tree_info":[0,0,0,0,0,0,0,0,0,0,0,0,0,0,0,0,0,0,0,0,0,0,0,0,0,0,0,0,0,0,0,0,0,0,0,0,0,0,0,0,0,0,0,0,0,0,0,0,0,0,0,0,0,0,0,0,0,0,0,0,0,0,0,0,0,0,0,0,0,0,0,0,0,0,0,0,0,0,0,0,0,0,0,0,0,0,0,0,0,0,0,0,0,0,0,0,0,0,0,0,0,0,0,0,0,0,0,0,0,0,0,0,0,0,0,0,0,0,0,0,0,0,0,0,0,0,0,0,0,0,0,0,0,0,0,0,0,0,0,0,0,0,0,0,0,0,0,0,0,0,0,0,0,0,0,0,0,0,0,0,0,0,0,0,0,0,0,0,0,0,0,0,0,0,0,0,0,0,0,0,0,0,0,0,0,0,0,0,0,0,0,0,0,0,0,0,0,0,0,0,0,0,0,0,0,0,0,0,0,0,0,0,0,0,0,0,0,0,0,0,0,0,0,0,0,0,0,0,0,0,0,0,0,0,0,0,0,0,0,0,0,0,0,0,0,0,0,0,0,0,0,0,0,0,0,0,0,0,0,0,0,0,0,0,0,0,0,0,0,0,0,0,0,0,0,0,0,0,0,0,0,0,0,0,0,0,0,0,0,0,0,0,0,0,0,0,0,0,0,0,0,0,0,0,0,0,0,0,0,0,0,0,0,0,0,0,0,0,0,0,0,0,0,0,0,0,0,0,0,0,0,0,0,0,0,0,0,0,0,0,0,0,0,0,0,0,0,0,0,0,0,0,0,0,0,0,0,0,0,0,0,0,0,0,0,0],"trees":[{"base_weights":[-7.399814E-4,-5.6865044E-2,1.0418708E-1,-9.3318716E-2,-2.0337831E-2,1.5504754E-2,5.08345E-2,-1.06813855E-1,-5.5161607E-2,-4.58575E-2,1.0770852E-1,8.040944E-2,-2.6087105E-2,-5.6996476E-3,-5.5887688E-2,-7.1777515E-2,1.1687004E-1,-6.021168E-3,-7.907782E-2,8.769516E-3,1.6752261E-1,1.3112895E-1,4.3717884E-2,6.264624E-3,-5.653197E-2,-2.9610062E-2,-4.888691E-3,-4.497709E-3,-4.356224E-2,1.7402873E-3,6.7228265E-3,-3.8184106E-2,3.24819E-2,-9.304702E-2,-2.6680813E-3,-3.206424E-2,4.489751E-2,1.8837447E-1,1.8523721E-3,8.52958E-3,1.0949315E-1,1.3059222E-3,4.7259673E-2,-3.7539592E-3,2.1552421E-2,-4.319278E-3,-3.590178E-2,-2.285055E-3,-2.714709E-4,-0E0,-3.0225052E-3,-8.183503E-4,-3.4781427E-3,8.731562E-4,3.4808894E-3,-3.5440947E-3,-5.007736E-3,-2.2381083E-3,-0E0,2.739529E-3,-0E0,7.1487227E-3,1.140692E-2,5.6884106E-4,5.653528E-3,2.4706116E-3,1.2113092E-3,-1.0001914E-3,-0E0,-0E0,1.9283834E-3,-1.9017229E-3,-0E0],"categories":[],"categories_nodes":[],"categories_segments":[],"categories_sizes":[],"default_left":[0,0,0,0,0,0,0,0,0,0,0,0,0,0,0,0,0,0,0,0,0,0,0,0,0,0,0,0,0,0,0,0,0,0,0,0,0,0,0,0,0,0,0,0,0,0,0,0,0,0,0,0,0,0,0,0,0,0,0,0,0,0,0,0,0,0,0,0,0,0,0,0,0],"id":0,"left_children":[1,3,5,7,9,-1,11,13,15,17,19,21,23,-1,25,27,29,31,33,35,37,39,41,43,45,47,-1,-1,49,-1,-1,51,53,55,-1,57,59,61,-1,-1,63,-1,65,67,69,-1,71,-1,-1,-1,-1,-1,-1,-1,-1,-1,-1,-1,-1,-1,-1,-1,-1,-1,-1,-1,-1,-1,-1,-1,-1,-1,-1],"loss_changes":[1.1632042E1,1.7017746E0,7.5063205E0,3.0901384E-1,2.1096888E0,0E0,1.2542033E0,1.4920616E-1,4.9553472E-1,7.0563674E-1,6.1412203E-1,7.1559095E-1,1.5509239E-1,0E0,5.260794E-2,6.376159E-2,4.2274594E-5,3.0892673E-1,8.564985E-2,6.468309E-2,1.5004194E-1,9.4190836E-2,5.9515834E-3,1.3041583E-2,3.3940673E-2,1.0591574E-2,0E0,0E0,5.3810373E-2,0E0,0E0,8.405776E-2,5.2542545E-2,5.1002502E-3,0E0,4.509624E-3,1.1661265E-2,3.1366706E-2,0E0,0E0,2.5230289E-2,0E0,7.6028705E-4,4.2240564E-3,8.470715E-3,0E0,2.255313E-3,0E0,0E0,0E0,0E0,0E0,0E0,0E0,0E0,0E0,0E0,0E0,0E0,0E0,0E0,0E0,0E0,0E0,0E0,0E0,0E0,0E0,0E0,0E0,0E0,0E0,0E0],"parents":[2147483647,0,0,1,1,2,2,3,3,4,4,6,6,7,7,8,8,9,9,10,10,11,11,12,12,14,14,15,15,16,16,17,17,18,18,19,19,20,20,21,21,22,22,23,23,24,24,25,25,28,28,31,31,32,32,33,33,35,35,36,36,37,37,40,40,42,42,43,43,44,44,46,46],"right_children":[2,4,6,8,10,-1,12,14,16,18,20,22,24,-1,26,28,30,32,34,36,38,40,42,44,46,48,-1,-1,50,-1,-1,52,54,56,-1,58,60,62,-1,-1,64,-1,66,68,70,-1,72,-1,-1,-1,-1,-1,-1,-1,-1,-1,-1,-1,-1,-1,-1,-1,-1,-1,-1,-1,-1,-1,-1,-1,-1,-1,-1],"split_conditions":[9.5E-1,3.1E1,3.503E-1,3.0445225E0,3.0445225E0,1.5504754E-2,7.517E-1,7.91E-1,3.884E-1,7.357E-1,4.692E-1,2.396E-1,3.2E1,-5.6996476E-3,7.465E-1,1.312E-1,4.24E-1,5.1E1,1.01E2,3.136E-1,5E-4,1.549908E1,9.77E-1,1E-4,1.5E-1,8.521E-1,-4.888691E-3,-4.497709E-3,2.374E-1,1.7402873E-3,6.7228265E-3,2E-1,9E0,1.1002116E1,-2.6680813E-3,2.522E-1,2.54E-1,6.767E-1,1.8523721E-3,8.52958E-3,6.8E1,1.3059222E-3,1.5162718E1,9.983E-1,1E1,-4.319278E-3,2E-1,-2.285055E-3,-2.714709E-4,-0E0,-3.0225052E-3,-8.183503E-4,-3.4781427E-3,8.731562E-4,3.4808894E-3,-3.5440947E-3,-5.007736E-3,-2.2381083E-3,-0E0,2.739529E-3,-0E0,7.1487227E-3,1.140692E-2,5.6884106E-4,5.653528E-3,2.4706116E-3,1.2113092E-3,-1.0001914E-3,-0E0,-0E0,1.9283834E-3,-1.9017229E-3,-0E0],"split_indices":[15,11,16,9,9,0,16,15,15,16,15,19,13,0,16,15,15,11,11,15,14,1,15,14,19,15,0,0,19,0,0,6,0,1,0,15,16,15,0,0,11,0,1,15,11,0,6,0,0,0,0,0,0,0,0,0,0,0,0,0,0,0,0,0,0,0,0,0,0,0,0,0,0],"split_type":[0,0,0,0,0,0,0,0,0,0,0,0,0,0,0,0,0,0,0,0,0,0,0,0,0,0,0,0,0,0,0,0,0,0,0,0,0,0,0,0,0,0,0,0,0,0,0,0,0,0,0,0,0,0,0,0,0,0,0,0,0,0,0,0,0,0,0,0,0,0,0,0,0],"sum_hessian":[1.974E3,1.287E3,6.87E2,6.42E2,6.45E2,1.4E2,5.47E2,4.71E2,1.71E2,5.39E2,1.06E2,3.96E2,1.51E2,4.1E2,6.1E1,1.57E2,1.4E1,2.47E2,2.92E2,4.1E1,6.5E1,1.64E2,2.32E2,7.2E1,7.9E1,4E1,2.1E1,9.2E1,6.5E1,4E0,1E1,1.36E2,1.11E2,1.85E2,1.07E2,1.8E1,2.3E1,5.5E1,1E1,5.4E1,1.1E2,4.5E1,1.87E2,4E1,3.2E1,2.9E1,5E1,2.1E1,1.9E1,1.7E1,4.8E1,8.3E1,5.3E1,8.2E1,2.9E1,5.1E1,1.34E2,1.1E1,7E0,1.9E1,4E0,2.9E1,2.6E1,5E0,1.05E2,1.66E2,2.1E1,1.1E1,2.9E1,1.7E1,1.5E1,4.6E1,4E0],"tree_param":{"num_deleted":"0","num_feature":"21","num_nodes":"73","size_leaf_vector":"1"}},{"base_weights":[1.6117967E-3,-3.5700034E-2,1.5390146E-1,-6.822138E-2,2.0068089E-2,-1.4411616E-2,2.159401E-1,-8.48589E-2,-9.422211E-3,8.430846E-2,3.5080207E-3,-7.2077066E-2,4.1638955E-2,1.2384289E-1,1.455723E-2,-9.7332254E-2,-4.949844E-2,-5.901331E-2,1.10491745E-1,1.0773506E-2,6.5064915E-2,2.8672453E-2,-5.943462E-2,-4.7209617E-3,-3.6979467E-2,-1.000618E-2,7.873804E-3,-0E0,1.2978697E-1,-5.7754563E-3,-8.535947E-2,6.2913327E-3,-5.955485E-2,-7.570256E-2,-8.338435E-3,7.362225E-2,7.385937E-3,2.0976186E-2,9.738874E-2,3.9295863E-2,-3.759884E-3,-3.9180942E-2,-4.305625E-3,-2.9363937E-3,1.358333E-3,-2.032363E-3,1.0513082E-2,-8.370417E-4,9.119223E-4,4.6860683E-3,7.1449266E-3,-4.688741E-3,-2.2610666E-3,-6.405904E-4,1.1219325E-3,-8.9395617E-4,-3.449845E-3,-4.7629876E-3,-2.8075126E-3,-2.3495744E-3,9.221332E-4,3.9602473E-4,4.576289E-3,1.2733394E-3,-0E0,-0E0,5.0503197E-3,1.0769106E-3,2.3167145E-3,4.553038E-5,-1.6659712E-3,-8.7698645E-5,-2.1869463E-3,-0E0,3.3828162E-4,-0E0,1.3661638E-3],"categories":[],"categories_nodes":[],"categories_segments":[],"categories_sizes":[],"default_left":[0,0,0,0,0,0,0,0,0,0,0,0,0,0,0,0,0,0,0,0,0,0,0,0,0,0,0,0,0,0,0,0,0,0,0,0,0,0,0,0,0,0,0,0,0,0,0,0,0,0,0,0,0,0,0,0,0,0,0,0,0,0,0,0,0,0,0,0,0,0,0,0,0,0,0,0,0],"id":1,"left_children":[1,3,5,7,9,11,13,15,17,19,21,23,25,27,-1,29,31,33,35,-1,37,39,41,-1,43,45,-1,47,49,-1,51,53,55,57,59,61,-1,63,65,67,69,71,-1,-1,73,-1,75,-1,-1,-1,-1,-1,-1,-1,-1,-1,-1,-1,-1,-1,-1,-1,-1,-1,-1,-1,-1,-1,-1,-1,-1,-1,-1,-1,-1,-1,-1],"loss_changes":[1.1199897E1,2.873572E0,4.074727E0,9.6804476E-1,6.100687E-1,3.454241E-1,1.8894634E0,3.2364655E-1,1.3274789E0,2.5576073E-1,7.351487E-1,2.4928838E-2,3.333912E-1,9.491992E-2,0E0,9.4536304E-2,1.2183732E-1,1.25435E-1,5.620569E-2,0E0,1.3575783E-1,1.1877841E-1,5.5419564E-2,0E0,2.5827594E-2,2.6703842E-2,0E0,2.4515856E-3,2.1581888E-2,0E0,1.0075712E-1,1.0812562E-2,5.972904E-2,2.4631977E-2,4.7198717E-2,3.1676993E-2,0E0,6.559387E-3,1.1739016E-2,2.3961186E-2,1.4453887E-2,8.850716E-3,0E0,0E0,2.1410837E-4,0E0,4.3980293E-3,0E0,0E0,0E0,0E0,0E0,0E0,0E0,0E0,0E0,0E0,0E0,0E0,0E0,0E0,0E0,0E0,0E0,0E0,0E0,0E0,0E0,0E0,0E0,0E0,0E0,0E0,0E0,0E0,0E0,0E0],"parents":[2147483647,0,0,1,1,2,2,3,3,4,4,5,5,6,6,7,7,8,8,9,9,10,10,11,11,12,12,13,13,15,15,16,16,17,17,18,18,20,20,21,21,22,22,24,24,25,25,27,27,28,28,30,30,31,31,32,32,33,33,34,34,35,35,37,37,38,38,39,39,40,40,41,41,44,44,46,46],"right_children":[2,4,6,8,10,12,14,16,18,20,22,24,26,28,-1,30,32,34,36,-1,38,40,42,-1,44,46,-1,48,50,-1,52,54,56,58,60,62,-1,64,66,68,70,72,-1,-1,74,-1,76,-1,-1,-1,-1,-1,-1,-1,-1,-1,-1,-1,-1,-1,-1,-1,-1,-1,-1,-1,-1,-1,-1,-1,-1,-1,-1,-1,-1,-1,-1],"split_conditions":[4E0,9.08E-1,9.08E-1,3.0445225E0,2E-1,2.5E1,3.0445225E0,8.255E-1,3.884E-1,5E0,1E2,3.0445225E0,9.1E-2,5.9E1,1.455723E-2,5.324E-1,9.38E-2,2.522E-1,5.44E-1,1.0773506E-2,8.340564E0,1.7412823E1,2.56E2,-4.7209617E-3,1.8E1,4E1,7.873804E-3,5.6E1,9.815E-1,-5.7754563E-3,8.241784E0,8.241784E0,1E2,9.36E-2,7.238702E0,7.238702E0,7.385937E-3,9.29E-2,6.4E1,9.77E-1,3.2E1,2.8E-1,-4.305625E-3,-2.9363937E-3,2.1E1,-2.032363E-3,8.845E-1,-8.370417E-4,9.119223E-4,4.6860683E-3,7.1449266E-3,-4.688741E-3,-2.2610666E-3,-6.405904E-4,1.1219325E-3,-8.9395617E-4,-3.449845E-3,-4.7629876E-3,-2.8075126E-3,-2.3495744E-3,9.221332E-4,3.9602473E-4,4.576289E-3,1.2733394E-3,-0E0,-0E0,5.0503197E-3,1.0769106E-3,2.3167145E-3,4.553038E-5,-1.6659712E-3,-8.7698645E-5,-2.1869463E-3,-0E0,3.3828162E-4,-0E0,1.3661638E-3],"split_indices":[5,15,15,9,20,11,9,15,15,0,13,9,20,11,0,15,20,15,15,0,18,1,13,0,11,11,0,11,15,0,18,18,13,15,18,18,0,20,11,15,13,20,0,0,11,0,15,0,0,0,0,0,0,0,0,0,0,0,0,0,0,0,0,0,0,0,0,0,0,0,0,0,0,0,0,0,0],"split_type":[0,0,0,0,0,0,0,0,0,0,0,0,0,0,0,0,0,0,0,0,0,0,0,0,0,0,0,0,0,0,0,0,0,0,0,0,0,0,0,0,0,0,0,0,0,0,0,0,0,0,0,0,0,0,0,0,0,0,0,0,0,0,0,0,0,0,0,0,0,0,0,0,0,0,0,0,0],"sum_hessian":[1.967E3,1.58E3,3.87E2,9.99E2,5.81E2,1.04E2,2.83E2,7.77E2,2.22E2,1.17E2,4.64E2,5.2E1,5.2E1,1.29E2,1.54E2,5.71E2,2.06E2,1.58E2,6.4E1,1.3E1,1.04E2,3.33E2,1.31E2,2.9E1,2.3E1,3.6E1,1.6E1,6E0,1.23E2,2.2E2,3.51E2,3E1,1.76E2,1.17E2,4.1E1,3.5E1,2.9E1,4.6E1,5.8E1,2.53E2,8E1,7.8E1,5.3E1,1.6E1,7E0,1.6E1,2E1,3E0,3E0,3.7E1,8.6E1,2.87E2,6.4E1,1.1E1,1.9E1,3.5E1,1.41E2,5.4E1,6.3E1,1.8E1,2.3E1,9E0,2.6E1,4.1E1,5E0,3E0,5.5E1,7.7E1,1.76E2,6.7E1,1.3E1,1.1E1,6.7E1,3E0,4E0,1.2E1,8E0],"tree_param":{"num_deleted":"0","num_feature":"21","num_nodes":"77","size_leaf_vector":"1"}},{"base_weights":[-1.4821084E-3,-6.331061E-2,1.1628001E-1,-8.995479E-2,-1.9099582E-2,7.053417E-2,1.364069E-2,-1.0122726E-1,-7.109848E-2,-2.9831909E-2,4.732084E-2,5.3722024E-2,1.3759428E-1,-5.319126E-3,-8.035909E-2,-7.2386235E-2,9.129035E-4,-4.3637663E-2,-0E0,2.6728665E-2,1.0138968E-2,4.402319E-2,9.8195285E-2,4.5685186E-3,7.3607834E-3,-4.10478E-3,-4.6048188E-4,-3.614433E-2,-7.728007E-2,-5.3685308E-2,-1.2628211E-2,1.1954042E-2,-9.2410315E-3,-9.473985E-3,5.219177E-2,5.3886813E-3,4.0910486E-2,2.5418026E-3,5.3036916E-3,-2.7755406E-3,-9.152004E-4,-4.194732E-3,-2.3579085E-3,-2.7506968E-3,1.9123881E-4,-0E0,-1.2302785E-3,-0E0,1.0800032E-3,-8.4513315E-4,8.731605E-5,-1.412335E-3,3.09446E-4,3.2992972E-4,3.1519816E-3,1.8596497E-3,3.3471256E-3],"categories":[],"categories_nodes":[],"categories_segments":[],"categories_sizes":[],"default_left":[0,0,0,0,0,0,0,0,0,0,0,0,0,0,0,0,0,0,0,0,0,0,0,0,0,0,0,0,0,0,0,0,0,0,0,0,0,0,0,0,0,0,0,0,0,0,0,0,0,0,0,0,0,0,0,0,0],"id":2,"left_children":[1,3,5,7,9,11,-1,13,15,17,19,21,23,-1,25,27,-1,29,31,33,-1,35,37,-1,-1,-1,-1,39,41,43,45,47,49,51,53,-1,55,-1,-1,-1,-1,-1,-1,-1,-1,-1,-1,-1,-1,-1,-1,-1,-1,-1,-1,-1,-1],"loss_changes":[1.411275E1,1.4857502E0,4.7226553E0,1.4391565E-1,3.4254152E-1,5.574825E-1,0E0,2.5491714E-2,4.1600704E-2,1.6868538E-1,1.8291026E-1,1.6132355E-1,8.053422E-3,0E0,3.0863285E-3,3.9072752E-2,0E0,8.086556E-2,1.4748686E-2,6.0076162E-2,0E0,4.9381435E-2,5.7813525E-3,0E0,0E0,0E0,0E0,5.4226145E-3,3.4940958E-2,2.1451712E-2,1.2575928E-2,6.927659E-3,8.195454E-3,9.43744E-3,1.0919973E-2,0E0,1.9322395E-2,0E0,0E0,0E0,0E0,0E0,0E0,0E0,0E0,0E0,0E0,0E0,0E0,0E0,0E0,0E0,0E0,0E0,0E0,0E0,0E0],"parents":[2147483647,0,0,1,1,2,2,3,3,4,4,5,5,7,7,8,8,9,9,10,10,11,11,12,12,14,14,15,15,17,17,18,18,19,19,21,21,22,22,27,27,28,28,29,29,30,30,31,31,32,32,33,33,34,34,36,36],"right_children":[2,4,6,8,10,12,-1,14,16,18,20,22,24,-1,26,28,-1,30,32,34,-1,36,38,-1,-1,-1,-1,40,42,44,46,48,50,52,54,-1,56,-1,-1,-1,-1,-1,-1,-1,-1,-1,-1,-1,-1,-1,-1,-1,-1,-1,-1,-1,-1],"split_conditions":[2.45E-1,8.77E-2,4.885E-1,3.72E-2,3.4339871E0,3.46E-1,1.364069E-2,3.0445225E0,1.0419797E1,1.28E2,1E0,8.541105E0,3.91E-1,-5.319126E-3,5E1,3.474E-1,9.129035E-4,1.875E-1,1.609438E0,1.302E-1,1.0138968E-2,5.799E-1,9.5E-1,4.5685186E-3,7.3607834E-3,-4.10478E-3,-4.6048188E-4,7.238702E0,1.13E2,1.98E2,1.28E2,1E1,1.729E-1,7.238702E0,7.238702E0,5.3886813E-3,3.199E-1,2.5418026E-3,5.3036916E-3,-2.7755406E-3,-9.152004E-4,-4.194732E-3,-2.3579085E-3,-2.7506968E-3,1.9123881E-4,-0E0,-1.2302785E-3,-0E0,1.0800032E-3,-8.4513315E-4,8.731605E-5,-1.412335E-3,3.09446E-4,3.2992972E-4,3.1519816E-3,1.8596497E-3,3.3471256E-3],"split_indices":[17,17,17,17,9,17,0,9,18,3,7,8,17,0,2,15,0,17,9,17,0,15,15,0,0,0,0,18,11,11,13,11,17,18,18,0,17,0,0,0,0,0,0,0,0,0,0,0,0,0,0,0,0,0,0,0,0],"split_type":[0,0,0,0,0,0,0,0,0,0,0,0,0,0,0,0,0,0,0,0,0,0,0,0,0,0,0,0,0,0,0,0,0,0,0,0,0,0,0,0,0,0,0,0,0,0,0,0,0,0,0,0,0,0,0,0,0],"sum_hessian":[1.937E3,1.271E3,6.66E2,7.91E2,4.8E2,5.17E2,1.49E2,4.89E2,3.02E2,4.15E2,6.5E1,4.16E2,1.01E2,3.85E2,1.04E2,2.99E2,3E0,2.82E2,1.33E2,5.9E1,6E0,3.45E2,7.1E1,2.1E1,8E1,1E2,4E0,3.9E1,2.6E2,2.1E2,7.2E1,5.5E1,7.8E1,2.3E1,3.6E1,1.3E1,3.32E2,1.3E1,5.8E1,1.5E1,2.4E1,2.09E2,5.1E1,2.07E2,3E0,3.3E1,3.9E1,2.4E1,3.1E1,5.1E1,2.7E1,1.3E1,1E1,9E0,2.7E1,2.96E2,3.6E1],"tree_param":{"num_deleted":"0","num_feature":"21","num_nodes":"57","size_leaf_vector":"1"}},{"base_weights":[-3.424526E-4,-3.2211628E-2,2.1395586E-1,-8.035753E-2,2.3051541E-2,6.7318915E-3,1.2975538E-2,-9.6585274E-2,-6.152017E-2,-1.5322558E-2,4.972957E-2,-5.074398E-3,-7.7374935E-2,-6.729389E-2,-7.6353606E-3,-2.575098E-2,5.6628495E-2,4.0958352E-2,9.047609E-2,-3.9235926E-3,-1.9815369E-4,-7.199563E-2,-3.6012065E-2,-2.3841158E-2,1.4576608E-2,-3.1434714E-3,-3.852949E-2,3.6968272E-2,8.539423E-3,3.6867328E-2,4.7113667E-3,5.2828442E-2,5.215351E-3,-3.8455636E-3,-2.048032E-3,-7.845795E-4,-2.2449438E-3,-0E0,-1.3825338E-3,-0E0,1.5946751E-3,-4.1691677E-4,4.3288674E-3,-1.5971189E-3,-3.5140817E-3,2.1479751E-3,-0E0,1.6554116E-3,3.2030158E-3,-0E0,2.9681444E-3],"categories":[],"categories_nodes":[],"categories_segments":[],"categories_sizes":[],"default_left":[0,0,0,0,0,0,0,0,0,0,0,0,0,0,0,0,0,0,0,0,0,0,0,0,0,0,0,0,0,0,0,0,0,0,0,0,0,0,0,0,0,0,0,0,0,0,0,0,0,0,0],"id":3,"left_children":[1,3,5,7,9,-1,-1,11,13,15,17,-1,19,21,23,25,27,29,31,-1,-1,33,35,37,39,41,43,45,-1,47,-1,49,-1,-1,-1,-1,-1,-1,-1,-1,-1,-1,-1,-1,-1,-1,-1,-1,-1,-1,-1],"loss_changes":[1.3613591E1,4.631871E0,8.578825E-1,2.6253748E-1,8.324126E-1,0E0,0E0,2.0881176E-2,1.2763953E-1,2.4673167E-1,1.5434384E-1,0E0,2.2286177E-4,4.4261694E-2,1.7472299E-2,7.977867E-2,6.493141E-2,7.0150495E-2,2.1473646E-2,0E0,0E0,3.647399E-2,3.3491403E-3,1.8658135E-3,3.508251E-3,4.3701533E-2,2.5808007E-2,1.0335945E-2,0E0,2.6290715E-2,0E0,4.965E-3,0E0,0E0,0E0,0E0,0E0,0E0,0E0,0E0,0E0,0E0,0E0,0E0,0E0,0E0,0E0,0E0,0E0,0E0,0E0],"parents":[2147483647,0,0,1,1,2,2,3,3,4,4,7,7,8,8,9,9,10,10,12,12,13,13,14,14,15,15,16,16,17,17,18,18,21,21,22,22,23,23,24,24,25,25,26,26,27,27,29,29,31,31],"right_children":[2,4,6,8,10,-1,-1,12,14,16,18,-1,20,22,24,26,28,30,32,-1,-1,34,36,38,40,42,44,46,-1,48,-1,50,-1,-1,-1,-1,-1,-1,-1,-1,-1,-1,-1,-1,-1,-1,-1,-1,-1,-1,-1],"split_conditions":[3.46E-1,1.095E-1,4.885E-1,3.72E-2,2.248E-1,6.7318915E-3,1.2975538E-2,3.0445225E0,1.6878258E1,3.4339871E0,8.541105E0,-5.074398E-3,3.7E1,3.0445225E0,9.76E-2,1.28E2,1E0,3.9318256E0,8.1E1,-3.9235926E-3,-1.9815369E-4,1.31E2,2.423E-1,1.8010649E1,1.8019531E1,5.8E1,1.3E1,8.541105E0,8.539423E-3,3.199E-1,4.7113667E-3,2.382E-1,5.215351E-3,-3.8455636E-3,-2.048032E-3,-7.845795E-4,-2.2449438E-3,-0E0,-1.3825338E-3,-0E0,1.5946751E-3,-4.1691677E-4,4.3288674E-3,-1.5971189E-3,-3.5140817E-3,2.1479751E-3,-0E0,1.6554116E-3,3.2030158E-3,-0E0,2.9681444E-3],"split_indices":[17,17,17,17,17,0,0,9,1,9,8,0,11,9,17,13,7,9,11,0,0,11,19,1,1,11,0,8,0,17,0,17,0,0,0,0,0,0,0,0,0,0,0,0,0,0,0,0,0,0,0],"split_type":[0,0,0,0,0,0,0,0,0,0,0,0,0,0,0,0,0,0,0,0,0,0,0,0,0,0,0,0,0,0,0,0,0,0,0,0,0,0,0,0,0,0,0,0,0,0,0,0,0,0,0],"sum_hessian":[1.994E3,1.737E3,2.57E2,9.29E2,8.08E2,9.6E1,1.61E2,4.94E2,4.35E2,3.3E2,4.78E2,3.86E2,1.08E2,3.91E2,4.4E1,2.9E2,4E1,3.97E2,8.1E1,1.05E2,3E0,3.36E2,5.5E1,2.8E1,1.6E1,1.08E2,1.82E2,3.6E1,4E0,3.72E2,2.5E1,2.5E1,5.6E1,2.86E2,5E1,2.1E1,3.4E1,5E0,2.3E1,1E1,6E0,1.04E2,4E0,1.55E2,2.7E1,3.2E1,4E0,3.32E2,4E1,4E0,2.1E1],"tree_param":{"num_deleted":"0","num_feature":"21","num_nodes":"51","size_leaf_vector":"1"}},{"base_weights":[-7.88821E-4,-4.6609458E-2,8.31938E-2,-7.651218E-2,-1.5859673E-2,1.2757668E-2,4.110506E-2,-8.637745E-2,-4.8299108E-2,-3.591487E-2,8.652009E-2,6.387099E-2,-1.9219143E-2,-4.6261144E-3,-4.6857964E-2,-5.9018537E-2,6.975009E-2,-4.4001453E-3,-6.4106636E-2,1.8894946E-2,1.5055832E-1,1.0462611E-1,3.647746E-2,3.886185E-5,-5.4363165E-2,-1.8851867E-2,-4.249191E-3,-7.4623294E-2,-3.498479E-2,3.1516075E-4,4.659345E-3,-3.3124052E-2,2.7895207E-2,-7.502443E-2,-2.162028E-3,-3.0422095E-2,4.883991E-2,1.11038126E-1,9.23993E-3,6.8654898E-3,8.87829E-2,2.0459943E-2,3.983301E-2,1.163876E-2,-8.142915E-3,-1.0542966E-3,-3.6167072E-3,-0E0,-1.3805105E-3,-2.645123E-3,-4.282961E-3,-0E0,-2.7661254E-3,-5.2942213E-4,-2.5528842E-3,7.725556E-4,2.9547361E-3,-2.725655E-3,-4.0401304E-3,-1.7686567E-3,-0E0,3.0490623E-3,-0E0,6.6278526E-3,6.6294515E-4,4.5924685E-3,8.057871E-5,1.1072549E-3,-0E0,2.765142E-3,1.7779245E-3,3.6137942E-3,1.7009235E-4,-1.1558322E-3,-0E0],"categories":[],"categories_nodes":[],"categories_segments":[],"categories_sizes":[],"default_left":[0,0,0,0,0,0,0,0,0,0,0,0,0,0,0,0,0,0,0,0,0,0,0,0,0,0,0,0,0,0,0,0,0,0,0,0,0,0,0,0,0,0,0,0,0,0,0,0,0,0,0,0,0,0,0,0,0,0,0,0,0,0,0,0,0,0,0,0,0,0,0,0,0,0,0],"id":4,"left_children":[1,3,5,7,9,-1,11,13,15,17,19,21,23,-1,25,27,29,31,33,35,37,39,41,43,45,47,-1,49,51,-1,-1,53,55,57,-1,59,61,63,-1,-1,65,67,69,71,73,-1,-1,-1,-1,-1,-1,-1,-1,-1,-1,-1,-1,-1,-1,-1,-1,-1,-1,-1,-1,-1,-1,-1,-1,-1,-1,-1,-1,-1,-1],"loss_changes":[7.5810494E0,1.1628344E0,4.989992E0,1.6188288E-1,1.2956988E0,0E0,7.7476114E-1,9.683323E-2,2.206957E-1,4.6374893E-1,4.26261E-1,4.3757534E-1,1.0898551E-1,0E0,6.062177E-2,4.6059966E-2,1.0281496E-2,2.3614201E-1,4.8260927E-2,8.0121055E-2,2.0262122E-2,4.9085855E-2,6.431401E-3,9.745319E-3,2.2622123E-2,8.705535E-3,0E0,3.9052367E-3,4.9601234E-2,0E0,0E0,4.8258513E-2,3.7445806E-2,3.1598806E-3,0E0,2.4355631E-3,1.5585065E-2,4.2575747E-2,0E0,0E0,2.0978987E-2,6.473679E-4,2.0403564E-3,1.516164E-2,6.104551E-3,0E0,0E0,0E0,0E0,0E0,0E0,0E0,0E0,0E0,0E0,0E0,0E0,0E0,0E0,0E0,0E0,0E0,0E0,0E0,0E0,0E0,0E0,0E0,0E0,0E0,0E0,0E0,0E0,0E0,0E0],"parents":[2147483647,0,0,1,1,2,2,3,3,4,4,6,6,7,7,8,8,9,9,10,10,11,11,12,12,14,14,15,15,16,16,17,17,18,18,19,19,20,20,21,21,22,22,23,23,24,24,25,25,27,27,28,28,31,31,32,32,33,33,35,35,36,36,37,37,40,40,41,41,42,42,43,43,44,44],"right_children":[2,4,6,8,10,-1,12,14,16,18,20,22,24,-1,26,28,30,32,34,36,38,40,42,44,46,48,-1,50,52,-1,-1,54,56,58,-1,60,62,64,-1,-1,66,68,70,72,74,-1,-1,-1,-1,-1,-1,-1,-1,-1,-1,-1,-1,-1,-1,-1,-1,-1,-1,-1,-1,-1,-1,-1,-1,-1,-1,-1,-1,-1,-1],"split_conditions":[9.5E-1,3.1E1,3.503E-1,3.0445225E0,3.0445225E0,1.2757668E-2,7.517E-1,7.93E-1,3.808E-1,7.244E-1,5.2E-1,2.396E-1,3E-1,-4.6261144E-3,7.465E-1,1.312E-1,1.558179E1,5.1E1,1.01E2,3.08E-1,7.428E-1,1.549908E1,9.77E-1,1.609438E0,1.0819798E1,3E0,-4.249191E-3,2.374E-1,2.418E-1,3.1516075E-4,4.659345E-3,1.6E1,9E0,1.0819798E1,-2.162028E-3,2.626E-1,2.54E-1,2.54E-1,9.23993E-3,6.8654898E-3,1.2E1,1.5162718E1,3E0,8.516E-1,9.91E-1,-1.0542966E-3,-3.6167072E-3,-0E0,-1.3805105E-3,-2.645123E-3,-4.282961E-3,-0E0,-2.7661254E-3,-5.2942213E-4,-2.5528842E-3,7.725556E-4,2.9547361E-3,-2.725655E-3,-4.0401304E-3,-1.7686567E-3,-0E0,3.0490623E-3,-0E0,6.6278526E-3,6.6294515E-4,4.5924685E-3,8.057871E-5,1.1072549E-3,-0E0,2.765142E-3,1.7779245E-3,3.6137942E-3,1.7009235E-4,-1.1558322E-3,-0E0],"split_indices":[15,11,16,9,9,0,16,15,15,19,15,19,20,0,16,15,1,11,11,15,15,1,15,9,1,2,0,19,19,0,0,2,0,1,0,15,16,16,0,0,0,1,2,16,15,0,0,0,0,0,0,0,0,0,0,0,0,0,0,0,0,0,0,0,0,0,0,0,0,0,0,0,0,0,0],"split_type":[0,0,0,0,0,0,0,0,0,0,0,0,0,0,0,0,0,0,0,0,0,0,0,0,0,0,0,0,0,0,0,0,0,0,0,0,0,0,0,0,0,0,0,0,0,0,0,0,0,0,0,0,0,0,0,0,0,0,0,0,0,0,0,0,0,0,0,0,0,0,0,0,0,0,0],"sum_hessian":[1.969E3,1.275E3,6.94E2,6.44E2,6.31E2,1.35E2,5.59E2,4.73E2,1.71E2,5.29E2,1.02E2,4.07E2,1.52E2,4.06E2,6.7E1,1.58E2,1.3E1,2.52E2,2.77E2,5.1E1,5.1E1,1.61E2,2.46E2,9.7E1,5.5E1,4.1E1,2.6E1,9.2E1,6.6E1,5E0,8E0,1.35E2,1.17E2,1.77E2,1E2,1.8E1,3.3E1,2.7E1,2.4E1,4.8E1,1.13E2,4.9E1,1.97E2,4.5E1,5.2E1,2.2E1,3.3E1,1.1E1,3E1,3.6E1,5.6E1,2.4E1,4.2E1,6.3E1,7.2E1,8.7E1,3E1,4.5E1,1.32E2,1.5E1,3E0,2.5E1,8E0,2.1E1,6E0,1.08E2,5E0,4.3E1,6E0,3.5E1,1.62E2,3E0,4.2E1,1.7E1,3.5E1],"tree_param":{"num_deleted":"0","num_feature":"21","num_nodes":"75","size_leaf_vector":"1"}},{"base_weights":[-2.421224E-4,-3.0115321E-2,1.2173964E-1,-5.6043908E-2,1.5958687E-2,-8.745859E-3,1.7697538E-1,-6.906678E-2,-8.815327E-3,4.3649007E-2,-3.0401986E-2,-5.43331E-2,4.359357E-2,1.2067585E-2,1.0205005E-1,-8.0292016E-2,-4.0093828E-2,-4.858638E-2,9.726728E-2,9.176581E-3,3.9291732E-2,-1.500245E-4,-5.2642006E-2,-3.6601108E-3,-2.3887018E-2,6.89703E-3,1.2052095E-3,-1.3419742E-3,1.0609342E-1,-4.7409157E-3,-7.028546E-2,-8.70872E-4,-5.6727387E-2,-5.9757594E-2,-5.622249E-3,5.022213E-2,1.23723E-1,3.1788405E-2,7.5312346E-2,-1.0650836E-2,8.051812E-3,-1.3065074E-3,-3.6261466E-3,-4.766808E-2,2.0502789E-2,2.274325E-2,-1.1926151E-2,1.263365E-1,8.1936374E-2,-2.407249E-3,-4.0548323E-3,-7.113578E-4,1.1636929E-3,-2.392155E-3,-4.1487655E-3,-3.8387731E-3,-2.2140604E-3,-1.8664068E-3,9.097081E-4,3.3659514E-3,6.1832E-5,-0E0,6.634127E-3,5.310726E-4,1.8340185E-3,1.3658414E-3,4.1329493E-3,-1.032877E-3,-0E0,-1.08558896E-4,9.136388E-4,-2.6193256E-3,-0E0,-0E0,1.5431864E-3,-0E0,2.3966823E-3,-1.1788884E-3,1.062067E-4,3.7674315E-3,6.9062947E-3,9.3736406E-4,4.385726E-3],"categories":[],"categories_nodes":[],"categories_segments":[],"categories_sizes":[],"default_left":[0,0,0,0,0,0,0,0,0,0,0,0,0,0,0,0,0,0,0,0,0,0,0,0,0,0,0,0,0,0,0,0,0,0,0,0,0,0,0,0,0,0,0,0,0,0,0,0,0,0,0,0,0,0,0,0,0,0,0,0,0,0,0,0,0,0,0,0,0,0,0,0,0,0,0,0,0,0,0,0,0,0,0],"id":5,"left_children":[1,3,5,7,9,11,13,15,17,19,21,23,25,-1,27,29,31,33,35,-1,37,39,41,-1,43,-1,45,-1,47,-1,49,51,53,55,57,59,61,63,65,67,69,-1,-1,71,73,75,77,79,81,-1,-1,-1,-1,-1,-1,-1,-1,-1,-1,-1,-1,-1,-1,-1,-1,-1,-1,-1,-1,-1,-1,-1,-1,-1,-1,-1,-1,-1,-1,-1,-1,-1,-1],"loss_changes":[7.264255E0,1.9210956E0,2.843696E0,6.2387633E-1,7.433707E-1,2.826057E-1,1.2722931E0,2.462256E-1,9.491367E-1,1.917575E-1,1.393658E-1,2.5309876E-2,2.0187685E-1,0E0,7.8522086E-2,6.0551405E-2,1.4359435E-1,7.231969E-2,5.231321E-2,0E0,8.257294E-2,8.4414985E-3,5.254343E-2,0E0,3.3251688E-2,0E0,1.2383076E-2,0E0,3.092587E-2,0E0,6.670976E-2,2.2322806E-2,2.0026267E-2,1.846999E-2,3.0532006E-2,1.3998672E-2,3.2185137E-2,2.563402E-2,7.195562E-3,5.7633896E-3,6.665297E-3,0E0,0E0,1.2089722E-3,1.9321381E-3,1.3665747E-2,5.797033E-3,7.317424E-3,1.07117295E-2,0E0,0E0,0E0,0E0,0E0,0E0,0E0,0E0,0E0,0E0,0E0,0E0,0E0,0E0,0E0,0E0,0E0,0E0,0E0,0E0,0E0,0E0,0E0,0E0,0E0,0E0,0E0,0E0,0E0,0E0,0E0,0E0,0E0,0E0],"parents":[2147483647,0,0,1,1,2,2,3,3,4,4,5,5,6,6,7,7,8,8,9,9,10,10,11,11,12,12,14,14,15,15,16,16,17,17,18,18,20,20,21,21,22,22,24,24,26,26,28,28,30,30,31,31,32,32,33,33,34,34,35,35,36,36,37,37,38,38,39,39,40,40,43,43,44,44,45,45,46,46,47,47,48,48],"right_children":[2,4,6,8,10,12,14,16,18,20,22,24,26,-1,28,30,32,34,36,-1,38,40,42,-1,44,-1,46,-1,48,-1,50,52,54,56,58,60,62,64,66,68,70,-1,-1,72,74,76,78,80,82,-1,-1,-1,-1,-1,-1,-1,-1,-1,-1,-1,-1,-1,-1,-1,-1,-1,-1,-1,-1,-1,-1,-1,-1,-1,-1,-1,-1,-1,-1,-1,-1,-1,-1],"split_conditions":[4E0,9.08E-1,9.08E-1,3.0445225E0,7.517E-1,2.8E1,3.503E-1,8.255E-1,3.884E-1,2E0,3E-1,3.0445225E0,3.316E-1,1.2067585E-2,3.1E1,5.324E-1,7.848153E0,2.626E-1,5.242E-1,9.176581E-3,8.340564E0,1E-4,1.0819798E1,-3.6601108E-3,2E1,6.89703E-3,1.549908E1,-1.3419742E-3,8.541105E0,-4.7409157E-3,7.848153E0,5.3E1,7.915E-1,9.36E-2,7.238702E0,2.54E-1,7E0,9.544E-1,7.1E1,9.996E-1,9E0,-1.3065074E-3,-3.6261466E-3,3.356E-1,2.2E1,4.3E1,8.704E-1,9.654E-1,6.6E1,-2.407249E-3,-4.0548323E-3,-7.113578E-4,1.1636929E-3,-2.392155E-3,-4.1487655E-3,-3.8387731E-3,-2.2140604E-3,-1.8664068E-3,9.097081E-4,3.3659514E-3,6.1832E-5,-0E0,6.634127E-3,5.310726E-4,1.8340185E-3,1.3658414E-3,4.1329493E-3,-1.032877E-3,-0E0,-1.08558896E-4,9.136388E-4,-2.6193256E-3,-0E0,-0E0,1.5431864E-3,-0E0,2.3966823E-3,-1.1788884E-3,1.062067E-4,3.7674315E-3,6.9062947E-3,9.3736406E-4,4.385726E-3],"split_indices":[5,15,15,9,16,11,16,15,15,0,20,9,16,0,11,15,8,15,15,0,18,14,1,0,11,0,1,0,8,0,8,11,16,15,18,16,0,15,11,15,11,0,0,15,11,11,15,15,11,0,0,0,0,0,0,0,0,0,0,0,0,0,0,0,0,0,0,0,0,0,0,0,0,0,0,0,0,0,0,0,0,0,0],"split_type":[0,0,0,0,0,0,0,0,0,0,0,0,0,0,0,0,0,0,0,0,0,0,0,0,0,0,0,0,0,0,0,0,0,0,0,0,0,0,0,0,0,0,0,0,0,0,0,0,0,0,0,0,0,0,0,0,0,0,0,0,0,0,0,0,0,0,0,0,0,0,0,0,0,0,0,0,0,0,0,0,0,0,0],"sum_hessian":[1.994E3,1.603E3,3.91E2,1.027E3,5.76E2,1.16E2,2.75E2,8.03E2,2.24E2,3.62E2,2.14E2,6.3E1,5.3E1,1.46E2,1.29E2,5.75E2,2.28E2,1.64E2,6E1,9E0,3.53E2,9.3E1,1.21E2,3.6E1,2.7E1,1.5E1,3.8E1,3E0,1.26E2,2.27E2,3.48E2,7E1,1.58E2,1.28E2,3.6E1,2.4E1,3.6E1,2.96E2,5.7E1,4.6E1,4.7E1,5.5E1,6.6E1,1.9E1,8E0,1.7E1,2.1E1,6.4E1,6.2E1,1.19E2,2.29E2,4.8E1,2.2E1,1.23E2,3.5E1,5.6E1,7.2E1,1.7E1,1.9E1,1.6E1,8E0,3E0,3.3E1,6E1,2.36E2,1E1,4.7E1,2.5E1,2.1E1,1.9E1,2.8E1,1.6E1,3E0,3E0,5E0,8E0,9E0,1.5E1,6E0,1.5E1,4.9E1,7E0,5.5E1],"tree_param":{"num_deleted":"0","num_feature":"21","num_nodes":"83","size_leaf_vector":"1"}},{"base_weights":[-5.3732252E-5,-2.9232634E-2,1.8162513E-1,-6.229716E-2,3.084703E-2,1.083037E-1,1.1288734E-2,-7.748635E-2,-3.4456074E-2,-0E0,4.4603486E-2,3.7679938E-3,6.017132E-3,-4.4085146E-3,-6.633122E-2,-4.664436E-2,6.9040935E-3,-1.2255799E-2,6.650252E-2,3.1240763E-2,6.409846E-2,-4.2625498E-2,-7.077977E-2,-5.1903024E-2,-4.5912093E-3,-0E0,6.3313516E-3,2.9851293E-2,-1.5367186E-2,1.8252025E-3,5.7332753E-3,3.712235E-3,3.3158608E-2,5.0021067E-2,4.293534E-3,-6.553755E-4,-2.563162E-3,-3.7354354E-3,-2.3824887E-3,-2.6525282E-3,-0E0,-1.8216086E-3,3.2175257E-4,-1.0605206E-3,3.2800293E-4,-0E0,2.2281425E-3,-1.0874774E-3,-0E0,2.8731988E-4,-0E0,1.4851862E-3,2.449879E-3,1.9216117E-3,4.192413E-3],"categories":[],"categories_nodes":[],"categories_segments":[],"categories_sizes":[],"default_left":[0,0,0,0,0,0,0,0,0,0,0,0,0,0,0,0,0,0,0,0,0,0,0,0,0,0,0,0,0,0,0,0,0,0,0,0,0,0,0,0,0,0,0,0,0,0,0,0,0,0,0,0,0,0,0],"id":6,"left_children":[1,3,5,7,9,11,-1,13,15,17,19,-1,-1,-1,21,23,25,27,29,31,33,35,37,39,41,43,-1,45,47,-1,-1,49,51,53,-1,-1,-1,-1,-1,-1,-1,-1,-1,-1,-1,-1,-1,-1,-1,-1,-1,-1,-1,-1,-1],"loss_changes":[1.0422811E1,3.3761668E0,8.2263374E-1,4.4961596E-1,2.5877225E-1,1.3004541E-2,0E0,6.2842846E-2,2.014029E-1,1.475647E-1,9.735507E-2,0E0,0E0,0E0,2.2974133E-2,6.1339855E-2,7.597737E-2,1.9710131E-2,2.1152131E-2,9.54707E-3,3.2993853E-2,8.699052E-3,1.0830998E-2,2.1019995E-2,1.6224366E-2,1.2201713E-2,0E0,3.8951868E-3,1.3300851E-2,0E0,0E0,2.7196395E-4,3.4246445E-3,2.6103348E-2,0E0,0E0,0E0,0E0,0E0,0E0,0E0,0E0,0E0,0E0,0E0,0E0,0E0,0E0,0E0,0E0,0E0,0E0,0E0,0E0,0E0],"parents":[2147483647,0,0,1,1,2,2,3,3,4,4,5,5,7,7,8,8,9,9,10,10,14,14,15,15,16,16,17,17,18,18,19,19,20,20,21,21,22,22,23,23,24,24,25,25,27,27,28,28,31,31,32,32,33,33],"right_children":[2,4,6,8,10,12,-1,14,16,18,20,-1,-1,-1,22,24,26,28,30,32,34,36,38,40,42,44,-1,46,48,-1,-1,50,52,54,-1,-1,-1,-1,-1,-1,-1,-1,-1,-1,-1,-1,-1,-1,-1,-1,-1,-1,-1,-1,-1],"split_conditions":[3.362E-1,1.599E-1,4.885E-1,6.98E-2,2.45E-1,7E0,1.1288734E-2,1.42E-2,5.12E2,3.4339871E0,1E2,3.7679938E-3,6.017132E-3,-4.4085146E-3,1.959E-1,3.0445225E0,2.0794415E0,1.609438E0,6.9E1,9.5E-1,6.667E-1,2.374E-1,7.1E1,8.965E-1,2E0,9.76E-2,6.3313516E-3,9.28E-1,2.105E-1,1.8252025E-3,5.7332753E-3,5E0,6.997E-1,3.0445225E0,4.293534E-3,-6.553755E-4,-2.563162E-3,-3.7354354E-3,-2.3824887E-3,-2.6525282E-3,-0E0,-1.8216086E-3,3.2175257E-4,-1.0605206E-3,3.2800293E-4,-0E0,2.2281425E-3,-1.0874774E-3,-0E0,2.8731988E-4,-0E0,1.4851862E-3,2.449879E-3,1.9216117E-3,4.192413E-3],"split_indices":[17,17,17,17,17,0,0,17,3,9,13,0,0,0,16,9,9,9,11,15,16,19,11,16,0,17,0,15,17,0,0,0,16,9,0,0,0,0,0,0,0,0,0,0,0,0,0,0,0,0,0,0,0,0,0],"split_type":[0,0,0,0,0,0,0,0,0,0,0,0,0,0,0,0,0,0,0,0,0,0,0,0,0,0,0,0,0,0,0,0,0,0,0,0,0,0,0,0,0,0,0,0,0,0,0,0,0,0,0,0,0,0,0],"sum_hessian":[1.967E3,1.696E3,2.71E2,1.095E3,6.01E2,1.04E2,1.67E2,7.05E2,3.9E2,1.84E2,4.17E2,3.2E1,7.2E1,3.52E2,3.53E2,3.03E2,8.7E1,1.57E2,2.7E1,2.52E2,1.65E2,6.1E1,2.92E2,2.67E2,3.6E1,8.3E1,4E0,8E0,1.49E2,1.9E1,8E0,2E1,2.32E2,1.05E2,6E1,1.7E1,4.4E1,2.44E2,4.8E1,2.63E2,4E0,1.1E1,2.5E1,2E1,6.3E1,3E0,5E0,1.02E2,4.7E1,1.6E1,4E0,1.98E2,3.4E1,8.2E1,2.3E1],"tree_param":{"num_deleted":"0","num_feature":"21","num_nodes":"55","size_leaf_vector":"1"}},{"base_weights":[3.332304E-4,-2.581546E-2,1.1033697E-1,-5.043725E-2,1.4879489E-2,-2.0508427E-2,1.5300755E-1,-6.203952E-2,-6.129487E-3,3.8926005E-2,-2.7197521E-2,-3.085261E-3,1.9873584E-2,1.072267E-2,8.76164E-2,-7.076229E-2,-3.3641096E-2,-4.40064E-2,8.9860685E-2,8.091757E-2,2.7142342E-2,-5.513377E-4,-4.772751E-2,-1.3849708E-2,9.2328064E-2,3.176213E-2,1.0398013E-1,-4.272814E-3,-6.0994733E-2,1.6284904E-2,-4.121345E-2,-5.9029046E-2,-1.3798088E-2,5.3727675E-2,1.1554392E-1,7.5912997E-3,6.7571595E-2,1.2023513E-2,1.7166234E-3,7.594981E-3,-1.1680216E-2,-1.1848891E-3,-3.2939035E-3,-1.7249894E-3,2.7066073E-3,2.7222588E-4,5.21335E-3,4.088989E-2,-1.2100223E-3,6.239559E-3,3.991937E-3,-3.5062586E-3,-1.6676504E-3,-0E0,1.1365952E-3,-2.358456E-3,-3.8989438E-4,-3.1632974E-3,-2.4970187E-4,-2.109229E-3,1.2570298E-4,3.357845E-3,-0E0,6.18292E-3,1.4139517E-4,1.3399165E-3,3.6422745E-3,-0E0,7.28526E-4,2.8706496E-3,6.661947E-5,-0E0,-1.122684E-3,6.9812476E-4,-0E0,-0E0,2.1753684E-3],"categories":[],"categories_nodes":[],"categories_segments":[],"categories_sizes":[],"default_left":[0,0,0,0,0,0,0,0,0,0,0,0,0,0,0,0,0,0,0,0,0,0,0,0,0,0,0,0,0,0,0,0,0,0,0,0,0,0,0,0,0,0,0,0,0,0,0,0,0,0,0,0,0,0,0,0,0,0,0,0,0,0,0,0,0,0,0,0,0,0,0,0,0,0,0,0,0],"id":7,"left_children":[1,3,5,7,9,11,13,15,17,19,21,-1,23,-1,25,27,29,31,33,35,37,39,41,43,45,47,49,-1,51,53,55,57,59,61,63,-1,65,67,-1,69,71,-1,-1,-1,73,-1,-1,75,-1,-1,-1,-1,-1,-1,-1,-1,-1,-1,-1,-1,-1,-1,-1,-1,-1,-1,-1,-1,-1,-1,-1,-1,-1,-1,-1,-1,-1],"loss_changes":[5.703802E0,1.6064762E0,2.1436062E0,5.0584555E-1,6.113385E-1,1.6178873E-1,1.108191E0,1.8262434E-1,7.628893E-1,1.7750126E-1,1.1440179E-1,0E0,1.2396652E-1,0E0,1.1290908E-1,6.6257E-2,7.499489E-2,6.0881764E-2,3.161764E-2,4.5401156E-2,2.7998328E-2,9.381855E-3,4.225576E-2,1.4213149E-2,5.057916E-3,2.053694E-2,2.383387E-2,0E0,8.0189586E-2,3.970033E-3,2.7370483E-2,1.5523195E-2,2.9077515E-2,1.38844475E-2,1.6269922E-2,0E0,3.5659373E-3,2.7984558E-3,0E0,1.0272438E-2,3.6712638E-3,0E0,0E0,0E0,1.4423985E-3,0E0,0E0,1.3903864E-3,0E0,0E0,0E0,0E0,0E0,0E0,0E0,0E0,0E0,0E0,0E0,0E0,0E0,0E0,0E0,0E0,0E0,0E0,0E0,0E0,0E0,0E0,0E0,0E0,0E0,0E0,0E0,0E0,0E0],"parents":[2147483647,0,0,1,1,2,2,3,3,4,4,5,5,6,6,7,7,8,8,9,9,10,10,12,12,14,14,15,15,16,16,17,17,18,18,19,19,20,20,21,21,22,22,23,23,24,24,25,25,26,26,28,28,29,29,30,30,31,31,32,32,33,33,34,34,36,36,37,37,39,39,40,40,44,44,47,47],"right_children":[2,4,6,8,10,12,14,16,18,20,22,-1,24,-1,26,28,30,32,34,36,38,40,42,44,46,48,50,-1,52,54,56,58,60,62,64,-1,66,68,-1,70,72,-1,-1,-1,74,-1,-1,76,-1,-1,-1,-1,-1,-1,-1,-1,-1,-1,-1,-1,-1,-1,-1,-1,-1,-1,-1,-1,-1,-1,-1,-1,-1,-1,-1,-1,-1],"split_conditions":[4E0,9.08E-1,8.546E-1,3.0445225E0,7.517E-1,2.2E1,3.503E-1,8.318E-1,3.808E-1,2.38E-1,3E-1,-3.085261E-3,9.1E-2,1.072267E-2,7.2E1,5.516E-1,6.253E-1,1.976E-1,5.516E-1,1E0,9.78E-1,4E-1,1.0819798E1,3.8E1,2.6E1,1.6878258E1,2.382E-1,-4.272814E-3,7.758171E0,5.3E1,1.1024E0,5E1,7.238702E0,2.54E-1,9.9E1,7.5912997E-3,9.236E-1,9.236E-1,1.7166234E-3,8.516E-1,3.2E1,-1.1848891E-3,-3.2939035E-3,-1.7249894E-3,5.741E-1,2.7222588E-4,5.21335E-3,5.1E1,-1.2100223E-3,6.239559E-3,3.991937E-3,-3.5062586E-3,-1.6676504E-3,-0E0,1.1365952E-3,-2.358456E-3,-3.8989438E-4,-3.1632974E-3,-2.4970187E-4,-2.109229E-3,1.2570298E-4,3.357845E-3,-0E0,6.18292E-3,1.4139517E-4,1.3399165E-3,3.6422745E-3,-0E0,7.28526E-4,2.8706496E-3,6.661947E-5,-0E0,-1.122684E-3,6.9812476E-4,-0E0,-0E0,2.1753684E-3],"split_indices":[5,15,15,9,16,11,16,15,15,19,20,0,20,0,11,15,16,15,15,10,15,19,1,11,11,1,19,0,18,11,20,2,18,16,11,0,15,15,0,16,13,0,0,0,16,0,0,11,0,0,0,0,0,0,0,0,0,0,0,0,0,0,0,0,0,0,0,0,0,0,0,0,0,0,0,0,0],"split_type":[0,0,0,0,0,0,0,0,0,0,0,0,0,0,0,0,0,0,0,0,0,0,0,0,0,0,0,0,0,0,0,0,0,0,0,0,0,0,0,0,0,0,0,0,0,0,0,0,0,0,0,0,0,0,0,0,0,0,0,0,0,0,0,0,0,0,0,0,0,0,0,0,0,0,0,0,0],"sum_hessian":[1.978E3,1.598E3,3.8E2,9.97E2,6.01E2,9.3E1,2.87E2,7.88E2,2.09E2,3.84E2,2.17E2,4.7E1,4.6E1,1.46E2,1.41E2,5.99E2,1.89E2,1.51E2,5.8E1,8.1E1,3.03E2,9.7E1,1.2E2,3.1E1,1.5E1,3.4E1,1.07E2,2.32E2,3.67E2,2.3E1,1.66E2,9.8E1,5.3E1,2.7E1,3.1E1,1E1,7.1E1,1.03E2,2E2,5.1E1,4.6E1,5.5E1,6.5E1,1.6E1,1.5E1,3E0,1.2E1,3.1E1,3E0,5.3E1,5.4E1,2.72E2,9.5E1,4E0,1.9E1,1.38E2,2.8E1,8.9E1,9E0,2.1E1,3.2E1,2E1,7E0,2.8E1,3E0,1.1E1,6E1,2E1,8.3E1,3E0,4.8E1,2.7E1,1.9E1,7E0,8E0,3E0,2.8E1],"tree_param":{"num_deleted":"0","num_feature":"21","num_nodes":"77","size_leaf_vector":"1"}},{"base_weights":[-1.1695417E-3,-2.571766E-2,1.671439E-1,-5.7247937E-2,2.5471963E-2,1.0867847E-1,1.0255972E-2,-6.733994E-2,-2.584109E-2,-5.321609E-3,3.9081663E-2,5.8883606E-3,3.8440414E-3,-7.982353E-2,-5.7892922E-2,-3.9833914E-2,4.4824188E-3,-1.6478647E-2,5.758639E-2,3.1388294E-2,7.3790476E-2,-3.219422E-3,-4.1858754E-3,-6.2022813E-2,-3.621194E-2,-4.4959098E-2,-1.6444048E-3,4.5173583E-3,-0E0,-1.1299349E-2,-5.027633E-2,1.5700915E-3,6.803012E-3,3.8006955E-3,2.8936438E-2,4.2046294E-2,4.1002217E-3,-3.3302417E-3,-1.8606605E-3,-0E0,-1.9221473E-3,-1.810099E-3,-2.7337605E-3,-1.211671E-3,7.50627E-5,2.8352597E-4,-5.15531E-4,-1.6450495E-4,-1.1664026E-3,-9.179513E-4,-3.2815293E-3,1.126951E-3,2.051205E-3,-0E0,2.3393051E-3],"categories":[],"categories_nodes":[],"categories_segments":[],"categories_sizes":[],"default_left":[0,0,0,0,0,0,0,0,0,0,0,0,0,0,0,0,0,0,0,0,0,0,0,0,0,0,0,0,0,0,0,0,0,0,0,0,0,0,0,0,0,0,0,0,0,0,0,0,0,0,0,0,0,0,0],"id":8,"left_children":[1,3,5,7,9,11,-1,13,15,17,19,-1,-1,21,23,25,27,29,31,33,35,-1,-1,37,39,41,43,-1,45,47,49,-1,-1,-1,51,53,-1,-1,-1,-1,-1,-1,-1,-1,-1,-1,-1,-1,-1,-1,-1,-1,-1,-1,-1],"loss_changes":[8.150418E0,2.7888253E0,5.036125E-1,3.2777023E-1,2.78927E-1,9.5927715E-4,0E0,7.666063E-2,1.15731955E-1,1.3721155E-1,1.09464586E-1,0E0,0E0,2.3412704E-4,2.9745817E-2,3.1083971E-2,3.1002887E-2,2.3382641E-2,3.8570553E-2,2.8773904E-2,5.0065517E-3,0E0,0E0,3.1133175E-2,3.145963E-3,2.4614334E-3,4.0860306E-3,0E0,4.648697E-3,1.2001587E-2,1.9744784E-4,0E0,0E0,0E0,2.0789742E-2,8.625537E-5,0E0,0E0,0E0,0E0,0E0,0E0,0E0,0E0,0E0,0E0,0E0,0E0,0E0,0E0,0E0,0E0,0E0,0E0,0E0],"parents":[2147483647,0,0,1,1,2,2,3,3,4,4,5,5,7,7,8,8,9,9,10,10,13,13,14,14,15,15,16,16,17,17,18,18,19,19,20,20,23,23,24,24,25,25,26,26,28,28,29,29,30,30,34,34,35,35],"right_children":[2,4,6,8,10,12,-1,14,16,18,20,-1,-1,22,24,26,28,30,32,34,36,-1,-1,38,40,42,44,-1,46,48,50,-1,-1,-1,52,54,-1,-1,-1,-1,-1,-1,-1,-1,-1,-1,-1,-1,-1,-1,-1,-1,-1,-1,-1],"split_conditions":[3.46E-1,1.485E-1,5.804E-1,8.62E-2,2.3E-1,1.6229097E1,1.0255972E-2,1.42E-2,1.6878258E1,3.4339871E0,8.541105E0,5.8883606E-3,3.8440414E-3,1.706E-1,3.0445225E0,3.0445225E0,8.014E-1,2E1,6.767E-1,5.86E-1,8.1E1,-3.219422E-3,-4.1858754E-3,9.1E1,1E2,1E-2,2E0,4.5173583E-3,7.3783836E0,1.01E2,7.848153E0,1.5700915E-3,6.803012E-3,3.8006955E-3,9.95E-1,2.631E-1,4.1002217E-3,-3.3302417E-3,-1.8606605E-3,-0E0,-1.9221473E-3,-1.810099E-3,-2.7337605E-3,-1.211671E-3,7.50627E-5,2.8352597E-4,-5.15531E-4,-1.6450495E-4,-1.1664026E-3,-9.179513E-4,-3.2815293E-3,1.126951E-3,2.051205E-3,-0E0,2.3393051E-3],"split_indices":[17,17,17,17,17,1,0,17,1,9,8,0,0,15,9,9,15,2,15,15,11,0,0,11,13,12,0,0,8,11,8,0,0,0,15,17,0,0,0,0,0,0,0,0,0,0,0,0,0,0,0,0,0,0,0],"split_type":[0,0,0,0,0,0,0,0,0,0,0,0,0,0,0,0,0,0,0,0,0,0,0,0,0,0,0,0,0,0,0,0,0,0,0,0,0,0,0,0,0,0,0,0,0,0,0,0,0,0,0,0,0,0,0],"sum_hessian":[1.974E3,1.724E3,2.5E2,1.068E3,6.56E2,1.01E2,1.49E2,8.05E2,2.63E2,1.99E2,4.57E2,7.4E1,2.7E1,3.39E2,4.66E2,1.82E2,8.1E1,1.71E2,2.8E1,3.78E2,7.9E1,7.7E1,2.62E2,3.86E2,8E1,1.58E2,2.4E1,3E0,7.8E1,1.52E2,1.9E1,2.3E1,5E0,1.6E1,3.62E2,2E1,5.9E1,3.21E2,6.5E1,7E0,7.3E1,9.1E1,6.7E1,6E0,1.8E1,5.1E1,2.7E1,9.7E1,5.5E1,9E0,1E1,2.44E2,1.18E2,4E0,1.6E1],"tree_param":{"num_deleted":"0","num_feature":"21","num_nodes":"55","size_leaf_vector":"1"}},{"base_weights":[-6.145486E-4,-4.480908E-2,8.477189E-2,-6.318147E-2,-1.4117289E-2,5.138026E-2,9.648321E-3,-3.8707354E-3,-5.4219224E-2,-2.1183081E-2,3.3819508E-2,3.8919933E-2,9.938895E-2,-3.3486672E-3,-4.7912914E-2,-2.1146468E-3,-3.2846596E-2,1.713577E-2,6.4853653E-3,2.5985934E-2,5.6908205E-2,3.8425548E-3,5.6913034E-3,-5.249783E-2,-2.0466186E-2,-2.7114272E-2,6.3041877E-3,-4.2894725E-2,-1.6805513E-2,-6.1970362E-3,3.9341915E-2,1.1795121E-3,2.7997525E-2,3.779845E-2,6.895693E-2,-2.772579E-3,-1.4009669E-3,-1.26274E-3,1.0352592E-3,-1.5522485E-3,-1.525834E-4,-9.195639E-6,9.3945564E-4,-2.1852336E-3,-0E0,2.1620564E-5,-1.2465719E-3,-1.033536E-3,2.5061326E-4,2.2937183E-3,1.5716902E-4,2.000962E-4,-0E0,1.4718965E-3,4.984889E-4,1.365667E-3,3.387815E-3,1.6109942E-3,3.7517415E-3],"categories":[],"categories_nodes":[],"categories_segments":[],"categories_sizes":[],"default_left":[0,0,0,0,0,0,0,0,0,0,0,0,0,0,0,0,0,0,0,0,0,0,0,0,0,0,0,0,0,0,0,0,0,0,0,0,0,0,0,0,0,0,0,0,0,0,0,0,0,0,0,0,0,0,0,0,0,0,0],"id":9,"left_children":[1,3,5,7,9,11,-1,-1,13,15,17,19,21,-1,23,25,27,29,-1,31,33,-1,-1,35,37,39,41,43,45,47,49,51,53,55,57,-1,-1,-1,-1,-1,-1,-1,-1,-1,-1,-1,-1,-1,-1,-1,-1,-1,-1,-1,-1,-1,-1,-1,-1],"loss_changes":[7.3734426E0,7.182214E-1,2.37177E0,8.519888E-2,1.6406652E-1,2.8798318E-1,0E0,0E0,2.5598645E-2,9.1178924E-2,8.067884E-2,8.538979E-2,5.6989193E-3,0E0,3.4918487E-2,3.7189577E-2,3.537783E-2,3.15374E-2,0E0,9.175062E-3,2.5169432E-2,0E0,0E0,1.1139452E-2,1.16241705E-2,7.518232E-4,1.1746395E-2,5.211711E-3,1.730853E-2,5.7254503E-3,2.047982E-3,2.4026295E-4,1.5045106E-3,1.0630183E-2,8.738756E-3,0E0,0E0,0E0,0E0,0E0,0E0,0E0,0E0,0E0,0E0,0E0,0E0,0E0,0E0,0E0,0E0,0E0,0E0,0E0,0E0,0E0,0E0,0E0,0E0],"parents":[2147483647,0,0,1,1,2,2,3,3,4,4,5,5,8,8,9,9,10,10,11,11,12,12,14,14,15,15,16,16,17,17,19,19,20,20,23,23,24,24,25,25,26,26,27,27,28,28,29,29,30,30,31,31,32,32,33,33,34,34],"right_children":[2,4,6,8,10,12,-1,-1,14,16,18,20,22,-1,24,26,28,30,-1,32,34,-1,-1,36,38,40,42,44,46,48,50,52,54,56,58,-1,-1,-1,-1,-1,-1,-1,-1,-1,-1,-1,-1,-1,-1,-1,-1,-1,-1,-1,-1,-1,-1,-1,-1],"split_conditions":[2.48E-1,8.94E-2,4.885E-1,8.5E-3,3.4339871E0,3.46E-1,9.648321E-3,-3.8707354E-3,1E-1,1.28E2,1E0,1.28E2,9E1,-3.3486672E-3,7.758171E0,8.738E-1,1.66E-1,1.4E-1,6.4853653E-3,9.5E-1,7.2E1,3.8425548E-3,5.6913034E-3,1.4E2,3.7E1,8.546E-1,1.341E-1,9.81E-1,9.18E-2,7.238702E0,5E-4,1.2206078E1,6E0,3.0445225E0,1.6070421E1,-2.772579E-3,-1.4009669E-3,-1.26274E-3,1.0352592E-3,-1.5522485E-3,-1.525834E-4,-9.195639E-6,9.3945564E-4,-2.1852336E-3,-0E0,2.1620564E-5,-1.2465719E-3,-1.033536E-3,2.5061326E-4,2.2937183E-3,1.5716902E-4,2.000962E-4,-0E0,1.4718965E-3,4.984889E-4,1.365667E-3,3.387815E-3,1.6109942E-3,3.7517415E-3],"split_indices":[17,17,17,17,9,17,0,0,20,13,7,13,11,0,18,15,17,17,0,15,11,0,0,11,11,15,17,15,20,18,14,1,0,9,1,0,0,0,0,0,0,0,0,0,0,0,0,0,0,0,0,0,0,0,0,0,0,0,0],"split_type":[0,0,0,0,0,0,0,0,0,0,0,0,0,0,0,0,0,0,0,0,0,0,0,0,0,0,0,0,0,0,0,0,0,0,0,0,0,0,0,0,0,0,0,0,0,0,0,0,0,0,0,0,0,0,0,0,0,0,0],"sum_hessian":[1.953E3,1.288E3,6.65E2,8.03E2,4.85E2,5.1E2,1.55E2,3.03E2,5E2,4.25E2,6E1,4.08E2,1.02E2,1.57E2,3.43E2,1.65E2,2.6E2,5.3E1,7E0,2.42E2,1.66E2,4.5E1,5.7E1,2.9E2,5.3E1,4.4E1,1.21E2,1.55E2,1.05E2,2.4E1,2.9E1,2.2E1,2.2E2,6.9E1,9.7E1,2.54E2,3.6E1,5E1,3E0,3.4E1,1E1,7.5E1,4.6E1,1.52E2,3E0,3E1,7.5E1,1.4E1,1E1,2.2E1,7E0,1.6E1,6E0,1.98E2,2.2E1,5.5E1,1.4E1,1.7E1,8E1],"tree_param":{"num_deleted":"0","num_feature":"21","num_nodes":"59","size_leaf_vector":"1"}},{"base_weights":[-4.203914E-4,-4.282877E-2,8.108293E-2,-6.090926E-2,-1.2387065E-2,4.665717E-2,1.7687652E-1,-7.0915066E-2,-4.856927E-2,-1.4451208E-2,6.8899067E-3,2.5144208E-2,6.625269E-2,6.03441E-3,9.487431E-3,-5.6429546E-2,-3.7000484E-3,-2.5971845E-2,-5.2635733E-2,-2.0631298E-2,4.2040003E-3,1.1543776E-2,1.4480618E-3,5.1360298E-2,8.725336E-2,-2.909212E-3,-3.188587E-4,-2.0379582E-3,-1.49647035E-2,-5.8389075E-2,-3.120008E-2,-2.9072225E-2,9.434732E-4,1.8025574E-3,-0E0,6.4424967E-4,-0E0,3.5278346E-2,3.103363E-3,7.102767E-2,5.4539386E-3,-9.691992E-4,-0E0,-2.9464872E-3,-0E0,3.982107E-3,-1.9365987E-3,-0E0,-1.6083794E-3,-2.1657569E-4,5.732121E-4,4.8192884E-4,-3.8916888E-4,9.312698E-4,2.2651847E-3,3.7115484E-3,-0E0],"categories":[],"categories_nodes":[],"categories_segments":[],"categories_sizes":[],"default_left":[0,0,0,0,0,0,0,0,0,0,0,0,0,0,0,0,0,0,0,0,0,0,0,0,0,0,0,0,0,0,0,0,0,0,0,0,0,0,0,0,0,0,0,0,0,0,0,0,0,0,0,0,0,0,0,0,0],"id":10,"left_children":[1,3,5,7,9,11,13,15,17,19,-1,21,23,-1,-1,25,-1,27,29,31,33,35,-1,37,39,-1,-1,-1,41,43,45,47,49,-1,51,-1,-1,53,-1,55,-1,-1,-1,-1,-1,-1,-1,-1,-1,-1,-1,-1,-1,-1,-1,-1,-1],"loss_changes":[6.7707815E0,7.019334E-1,2.1788983E0,8.424878E-2,1.3969842E-1,1.978656E-1,7.334995E-2,2.4046898E-3,2.4680138E-2,5.6953803E-2,0E0,8.074343E-3,6.1721325E-2,0E0,0E0,8.137226E-4,0E0,3.909167E-3,2.7204037E-2,6.912874E-2,1.4845767E-2,8.0369506E-4,0E0,1.4765084E-2,1.0363281E-2,0E0,0E0,0E0,2.0905277E-3,4.6782494E-3,5.826816E-2,2.2294894E-2,6.312622E-3,0E0,7.91242E-3,0E0,0E0,4.1159987E-3,0E0,7.7387393E-3,0E0,0E0,0E0,0E0,0E0,0E0,0E0,0E0,0E0,0E0,0E0,0E0,0E0,0E0,0E0,0E0,0E0],"parents":[2147483647,0,0,1,1,2,2,3,3,4,4,5,5,6,6,7,7,8,8,9,9,11,11,12,12,15,15,17,17,18,18,19,19,20,20,21,21,23,23,24,24,28,28,29,29,30,30,31,31,32,32,34,34,37,37,39,39],"right_children":[2,4,6,8,10,12,14,16,18,20,-1,22,24,-1,-1,26,-1,28,30,32,34,36,-1,38,40,-1,-1,-1,42,44,46,48,50,-1,52,-1,-1,54,-1,56,-1,-1,-1,-1,-1,-1,-1,-1,-1,-1,-1,-1,-1,-1,-1,-1,-1],"split_conditions":[2.48E-1,8.62E-2,4.081E-1,2.64E-2,1.3122365E1,1E2,6.435E-1,1.706E-1,3.356E-1,1.875E-1,6.8899067E-3,9.78E-1,9.1E1,6.03441E-3,9.487431E-3,5E1,-3.7000484E-3,7.238702E0,8.8E1,1.6523561E1,5.44E-1,6E0,1.4480618E-3,3.106E-1,3.46E-1,-2.909212E-3,-3.188587E-4,-2.0379582E-3,6.22E-2,5E-3,1E-3,4.398E-1,5E-4,1.8025574E-3,1.28E2,6.4424967E-4,-0E0,7.848153E0,3.103363E-3,5E-1,5.4539386E-3,-9.691992E-4,-0E0,-2.9464872E-3,-0E0,3.982107E-3,-1.9365987E-3,-0E0,-1.6083794E-3,-2.1657569E-4,5.732121E-4,4.8192884E-4,-3.8916888E-4,9.312698E-4,2.2651847E-3,3.7115484E-3,-0E0],"split_indices":[17,17,17,17,8,13,17,15,15,17,0,15,11,0,0,2,0,18,11,1,15,0,0,17,17,0,0,0,17,14,14,15,14,0,13,0,0,8,0,6,0,0,0,0,0,0,0,0,0,0,0,0,0,0,0,0,0],"split_type":[0,0,0,0,0,0,0,0,0,0,0,0,0,0,0,0,0,0,0,0,0,0,0,0,0,0,0,0,0,0,0,0,0,0,0,0,0,0,0,0,0,0,0,0,0,0,0,0,0,0,0,0,0,0,0,0,0],"sum_hessian":[1.958E3,1.289E3,6.69E2,8.06E2,4.83E2,4.94E2,1.75E2,4.38E2,3.68E2,4.78E2,5E0,2.39E2,2.55E2,3.6E1,1.39E2,8.6E1,3.52E2,6.1E1,3.07E2,3.63E2,1.15E2,5.9E1,1.8E2,1.54E2,1.01E2,8.1E1,5E0,2.1E1,4E1,2.37E2,7E1,2.64E2,9.9E1,1.2E1,1.03E2,5.2E1,7E0,6.7E1,8.7E1,6.3E1,3.8E1,2.9E1,1.1E1,2.34E2,3E0,3E0,6.7E1,2.7E1,2.37E2,6E1,3.9E1,4.7E1,5.6E1,3E1,3.7E1,5.9E1,4E0],"tree_param":{"num_deleted":"0","num_feature":"21","num_nodes":"57","size_leaf_vector":"1"}},{"base_weights":[1.1690672E-3,-2.1870496E-2,1.4304648E-1,-5.3637803E-2,1.5646264E-2,9.201756E-2,8.8309115E-3,-6.4849496E-2,-4.020228E-2,-7.977467E-3,3.3102967E-2,4.9438034E-3,3.0841331E-3,-3.57626E-3,-5.712531E-2,-4.2167917E-2,5.6082713E-3,-1.5973464E-2,4.409007E-2,2.7373096E-2,6.10974E-2,-4.0736623E-2,-3.07874E-3,-4.536383E-2,-1.0095861E-2,-2.1401487E-2,1.3560132E-2,2.4584686E-2,7.017913E-3,3.5900343E-3,2.5044722E-2,2.06489E-3,3.5937869E-3,-2.1943708E-3,-0E0,-2.4340663E-3,-1.0346886E-3,-9.508649E-4,-0E0,-8.1320404E-4,-2.5901773E-3,5.2651256E-5,5.35572E-3,-0E0,1.8574138E-3,5.828595E-4,1.4205561E-3],"categories":[],"categories_nodes":[],"categories_segments":[],"categories_sizes":[],"default_left":[0,0,0,0,0,0,0,0,0,0,0,0,0,0,0,0,0,0,0,0,0,0,0,0,0,0,0,0,0,0,0,0,0,0,0,0,0,0,0,0,0,0,0,0,0,0,0],"id":11,"left_children":[1,3,5,7,9,11,-1,13,15,17,19,-1,-1,-1,21,23,-1,25,27,29,31,33,-1,35,37,39,41,43,-1,-1,45,-1,-1,-1,-1,-1,-1,-1,-1,-1,-1,-1,-1,-1,-1,-1,-1],"loss_changes":[6.409007E0,2.0104485E0,4.2628193E-1,1.24417305E-1,3.2073125E-1,1.1469722E-3,0E0,8.418798E-3,1.24118865E-1,1.3361679E-1,6.102091E-2,0E0,0E0,0E0,4.7616363E-3,3.6840916E-2,0E0,4.676242E-2,5.8920458E-2,2.7308732E-2,1.0796189E-3,4.174702E-3,0E0,2.290976E-2,3.313901E-3,3.0460492E-2,3.8214378E-2,9.376816E-3,0E0,0E0,1.1886373E-2,0E0,0E0,0E0,0E0,0E0,0E0,0E0,0E0,0E0,0E0,0E0,0E0,0E0,0E0,0E0,0E0],"parents":[2147483647,0,0,1,1,2,2,3,3,4,4,5,5,7,7,8,8,9,9,10,10,14,14,15,15,17,17,18,18,19,19,20,20,21,21,23,23,24,24,25,25,26,26,27,27,30,30],"right_children":[2,4,6,8,10,12,-1,14,16,18,20,-1,-1,-1,22,24,-1,26,28,30,32,34,-1,36,38,40,42,44,-1,-1,46,-1,-1,-1,-1,-1,-1,-1,-1,-1,-1,-1,-1,-1,-1,-1,-1],"split_conditions":[3.46E-1,1.095E-1,5.804E-1,3.72E-2,2.3E-1,8.405274E0,8.8309115E-3,3.3E-3,1.826753E1,3.4339871E0,1.6523561E1,4.9438034E-3,3.0841331E-3,-3.57626E-3,1.923E-1,1.6878258E1,5.6082713E-3,7.819E-1,1E0,3.259E-1,8.7E1,5E1,-3.07874E-3,3.0445225E0,1E-4,2E1,7.8244457E0,1.4E-1,7.017913E-3,3.5900343E-3,2.745E-1,2.06489E-3,3.5937869E-3,-2.1943708E-3,-0E0,-2.4340663E-3,-1.0346886E-3,-9.508649E-4,-0E0,-8.1320404E-4,-2.5901773E-3,5.2651256E-5,5.35572E-3,-0E0,1.8574138E-3,5.828595E-4,1.4205561E-3],"split_indices":[17,17,17,17,17,18,0,17,1,9,1,0,0,0,16,1,0,16,7,16,11,2,0,9,14,2,8,17,0,0,17,0,0,0,0,0,0,0,0,0,0,0,0,0,0,0,0],"split_type":[0,0,0,0,0,0,0,0,0,0,0,0,0,0,0,0,0,0,0,0,0,0,0,0,0,0,0,0,0,0,0,0,0,0,0,0,0,0,0,0,0,0,0,0,0,0,0],"sum_hessian":[1.955E3,1.682E3,2.73E2,9.12E2,7.7E2,1.11E2,1.62E2,4.91E2,4.21E2,3.25E2,4.45E2,8.6E1,2.5E1,2.52E2,2.39E2,4.17E2,4E0,2.84E2,4.1E1,3.74E2,7.1E1,5.8E1,1.81E2,3.76E2,4.1E1,2.43E2,4.1E1,3.6E1,5E0,1.5E1,3.59E2,3E1,4.1E1,5.2E1,6E0,3.27E2,4.9E1,2E1,2.1E1,2.12E2,3.1E1,3.8E1,3E0,1.4E1,2.2E1,7.9E1,2.8E2],"tree_param":{"num_deleted":"0","num_feature":"21","num_nodes":"47","size_leaf_vector":"1"}},{"base_weights":[1.7946108E-3,-2.0019932E-2,8.853087E-2,-3.91652E-2,1.1294222E-2,-1.6620714E-2,1.21082574E-1,-4.9704082E-2,-3.1828731E-3,3.014437E-2,-2.0147666E-2,-3.9867703E-2,1.4621648E-2,6.7738555E-2,1.6559736E-1,-5.919905E-2,-3.36663E-2,-3.6403358E-2,7.7612214E-2,2.6369156E-2,6.277443E-3,-0E0,-3.6392875E-2,-2.164303E-3,-6.0955905E-3,-5.7686E-3,3.8069715E-3,2.711973E-2,8.202301E-2,6.8475353E-3,8.875309E-3,-2.006641E-2,-6.327291E-2,-1.7374319E-3,-4.2927653E-2,-4.313318E-2,-0E0,6.216861E-2,6.345607E-3,2.0913793E-2,5.3534552E-2,-9.914008E-3,5.083848E-3,-9.471519E-4,-2.636641E-3,-0E0,-7.3215534E-4,-9.951466E-4,3.654107E-3,-1.0651242E-3,3.43243E-2,4.9127406E-3,3.1301465E-3,-1.1465625E-3,-0E0,-2.6580913E-3,-3.4976248E-3,-1.006097E-3,1.880545E-4,-2.822296E-3,-1.8124686E-3,-1.1661422E-3,-2.4845079E-3,-1.2813605E-3,7.87685E-4,3.9065043E-3,2.4904724E-4,5.5704295E-4,1.3464282E-3,-0E0,2.7964036E-3,-8.342651E-4,-0E0,-4.5983135E-4,4.2849235E-4,-0E0,4.952999E-4,-0E0,1.7974166E-3],"categories":[],"categories_nodes":[],"categories_segments":[],"categories_sizes":[],"default_left":[0,0,0,0,0,0,0,0,0,0,0,0,0,0,0,0,0,0,0,0,0,0,0,0,0,0,0,0,0,0,0,0,0,0,0,0,0,0,0,0,0,0,0,0,0,0,0,0,0,0,0,0,0,0,0,0,0,0,0,0,0,0,0,0,0,0,0,0,0,0,0,0,0,0,0,0,0,0,0],"id":12,"left_children":[1,3,5,7,9,11,13,15,17,19,21,23,25,27,29,31,33,35,37,39,-1,41,43,-1,45,47,-1,49,51,-1,-1,53,55,57,59,61,63,65,-1,67,69,71,73,-1,-1,-1,-1,-1,75,-1,77,-1,-1,-1,-1,-1,-1,-1,-1,-1,-1,-1,-1,-1,-1,-1,-1,-1,-1,-1,-1,-1,-1,-1,-1,-1,-1,-1,-1],"loss_changes":[3.736084E0,9.4687057E-1,1.3713353E0,3.6580312E-1,3.5484684E-1,7.137888E-2,6.873269E-1,1.03690505E-1,6.026162E-1,1.1656219E-1,7.279017E-2,1.2629107E-3,5.639645E-2,6.8672E-2,1.9264221E-4,6.5164804E-2,8.032608E-2,3.594522E-2,2.2690892E-2,4.5231104E-2,0E0,5.073426E-3,2.6904404E-2,0E0,9.521174E-4,5.559936E-3,0E0,1.5987823E-2,9.915888E-3,0E0,0E0,3.2835007E-3,1.2470841E-2,8.585724E-3,8.545697E-3,8.945823E-3,1.2508666E-2,3.9678082E-2,0E0,1.3939112E-2,2.4222434E-3,3.6182045E-3,3.351511E-3,0E0,0E0,0E0,0E0,0E0,6.96224E-4,0E0,3.45774E-4,0E0,0E0,0E0,0E0,0E0,0E0,0E0,0E0,0E0,0E0,0E0,0E0,0E0,0E0,0E0,0E0,0E0,0E0,0E0,0E0,0E0,0E0,0E0,0E0,0E0,0E0,0E0,0E0],"parents":[2147483647,0,0,1,1,2,2,3,3,4,4,5,5,6,6,7,7,8,8,9,9,10,10,11,11,12,12,13,13,14,14,15,15,16,16,17,17,18,18,19,19,21,21,22,22,24,24,25,25,27,27,28,28,31,31,32,32,33,33,34,34,35,35,36,36,37,37,39,39,40,40,41,41,42,42,48,48,50,50],"right_children":[2,4,6,8,10,12,14,16,18,20,22,24,26,28,30,32,34,36,38,40,-1,42,44,-1,46,48,-1,50,52,-1,-1,54,56,58,60,62,64,66,-1,68,70,72,74,-1,-1,-1,-1,-1,76,-1,78,-1,-1,-1,-1,-1,-1,-1,-1,-1,-1,-1,-1,-1,-1,-1,-1,-1,-1,-1,-1,-1,-1,-1,-1,-1,-1,-1,-1],"split_conditions":[4E0,8.97E-1,8.546E-1,3.0445225E0,7.517E-1,2.7E1,3.0445225E0,3.7E1,3.884E-1,3.9318256E0,3E-1,2.2E1,3.0445225E0,7.2E1,9.84E-1,7.8244457E0,7.848153E0,2.78E-1,7.428E-1,8.340564E0,6.277443E-3,9E0,1.0819798E1,-2.164303E-3,5.799E-1,1.2E1,3.8069715E-3,1.1E1,8.541105E0,6.8475353E-3,8.875309E-3,8.69E-1,7.848153E0,7.148E-1,6.651E-1,7.848153E0,7.238702E0,2.54E-1,6.345607E-3,9.77E-1,6.6E1,1.1111791E1,5E0,-9.471519E-4,-2.636641E-3,-0E0,-7.3215534E-4,-9.951466E-4,3.9E1,-1.0651242E-3,5.1E1,4.9127406E-3,3.1301465E-3,-1.1465625E-3,-0E0,-2.6580913E-3,-3.4976248E-3,-1.006097E-3,1.880545E-4,-2.822296E-3,-1.8124686E-3,-1.1661422E-3,-2.4845079E-3,-1.2813605E-3,7.87685E-4,3.9065043E-3,2.4904724E-4,5.5704295E-4,1.3464282E-3,-0E0,2.7964036E-3,-8.342651E-4,-0E0,-4.5983135E-4,4.2849235E-4,-0E0,4.952999E-4,-0E0,1.7974166E-3],"split_indices":[5,15,15,9,16,11,9,11,15,9,20,11,9,11,15,8,8,15,15,18,0,11,1,0,15,0,0,0,8,0,0,15,8,15,20,8,18,16,0,15,11,18,2,0,0,0,0,0,11,0,11,0,0,0,0,0,0,0,0,0,0,0,0,0,0,0,0,0,0,0,0,0,0,0,0,0,0,0,0],"split_type":[0,0,0,0,0,0,0,0,0,0,0,0,0,0,0,0,0,0,0,0,0,0,0,0,0,0,0,0,0,0,0,0,0,0,0,0,0,0,0,0,0,0,0,0,0,0,0,0,0,0,0,0,0,0,0,0,0,0,0,0,0,0,0,0,0,0,0,0,0,0,0,0,0,0,0,0,0,0,0],"sum_hessian":[1.969E3,1.573E3,3.96E2,9.78E2,5.95E2,9.3E1,3.03E2,7.54E2,2.24E2,3.74E2,2.21E2,5.5E1,3.8E1,1.4E2,1.63E2,4.68E2,2.86E2,1.6E2,6.4E1,3.62E2,1.2E1,9.9E1,1.22E2,4.7E1,8E0,2.8E1,1E1,3.9E1,1.01E2,5.4E1,1.09E2,4.7E1,4.21E2,6.7E1,2.19E2,1.33E2,2.7E1,5.2E1,1.2E1,3.06E2,5.6E1,3.3E1,6.6E1,6.3E1,5.9E1,3E0,5E0,1.5E1,1.3E1,3E0,3.6E1,5E1,5.1E1,4.2E1,5E0,1.77E2,2.44E2,1.9E1,4.8E1,6.5E1,1.54E2,3.8E1,9.5E1,1.2E1,1.5E1,3.9E1,1.3E1,1.24E2,1.82E2,4E0,5.2E1,2.4E1,9E0,7E0,5.9E1,5E0,8E0,3E0,3.3E1],"tree_param":{"num_deleted":"0","num_feature":"21","num_nodes":"79","size_leaf_vector":"1"}},{"base_weights":[6.3241646E-4,-1.9805375E-2,1.3186607E-1,-4.455914E-2,1.971665E-2,9.064163E-2,8.225111E-3,-5.5385835E-2,-2.7025927E-2,-1.1140675E-3,3.1860664E-2,9.712046E-2,2.7092043E-3,-3.2167647E-3,-4.870039E-2,-3.5960436E-2,3.4920254E-3,7.355813E-2,-4.4228043E-3,2.6316665E-2,2.9116033E-3,2.9681758E-3,5.2004787E-3,-3.4243945E-2,-5.2324876E-2,-8.386851E-3,-3.8763028E-2,-4.3471818E-4,4.555948E-3,5.4589533E-3,-0E0,2.9226342E-2,-1.0226517E-2,3.3170935E-2,1.9700704E-2,-1.8206239E-3,-0E0,-2.651226E-3,-6.427905E-4,-1.3245747E-3,3.054863E-5,-1.5554338E-3,-2.398891E-3,-5.450138E-4,1.5109112E-4,-0E0,1.7554875E-3,-7.819839E-4,4.4862364E-4,8.413641E-4,2.1492883E-3,1.6685975E-4,1.0618796E-3],"categories":[],"categories_nodes":[],"categories_segments":[],"categories_sizes":[],"default_left":[0,0,0,0,0,0,0,0,0,0,0,0,0,0,0,0,0,0,0,0,0,0,0,0,0,0,0,0,0,0,0,0,0,0,0,0,0,0,0,0,0,0,0,0,0,0,0,0,0,0,0,0,0],"id":13,"left_children":[1,3,5,7,9,11,-1,13,15,17,19,21,-1,-1,23,25,27,29,31,33,-1,-1,-1,35,37,39,41,43,-1,-1,-1,45,47,49,51,-1,-1,-1,-1,-1,-1,-1,-1,-1,-1,-1,-1,-1,-1,-1,-1,-1,-1],"loss_changes":[5.3324733E0,1.682158E0,3.2014418E-1,1.9090891E-1,1.700694E-1,8.423686E-3,0E0,2.4393678E-2,1.1489156E-1,5.295583E-2,5.1417887E-2,3.4995675E-3,0E0,0E0,9.567022E-3,1.9611448E-2,4.042009E-2,2.2823226E-2,4.3901466E-2,1.0021716E-2,0E0,0E0,0E0,5.0685555E-3,9.5933676E-4,8.142918E-3,1.0771334E-2,3.9679767E-3,0E0,0E0,0E0,3.4836344E-3,2.1800341E-2,1.9602641E-2,2.224788E-3,0E0,0E0,0E0,0E0,0E0,0E0,0E0,0E0,0E0,0E0,0E0,0E0,0E0,0E0,0E0,0E0,0E0,0E0],"parents":[2147483647,0,0,1,1,2,2,3,3,4,4,5,5,7,7,8,8,9,9,10,10,11,11,14,14,15,15,16,16,17,17,18,18,19,19,23,23,24,24,25,25,26,26,27,27,31,31,32,32,33,33,34,34],"right_children":[2,4,6,8,10,12,-1,14,16,18,20,22,-1,-1,24,26,28,30,32,34,-1,-1,-1,36,38,40,42,44,-1,-1,-1,46,48,50,52,-1,-1,-1,-1,-1,-1,-1,-1,-1,-1,-1,-1,-1,-1,-1,-1,-1,-1],"split_conditions":[3.46E-1,1.382E-1,6.435E-1,6.08E-2,2.45E-1,8.405274E0,8.225111E-3,4.2E-3,1.6878258E1,2.352E-1,1.6523561E1,3.91E-1,2.7092043E-3,-3.2167647E-3,2.78E-1,3.608E-1,1.826753E1,2.2E-1,5.2E-1,4.2E-1,2.9116033E-3,2.9681758E-3,5.2004787E-3,5.31E-2,2E0,7.238702E0,1E-2,1.015E-1,4.555948E-3,5.4589533E-3,-0E0,7.238702E0,1.28E2,9.29E-2,2.699E-1,-1.8206239E-3,-0E0,-2.651226E-3,-6.427905E-4,-1.3245747E-3,3.054863E-5,-1.5554338E-3,-2.398891E-3,-5.450138E-4,1.5109112E-4,-0E0,1.7554875E-3,-7.819839E-4,4.4862364E-4,8.413641E-4,2.1492883E-3,1.6685975E-4,1.0618796E-3],"split_indices":[17,17,17,17,17,18,0,17,1,19,1,17,0,0,15,15,1,20,15,19,0,0,0,17,7,18,12,17,0,0,0,18,3,20,17,0,0,0,0,0,0,0,0,0,0,0,0,0,0,0,0,0,0],"split_type":[0,0,0,0,0,0,0,0,0,0,0,0,0,0,0,0,0,0,0,0,0,0,0,0,0,0,0,0,0,0,0,0,0,0,0,0,0,0,0,0,0,0,0,0,0,0,0,0,0,0,0,0,0],"sum_hessian":[1.982E3,1.715E3,2.67E2,1.056E3,6.59E2,1.21E2,1.46E2,6.48E2,4.08E2,2.4E2,4.19E2,9.9E1,2.2E1,2.67E2,3.81E2,3.18E2,9E1,8E0,2.32E2,3.51E2,6.8E1,1.9E1,8E1,8.4E1,2.97E2,3.3E1,2.85E2,8.6E1,4E0,5E0,3E0,3.1E1,2.01E2,1.63E2,1.88E2,7.8E1,6E0,2.89E2,8E0,1.4E1,1.9E1,1.64E2,1.21E2,2.8E1,5.8E1,7E0,2.4E1,1.61E2,4E1,6.6E1,9.7E1,2.2E1,1.66E2],"tree_param":{"num_deleted":"0","num_feature":"21","num_nodes":"53","size_leaf_vector":"1"}},{"base_weights":[9.483132E-4,-3.6575153E-2,6.7104414E-2,-4.9925983E-2,-1.2804582E-2,3.8753696E-2,1.4644207E-1,-2.9774262E-3,-4.17796E-2,-1.7653726E-2,2.0621475E-2,2.069028E-2,5.5448696E-2,5.250237E-3,7.902409E-3,-4.5148868E-2,-2.4022684E-2,-2.3764153E-3,-2.4856627E-2,-7.018862E-3,3.2382987E-2,1.7005874E-2,1.8758298E-3,3.14299E-2,6.7939565E-2,-4.612245E-2,-0E0,-0E0,-2.6694788E-2,-1.650351E-2,-0E0,-2.9443296E-2,-6.2595024E-3,-8.258195E-4,-0E0,1.4812864E-2,4.5969483E-2,1.3218421E-3,9.861925E-4,2.072861E-3,1.5908718E-2,8.56845E-2,5.4172188E-2,-2.5223803E-3,-1.6445847E-3,-0E0,9.372759E-4,-1.8810949E-3,-7.936583E-4,-0E0,-9.2255196E-4,-1.8425114E-4,3.043787E-4,-1.5601043E-3,-0E0,2.780937E-4,-8.3721615E-4,-2.1085395E-4,1.1439105E-3,2.7222743E-3,2.256104E-5,1.9775722E-4,-0E0,-0E0,1.0407012E-3,4.403537E-3,-0E0,-0E0,2.758458E-3],"categories":[],"categories_nodes":[],"categories_segments":[],"categories_sizes":[],"default_left":[0,0,0,0,0,0,0,0,0,0,0,0,0,0,0,0,0,0,0,0,0,0,0,0,0,0,0,0,0,0,0,0,0,0,0,0,0,0,0,0,0,0,0,0,0,0,0,0,0,0,0,0,0,0,0,0,0,0,0,0,0,0,0,0,0,0,0,0,0],"id":14,"left_children":[1,3,5,7,9,11,13,-1,15,17,19,21,23,-1,-1,25,27,29,31,33,35,37,-1,39,41,43,45,-1,47,49,51,53,55,-1,-1,57,59,61,-1,-1,63,65,67,-1,-1,-1,-1,-1,-1,-1,-1,-1,-1,-1,-1,-1,-1,-1,-1,-1,-1,-1,-1,-1,-1,-1,-1,-1,-1],"loss_changes":[4.9281187E0,3.94544E-1,1.5930374E0,5.0639153E-2,7.446557E-2,1.5167344E-1,4.7513008E-2,0E0,1.8681526E-2,4.1674167E-2,2.0968864E-2,1.0028444E-2,6.983197E-2,0E0,0E0,2.0025551E-2,5.5824667E-3,5.502021E-3,1.9276112E-2,1.7161539E-3,3.2669157E-3,7.247694E-3,0E0,8.85617E-3,2.4369597E-2,1.07795E-2,1.4055776E-3,0E0,2.4490021E-3,2.039629E-4,2.6985295E-3,1.2876734E-2,8.52413E-3,0E0,0E0,5.4927035E-3,2.202019E-3,4.0115163E-4,0E0,0E0,2.727314E-3,6.583512E-3,2.3152232E-3,0E0,0E0,0E0,0E0,0E0,0E0,0E0,0E0,0E0,0E0,0E0,0E0,0E0,0E0,0E0,0E0,0E0,0E0,0E0,0E0,0E0,0E0,0E0,0E0,0E0,0E0],"parents":[2147483647,0,0,1,1,2,2,3,3,4,4,5,5,6,6,8,8,9,9,10,10,11,11,12,12,15,15,16,16,17,17,18,18,19,19,20,20,21,21,23,23,24,24,25,25,26,26,28,28,29,29,30,30,31,31,32,32,35,35,36,36,37,37,40,40,41,41,42,42],"right_children":[2,4,6,8,10,12,14,-1,16,18,20,22,24,-1,-1,26,28,30,32,34,36,38,-1,40,42,44,46,-1,48,50,52,54,56,-1,-1,58,60,62,-1,-1,64,66,68,-1,-1,-1,-1,-1,-1,-1,-1,-1,-1,-1,-1,-1,-1,-1,-1,-1,-1,-1,-1,-1,-1,-1,-1,-1,-1],"split_conditions":[2.382E-1,8.77E-2,4.081E-1,1.53E-2,3.4339871E0,1E2,6.515E-1,-2.9774262E-3,3.0445225E0,7.8244457E0,1.095E-1,6.997E-1,7.4E1,5.250237E-3,7.902409E-3,1.088979E1,1E2,9.76E-2,1.875E-1,6.398595E0,1.66E-1,2.745E-1,1.8758298E-3,5.824E-1,7.6251073E0,6.6E1,1E-4,-0E0,7.238702E0,9.13E-2,1.0418682E1,9.433564E0,2.396E-1,-8.258195E-4,-0E0,2.352E-1,5E-4,5E0,9.861925E-4,2.072861E-3,2.699E-1,9.927253E0,2.946E-1,-2.5223803E-3,-1.6445847E-3,-0E0,9.372759E-4,-1.8810949E-3,-7.936583E-4,-0E0,-9.2255196E-4,-1.8425114E-4,3.043787E-4,-1.5601043E-3,-0E0,2.780937E-4,-8.3721615E-4,-2.1085395E-4,1.1439105E-3,2.7222743E-3,2.256104E-5,1.9775722E-4,-0E0,-0E0,1.0407012E-3,4.403537E-3,-0E0,-0E0,2.758458E-3],"split_indices":[17,17,17,17,9,13,17,0,9,8,17,16,11,0,0,18,13,17,17,18,17,17,0,16,18,11,14,0,18,17,18,8,19,0,0,19,14,0,0,0,17,8,17,0,0,0,0,0,0,0,0,0,0,0,0,0,0,0,0,0,0,0,0,0,0,0,0,0,0],"split_type":[0,0,0,0,0,0,0,0,0,0,0,0,0,0,0,0,0,0,0,0,0,0,0,0,0,0,0,0,0,0,0,0,0,0,0,0,0,0,0,0,0,0,0,0,0,0,0,0,0,0,0,0,0,0,0,0,0,0,0,0,0,0,0,0,0,0,0,0,0],"sum_hessian":[1.982E3,1.264E3,7.18E2,8.06E2,4.58E2,5.31E2,1.87E2,3.61E2,4.45E2,4.03E2,5.5E1,2.59E2,2.72E2,4.5E1,1.42E2,3.68E2,7.7E1,1.34E2,2.69E2,1.4E1,4.1E1,2.19E2,4E1,9.7E1,1.75E2,3.62E2,6E0,7E0,7E1,2.2E1,1.12E2,2.11E2,5.8E1,8E0,6E0,2.2E1,1.9E1,3.8E1,1.81E2,5.4E1,4.3E1,7.1E1,1.04E2,2.65E2,9.7E1,3E0,3E0,2.9E1,4.1E1,4E0,1.8E1,6.4E1,4.8E1,2.01E2,1E1,2.3E1,3.5E1,3E0,1.9E1,1.4E1,5E0,2.9E1,9E0,1.2E1,3.1E1,6.8E1,3E0,3E0,1.01E2],"tree_param":{"num_deleted":"0","num_feature":"21","num_nodes":"69","size_leaf_vector":"1"}},{"base_weights":[4.0923618E-4,-1.7562173E-2,7.272899E-2,-3.345058E-2,2.1532304E-3,-1.750554E-2,9.974084E-2,-4.3260816E-2,8.403458E-3,2.6307952E-2,-3.195798E-2,-2.0315924E-3,1.464182E-2,7.1760337E-3,5.4655522E-2,-4.992378E-2,-2.2161396E-2,4.8660124E-3,6.2726736E-3,1.797735E-2,7.457434E-2,-2.4995716E-2,-2.4089464E-3,6.4929575E-2,-1.3174625E-3,2.3115147E-2,6.833209E-2,-1.0699928E-2,-5.3708017E-2,-3.662524E-2,7.959147E-3,-5.255546E-3,2.9157583E-2,-2.3580606E-3,2.511246E-2,4.199033E-2,5.2789203E-3,-2.6307207E-2,1.2061398E-3,-0E0,3.62244E-3,-0E0,1.5897861E-3,7.269796E-2,-1.6994585E-3,-9.19325E-4,-0E0,-3.0146604E-3,-2.1779153E-3,-2.1152198E-3,-2.9965115E-4,-7.809872E-4,1.7833657E-3,-1.1240599E-3,-0E0,-0E0,1.6134189E-3,1.2638273E-4,-1.2292223E-3,8.7253295E-4,2.163141E-3,-0E0,2.4548017E-3,-1.4757939E-3,-8.3570456E-4,6.0157345E-5,-0E0,4.4223056E-3,2.7117196E-3],"categories":[],"categories_nodes":[],"categories_segments":[],"categories_sizes":[],"default_left":[0,0,0,0,0,0,0,0,0,0,0,0,0,0,0,0,0,0,0,0,0,0,0,0,0,0,0,0,0,0,0,0,0,0,0,0,0,0,0,0,0,0,0,0,0,0,0,0,0,0,0,0,0,0,0,0,0,0,0,0,0,0,0,0,0,0,0,0,0],"id":15,"left_children":[1,3,5,7,9,11,13,15,17,19,21,-1,23,-1,25,27,29,31,-1,33,35,37,-1,39,-1,41,43,45,47,49,51,53,55,57,59,61,-1,63,-1,-1,-1,65,-1,67,-1,-1,-1,-1,-1,-1,-1,-1,-1,-1,-1,-1,-1,-1,-1,-1,-1,-1,-1,-1,-1,-1,-1,-1,-1],"loss_changes":[2.5775769E0,4.9938396E-1,9.7274303E-1,3.6517555E-1,5.811582E-1,7.084785E-2,5.743556E-1,9.220314E-2,5.5091225E-2,1.5627068E-1,2.434221E-2,0E0,8.183879E-2,0E0,5.5274487E-2,7.298958E-2,8.0269724E-2,4.2620014E-2,0E0,5.413372E-2,4.0413797E-2,1.4380917E-2,0E0,2.8471202E-3,0E0,7.6574013E-3,5.2800804E-2,3.964927E-3,1.9672155E-2,1.6140476E-2,3.9148226E-2,1.1030173E-2,5.5802725E-3,1.2041081E-2,3.0442968E-2,8.659344E-3,0E0,1.2553632E-3,0E0,0E0,0E0,2.0265874E-5,0E0,1.0302603E-2,0E0,0E0,0E0,0E0,0E0,0E0,0E0,0E0,0E0,0E0,0E0,0E0,0E0,0E0,0E0,0E0,0E0,0E0,0E0,0E0,0E0,0E0,0E0,0E0,0E0],"parents":[2147483647,0,0,1,1,2,2,3,3,4,4,5,5,6,6,7,7,8,8,9,9,10,10,12,12,14,14,15,15,16,16,17,17,19,19,20,20,21,21,23,23,25,25,26,26,27,27,28,28,29,29,30,30,31,31,32,32,33,33,34,34,35,35,37,37,41,41,43,43],"right_children":[2,4,6,8,10,12,14,16,18,20,22,-1,24,-1,26,28,30,32,-1,34,36,38,-1,40,-1,42,44,46,48,50,52,54,56,58,60,62,-1,64,-1,-1,-1,66,-1,68,-1,-1,-1,-1,-1,-1,-1,-1,-1,-1,-1,-1,-1,-1,-1,-1,-1,-1,-1,-1,-1,-1,-1,-1,-1],"split_conditions":[4E0,4.4E1,3.7E1,1.28E2,7.502E-1,2.2E1,3.503E-1,3.0445225E0,1.3345509E1,3.0445225E0,8.066E-1,-2.0315924E-3,3.361E-1,7.1760337E-3,7.6E1,7.3783836E0,9E0,1E-3,6.2726736E-3,6.4E1,7.8E1,1.99E2,-2.4089464E-3,2.5E1,-1.3174625E-3,5.1E1,1.0308986E1,2.6E1,2.4E1,3E1,2.1E1,6E0,6.888E-1,7.848153E0,1E2,2.177E-1,5.2789203E-3,1.51E2,1.2061398E-3,-0E0,3.62244E-3,6.606E-1,1.5897861E-3,2.382E-1,-1.6994585E-3,-9.19325E-4,-0E0,-3.0146604E-3,-2.1779153E-3,-2.1152198E-3,-2.9965115E-4,-7.809872E-4,1.7833657E-3,-1.1240599E-3,-0E0,-0E0,1.6134189E-3,1.2638273E-4,-1.2292223E-3,8.7253295E-4,2.163141E-3,-0E0,2.4548017E-3,-1.4757939E-3,-8.3570456E-4,6.0157345E-5,-0E0,4.4223056E-3,2.7117196E-3],"split_indices":[5,11,11,3,16,11,16,9,8,9,16,0,16,0,11,8,0,12,0,11,11,11,0,11,0,11,8,11,11,11,11,11,16,8,13,16,0,11,0,0,0,16,0,19,0,0,0,0,0,0,0,0,0,0,0,0,0,0,0,0,0,0,0,0,0,0,0,0,0],"split_type":[0,0,0,0,0,0,0,0,0,0,0,0,0,0,0,0,0,0,0,0,0,0,0,0,0,0,0,0,0,0,0,0,0,0,0,0,0,0,0,0,0,0,0,0,0,0,0,0,0,0,0,0,0,0,0,0,0,0,0,0,0,0,0,0,0,0,0,0,0],"sum_hessian":[1.977E3,1.583E3,3.94E2,8.79E2,7.04E2,9E1,3.04E2,7.14E2,1.65E2,4.14E2,2.9E2,5.4E1,3.6E1,1.52E2,1.52E2,5.38E2,1.76E2,1.62E2,3E0,3.56E2,5.8E1,2.09E2,8.1E1,1.7E1,1.9E1,4.9E1,1.03E2,5E1,4.88E2,1.21E2,5.5E1,1.12E2,5E1,8.9E1,2.67E2,3.1E1,2.7E1,2.06E2,3E0,3E0,1.4E1,1.6E1,3.3E1,1E2,3E0,2.8E1,2.2E1,2.87E2,2.01E2,9.9E1,2.2E1,2.8E1,2.7E1,2.7E1,8.5E1,4E0,4.6E1,7E1,1.9E1,1.93E2,7.4E1,5E0,2.6E1,1.45E2,6.1E1,1.3E1,3E0,4.9E1,5.1E1],"tree_param":{"num_deleted":"0","num_feature":"21","num_nodes":"69","size_leaf_vector":"1"}},{"base_weights":[2.0836222E-3,-1.608925E-2,1.1140667E-1,-3.4459822E-2,2.3514524E-2,7.842959E-2,7.0325746E-3,-4.4543E-2,-1.3617649E-2,1.7717324E-2,5.0483998E-2,7.988252E-2,-0E0,-5.0795116E-2,-3.4819577E-2,-1.9075468E-2,7.005203E-3,-3.949117E-3,2.1818753E-2,3.003746E-2,3.0565558E-3,4.3000225E-3,2.525794E-3,-4.123178E-2,-5.422364E-2,-3.566178E-2,6.7622244E-4,1.1236418E-2,-2.2689633E-2,5.1493375E-3,2.8011602E-4,-1.0124787E-2,3.9575915E-3,2.9240367E-3,1.9629022E-2,1.0290395E-4,1.7791998E-3,-1.2065093E-3,-2.250384E-3,-3.1359177E-3,-2.4391194E-3,-7.9585164E-4,-1.9526066E-3,-0E0,9.742306E-4,6.2637613E-4,-1.2366063E-3,3.309449E-4,-5.084869E-4,-0E0,-7.2731957E-4,3.4831502E-4,-0E0,7.5291673E-4,1.4181259E-3],"categories":[],"categories_nodes":[],"categories_segments":[],"categories_sizes":[],"default_left":[0,0,0,0,0,0,0,0,0,0,0,0,0,0,0,0,0,0,0,0,0,0,0,0,0,0,0,0,0,0,0,0,0,0,0,0,0,0,0,0,0,0,0,0,0,0,0,0,0,0,0,0,0,0,0],"id":16,"left_children":[1,3,5,7,9,11,-1,13,15,17,19,21,-1,23,25,27,29,31,33,35,-1,-1,-1,37,39,41,-1,43,45,-1,47,49,51,-1,53,-1,-1,-1,-1,-1,-1,-1,-1,-1,-1,-1,-1,-1,-1,-1,-1,-1,-1,-1,-1],"loss_changes":[3.887403E0,1.219086E0,2.3613071E-1,2.3420525E-1,7.499319E-2,1.1908412E-2,0E0,3.6358118E-2,4.3886743E-2,4.0972993E-2,8.639604E-3,5.7195425E-3,0E0,3.2684803E-3,1.5317857E-2,3.4594566E-2,3.870127E-2,3.9283475E-3,2.1065801E-2,1.7493442E-3,0E0,0E0,0E0,5.8849156E-4,9.049177E-4,1.44325495E-2,0E0,3.4256391E-3,2.123934E-2,0E0,4.5477003E-3,1.9465131E-3,1.7358459E-4,0E0,9.481579E-3,0E0,0E0,0E0,0E0,0E0,0E0,0E0,0E0,0E0,0E0,0E0,0E0,0E0,0E0,0E0,0E0,0E0,0E0,0E0,0E0],"parents":[2147483647,0,0,1,1,2,2,3,3,4,4,5,5,7,7,8,8,9,9,10,10,11,11,13,13,14,14,15,15,16,16,17,17,18,18,19,19,23,23,24,24,25,25,27,27,28,28,30,30,31,31,32,32,34,34],"right_children":[2,4,6,8,10,12,-1,14,16,18,20,22,-1,24,26,28,30,32,34,36,-1,-1,-1,38,40,42,-1,44,46,-1,48,50,52,-1,54,-1,-1,-1,-1,-1,-1,-1,-1,-1,-1,-1,-1,-1,-1,-1,-1,-1,-1,-1,-1],"split_conditions":[3.362E-1,1.875E-1,6.435E-1,8.5E-2,8.541105E0,1E-4,7.0325746E-3,3.51E-2,7.68E2,2.248E-1,6.758E-1,8.405274E0,-0E0,8.517393E0,1.0419797E1,2.54E-1,8.248E-1,7.0693946E0,2.443E-1,2.699E-1,3.0565558E-3,4.3000225E-3,2.525794E-3,1.482E-1,2.417E-1,3.55E-1,6.7622244E-4,7E0,2.2E-1,5.1493375E-3,7.3783836E0,7.3783836E0,1.2E1,2.9240367E-3,9.952E-1,1.0290395E-4,1.7791998E-3,-1.2065093E-3,-2.250384E-3,-3.1359177E-3,-2.4391194E-3,-7.9585164E-4,-1.9526066E-3,-0E0,9.742306E-4,6.2637613E-4,-1.2366063E-3,3.309449E-4,-5.084869E-4,-0E0,-7.2731957E-4,3.4831502E-4,-0E0,7.5291673E-4,1.4181259E-3],"split_indices":[17,17,17,17,8,14,0,17,3,17,16,18,0,8,18,16,16,18,16,17,0,0,0,15,19,15,0,0,19,0,8,8,2,0,15,0,0,0,0,0,0,0,0,0,0,0,0,0,0,0,0,0,0,0,0],"split_type":[0,0,0,0,0,0,0,0,0,0,0,0,0,0,0,0,0,0,0,0,0,0,0,0,0,0,0,0,0,0,0,0,0,0,0,0,0,0,0,0,0,0,0,0,0,0,0,0,0,0,0,0,0,0,0],"sum_hessian":[1.95E3,1.672E3,2.78E2,1.144E3,5.28E2,1.34E2,1.44E2,7.67E2,3.77E2,4.39E2,8.9E1,1.31E2,3E0,4.58E2,3.09E2,3.02E2,7.5E1,6.6E1,3.73E2,3.5E1,5.4E1,1.04E2,2.7E1,1.32E2,3.26E2,3.06E2,3E0,2.9E1,2.73E2,3E0,7.2E1,4.4E1,2.2E1,1.7E1,3.56E2,9E0,2.6E1,3E1,1.02E2,1.16E2,2.1E2,5E1,2.56E2,1.1E1,1.8E1,1.2E1,2.61E2,5.1E1,2.1E1,1.4E1,3E1,1E1,1.2E1,2.43E2,1.13E2],"tree_param":{"num_deleted":"0","num_feature":"21","num_nodes":"55","size_leaf_vector":"1"}},{"base_weights":[-0E0,-2.4546558E-2,4.551761E-2,-4.0928695E-2,-8.92353E-3,2.2502232E-2,6.5567195E-3,-4.205119E-2,5.8443476E-3,-1.9870756E-2,4.527834E-2,5.0559342E-2,7.2987434E-3,-4.7281664E-2,-2.6643483E-2,-2.6340063E-3,-3.1293835E-2,-0E0,7.302139E-2,5.5077918E-2,1.1028951E-4,1.8980155E-2,-1.1362242E-2,-1.5981587E-2,-5.113897E-2,-3.4820713E-2,-0E0,-1.7718866E-2,1.4454101E-2,-4.545875E-2,-2.4567433E-2,-1.4179573E-2,1.1020698E-2,7.989211E-2,-0E0,2.5069604E-2,6.193141E-2,1.9981429E-2,-0E0,4.1443296E-3,-2.347624E-2,-0E0,-1.0117266E-3,-2.6035132E-3,-0E0,-7.872308E-4,-2.1603974E-3,-6.286611E-4,1.5141286E-3,-1.2195884E-3,-0E0,4.182942E-4,1.4435587E-3,-2.3722292E-3,-0E0,-1.5559689E-3,-7.007255E-4,-9.4239175E-4,-0E0,8.0387836E-4,-0E0,2.6726234E-3,4.6113986E-3,1.3989273E-3,-0E0,3.1444852E-3,-0E0,1.7428811E-3,8.657129E-4,-5.654578E-5,3.8405939E-4,-1.2319104E-3,-0E0],"categories":[],"categories_nodes":[],"categories_segments":[],"categories_sizes":[],"default_left":[0,0,0,0,0,0,0,0,0,0,0,0,0,0,0,0,0,0,0,0,0,0,0,0,0,0,0,0,0,0,0,0,0,0,0,0,0,0,0,0,0,0,0,0,0,0,0,0,0,0,0,0,0,0,0,0,0,0,0,0,0,0,0,0,0,0,0,0,0,0,0,0,0],"id":17,"left_children":[1,3,5,7,9,11,-1,13,-1,15,17,19,21,23,25,27,29,31,33,35,-1,37,39,41,43,45,47,49,51,53,55,57,59,61,-1,63,65,67,-1,69,71,-1,-1,-1,-1,-1,-1,-1,-1,-1,-1,-1,-1,-1,-1,-1,-1,-1,-1,-1,-1,-1,-1,-1,-1,-1,-1,-1,-1,-1,-1,-1,-1],"loss_changes":[2.1862442E0,3.2045943E-1,1.3314797E0,1.0690856E-1,3.8760322E-1,2.2504392E-1,0E0,4.0910363E-2,0E0,1.0442421E-1,1.391204E-1,3.5226107E-2,7.836271E-2,4.716313E-2,3.827557E-2,5.8065675E-2,2.29415E-2,6.8146884E-3,3.9528787E-2,2.4709761E-2,0E0,5.8656856E-3,2.720192E-2,4.632433E-3,1.4045358E-2,1.3743907E-2,1.5873592E-2,1.583831E-2,4.987737E-3,1.1511624E-2,1.081489E-2,5.9692515E-4,2.1177924E-3,1.0499358E-3,0E0,1.6413108E-3,4.2827725E-3,2.7099103E-3,0E0,1.7085504E-3,1.9885264E-3,0E0,0E0,0E0,0E0,0E0,0E0,0E0,0E0,0E0,0E0,0E0,0E0,0E0,0E0,0E0,0E0,0E0,0E0,0E0,0E0,0E0,0E0,0E0,0E0,0E0,0E0,0E0,0E0,0E0,0E0,0E0,0E0],"parents":[2147483647,0,0,1,1,2,2,3,3,4,4,5,5,7,7,9,9,10,10,11,11,12,12,13,13,14,14,15,15,16,16,17,17,18,18,19,19,21,21,22,22,23,23,24,24,25,25,26,26,27,27,28,28,29,29,30,30,31,31,32,32,33,33,35,35,36,36,37,37,39,39,40,40],"right_children":[2,4,6,8,10,12,-1,14,-1,16,18,20,22,24,26,28,30,32,34,36,-1,38,40,42,44,46,48,50,52,54,56,58,60,62,-1,64,66,68,-1,70,72,-1,-1,-1,-1,-1,-1,-1,-1,-1,-1,-1,-1,-1,-1,-1,-1,-1,-1,-1,-1,-1,-1,-1,-1,-1,-1,-1,-1,-1,-1,-1,-1],"split_conditions":[9.5E-1,3E1,3.9318256E0,1.8019531E1,3.0445225E0,2.5E-1,6.5567195E-3,3.0445225E0,5.8443476E-3,6.918E-1,4.398E-1,5E-1,7.556E-1,7.8244457E0,2.522E-1,5.2E1,6.651E-1,2.812E-1,1.01E2,8E1,1.1028951E-4,1.5162718E1,7.3783836E0,3E0,2E0,7.848153E0,7.238702E0,8.168E-1,9E0,1.01E2,8.592E-1,2.28E-1,1E-4,6.152E-1,-0E0,1.3E1,1.5E2,2E0,-0E0,9.905E-1,9.996E-1,-0E0,-1.0117266E-3,-2.6035132E-3,-0E0,-7.872308E-4,-2.1603974E-3,-6.286611E-4,1.5141286E-3,-1.2195884E-3,-0E0,4.182942E-4,1.4435587E-3,-2.3722292E-3,-0E0,-1.5559689E-3,-7.007255E-4,-9.4239175E-4,-0E0,8.0387836E-4,-0E0,2.6726234E-3,4.6113986E-3,1.3989273E-3,-0E0,3.1444852E-3,-0E0,1.7428811E-3,8.657129E-4,-5.654578E-5,3.8405939E-4,-1.2319104E-3,-0E0],"split_indices":[15,11,9,1,9,20,0,9,0,16,15,6,16,8,15,11,20,15,11,11,0,1,8,2,7,8,18,15,0,11,15,15,14,15,0,0,11,2,0,15,15,0,0,0,0,0,0,0,0,0,0,0,0,0,0,0,0,0,0,0,0,0,0,0,0,0,0,0,0,0,0,0,0],"split_type":[0,0,0,0,0,0,0,0,0,0,0,0,0,0,0,0,0,0,0,0,0,0,0,0,0,0,0,0,0,0,0,0,0,0,0,0,0,0,0,0,0,0,0,0,0,0,0,0,0,0,0,0,0,0,0,0,0,0,0,0,0,0,0,0,0,0,0,0,0,0,0,0,0],"sum_hessian":[1.956E3,1.272E3,6.84E2,6.17E2,6.55E2,5.41E2,1.43E2,6.14E2,3E0,5.47E2,1.08E2,1.87E2,3.54E2,4.52E2,1.62E2,2.22E2,3.25E2,4.1E1,6.7E1,1.69E2,1.8E1,2.21E2,1.33E2,5.3E1,3.99E2,1.26E2,3.6E1,1.21E2,1.01E2,9.8E1,2.27E2,1.9E1,2.2E1,6.2E1,5E0,3.5E1,1.34E2,2.14E2,7E0,5.5E1,7.8E1,9E0,4.4E1,3.9E2,9E0,4.3E1,8.3E1,2.4E1,1.2E1,9E1,3.1E1,7.7E1,2.4E1,9.5E1,3E0,1.33E2,9.4E1,1.2E1,7E0,1.8E1,4E0,2.4E1,3.8E1,3E1,5E0,1.31E2,3E0,2.5E1,1.89E2,1.1E1,4.4E1,7.4E1,4E0],"tree_param":{"num_deleted":"0","num_feature":"21","num_nodes":"73","size_leaf_vector":"1"}},{"base_weights":[1.7707473E-5,-2.1841995E-2,4.4760596E-2,-3.7905447E-2,-6.4683324E-3,6.333263E-3,2.2575317E-2,-3.8934488E-2,5.625184E-3,4.117452E-2,-1.6227456E-2,4.6591714E-2,8.594585E-3,-4.237224E-2,-1.8293422E-2,1.5752472E-3,7.456444E-2,-2.6361336E-4,-3.0515594E-2,3.224863E-2,6.5364316E-2,1.55205205E-2,-2.378447E-2,-3.0730082E-2,-5.1560663E-2,-1.8558542E-3,-6.150897E-3,-6.7954446E-4,1.5128152E-2,4.178637E-3,1.0597719E-4,-1.6590608E-2,1.7707728E-2,-1.8849586E-3,-9.356234E-4,3.966099E-2,-0E0,6.726348E-2,2.2818589E-4,2.084936E-2,-4.780296E-4,-4.3749824E-4,-1.9038629E-3,-2.0171327E-3,-4.907031E-4,-2.9061276E-3,-2.1066205E-3,-8.370747E-4,1.4496165E-3,1.1479136E-3,-0E0,-2.4391936E-4,-1.687507E-3,5.4003876E-3,6.172938E-4,2.072305E-3,-0E0,3.873478E-4,-9.1569155E-4,4.092107E-3,2.408209E-3,8.330919E-4,1.7460745E-3,7.407937E-5,-8.061387E-4],"categories":[],"categories_nodes":[],"categories_segments":[],"categories_sizes":[],"default_left":[0,0,0,0,0,0,0,0,0,0,0,0,0,0,0,0,0,0,0,0,0,0,0,0,0,0,0,0,0,0,0,0,0,0,0,0,0,0,0,0,0,0,0,0,0,0,0,0,0,0,0,0,0,0,0,0,0,0,0,0,0,0,0,0,0],"id":18,"left_children":[1,3,5,7,9,-1,11,13,-1,15,17,19,21,23,25,27,29,31,33,35,37,39,41,43,45,-1,47,-1,49,-1,-1,51,53,-1,-1,55,57,59,-1,61,63,-1,-1,-1,-1,-1,-1,-1,-1,-1,-1,-1,-1,-1,-1,-1,-1,-1,-1,-1,-1,-1,-1,-1,-1],"loss_changes":[1.9437529E0,3.242603E-1,1.1687682E0,9.731901E-2,3.166659E-1,0E0,1.6733661E-1,3.892678E-2,0E0,1.4432348E-1,1.271555E-1,3.848186E-2,7.354698E-2,4.880774E-2,1.7844442E-2,1.1664318E-2,3.1062573E-2,8.0578595E-2,1.8920392E-2,2.298636E-2,1.401484E-3,2.5491878E-2,7.0176683E-3,4.4651538E-2,6.085813E-3,0E0,2.3080308E-2,0E0,6.151727E-3,0E0,0E0,2.5516003E-2,4.860564E-2,0E0,0E0,5.869955E-3,2.6019074E-3,3.3838153E-3,0E0,6.6934824E-3,3.4807571E-3,0E0,0E0,0E0,0E0,0E0,0E0,0E0,0E0,0E0,0E0,0E0,0E0,0E0,0E0,0E0,0E0,0E0,0E0,0E0,0E0,0E0,0E0,0E0,0E0],"parents":[2147483647,0,0,1,1,2,2,3,3,4,4,6,6,7,7,9,9,10,10,11,11,12,12,13,13,14,14,15,15,16,16,17,17,18,18,19,19,20,20,21,21,22,22,23,23,24,24,26,26,28,28,31,31,32,32,35,35,36,36,37,37,39,39,40,40],"right_children":[2,4,6,8,10,-1,12,14,-1,16,18,20,22,24,26,28,30,32,34,36,38,40,42,44,46,-1,48,-1,50,-1,-1,52,54,-1,-1,56,58,60,-1,62,64,-1,-1,-1,-1,-1,-1,-1,-1,-1,-1,-1,-1,-1,-1,-1,-1,-1,-1,-1,-1,-1,-1,-1,-1],"split_conditions":[9.532E-1,3.1E1,3.503E-1,1.3345509E1,4.242E-1,6.333263E-3,1.8E-1,1.28E2,5.625184E-3,4.89E-1,7.244E-1,1E2,1E2,7.848153E0,2.396E-1,3.08E-1,1E-4,5.1E1,9.8E1,6.86E-1,1.51E2,8.667E-1,7.735E-1,1E-1,2.418E-1,-1.8558542E-3,1.9E1,-6.7954446E-4,2.54E-1,4.178637E-3,1.0597719E-4,2E-1,2E0,-1.8849586E-3,-9.356234E-4,5E-1,9E0,2.382E-1,2.2818589E-4,7.3783836E0,3.2E1,-4.3749824E-4,-1.9038629E-3,-2.0171327E-3,-4.907031E-4,-2.9061276E-3,-2.1066205E-3,-8.370747E-4,1.4496165E-3,1.1479136E-3,-0E0,-2.4391936E-4,-1.687507E-3,5.4003876E-3,6.172938E-4,2.072305E-3,-0E0,3.873478E-4,-9.1569155E-4,4.092107E-3,2.408209E-3,8.330919E-4,1.7460745E-3,7.407937E-5,-8.061387E-4],"split_indices":[15,11,16,8,16,0,20,3,0,15,19,11,13,8,19,15,14,11,11,16,11,16,16,20,19,0,11,0,16,0,0,6,0,0,0,6,0,19,0,8,13,0,0,0,0,0,0,0,0,0,0,0,0,0,0,0,0,0,0,0,0,0,0,0,0],"split_type":[0,0,0,0,0,0,0,0,0,0,0,0,0,0,0,0,0,0,0,0,0,0,0,0,0,0,0,0,0,0,0,0,0,0,0,0,0,0,0,0,0,0,0,0,0,0,0,0,0,0,0,0,0,0,0,0,0,0,0,0,0,0,0,0,0],"sum_hessian":[1.983E3,1.331E3,6.52E2,6.47E2,6.84E2,1.37E2,5.15E2,6.44E2,3E0,1.14E2,5.7E2,1.86E2,3.29E2,5.47E2,9.7E1,5.4E1,6E1,2.73E2,2.97E2,1.1E2,7.6E1,2.74E2,5.5E1,2.48E2,2.99E2,3.4E1,6.3E1,2.2E1,3.2E1,5.2E1,8E0,1.46E2,1.27E2,1.78E2,1.19E2,8.7E1,2.3E1,7.2E1,4E0,2.1E2,6.4E1,3.1E1,2.4E1,1.66E2,8.2E1,1.67E2,1.32E2,5.1E1,1.2E1,2.5E1,7E0,9.1E1,5.5E1,5E0,1.22E2,8.3E1,4E0,2E1,3E0,3.6E1,3.6E1,1.69E2,4.1E1,5.2E1,1.2E1],"tree_param":{"num_deleted":"0","num_feature":"21","num_nodes":"65","size_leaf_vector":"1"}},{"base_weights":[-0E0,-2.8864255E-2,4.9457707E-2,-3.8243167E-2,-5.9761205E-3,3.0030485E-2,1.16585E-1,-4.4970542E-2,-2.9589172E-2,-8.159708E-3,4.628938E-3,2.3314426E-2,2.9620663E-3,4.075001E-3,6.1459034E-3,-2.5235265E-3,-1.9731426E-3,-3.1178566E-2,-9.461674E-4,2.2616364E-2,-1.073058E-2,1.5951741E-2,3.301377E-2,-4.6427194E-3,-3.2884948E-2,-1.0143138E-2,1.2436855E-3,-0E0,1.2548084E-3,1.7714367E-4,-1.6965616E-2,1.323666E-2,1.4400211E-3,2.129706E-2,2.145675E-3,-5.264341E-4,-0E0,-1.8241191E-3,-1.0873437E-3,-7.9965213E-4,-0E0,-8.257205E-4,4.0608077E-4,-1.3242116E-3,-4.6051596E-4,2.0306783E-4,8.1658567E-4,1.6455579E-3,5.2169384E-4],"categories":[],"categories_nodes":[],"categories_segments":[],"categories_sizes":[],"default_left":[0,0,0,0,0,0,0,0,0,0,0,0,0,0,0,0,0,0,0,0,0,0,0,0,0,0,0,0,0,0,0,0,0,0,0,0,0,0,0,0,0,0,0,0,0,0,0,0,0],"id":19,"left_children":[1,3,5,7,9,11,13,15,17,19,-1,21,-1,-1,-1,-1,-1,23,25,27,29,31,33,35,37,39,-1,-1,-1,41,43,45,-1,47,-1,-1,-1,-1,-1,-1,-1,-1,-1,-1,-1,-1,-1,-1,-1],"loss_changes":[2.804884E0,2.6174986E-1,9.2600346E-1,4.2271137E-2,7.0862696E-2,1.01009786E-1,5.3138733E-3,3.706634E-3,1.4649332E-2,2.7458668E-2,0E0,2.7641118E-2,0E0,0E0,0E0,0E0,0E0,1.2803018E-2,4.715856E-3,4.3867342E-4,2.4465222E-2,4.868962E-3,1.5051529E-2,1.3025224E-3,7.127166E-3,2.0847844E-3,0E0,0E0,0E0,1.4809696E-2,1.2353137E-2,4.4827126E-3,0E0,7.3078796E-3,0E0,0E0,0E0,0E0,0E0,0E0,0E0,0E0,0E0,0E0,0E0,0E0,0E0,0E0,0E0],"parents":[2147483647,0,0,1,1,2,2,3,3,4,4,5,5,6,6,7,7,8,8,9,9,11,11,17,17,18,18,19,19,20,20,21,21,22,22,23,23,24,24,25,25,29,29,30,30,31,31,33,33],"right_children":[2,4,6,8,10,12,14,16,18,20,-1,22,-1,-1,-1,-1,-1,24,26,28,30,32,34,36,38,40,-1,-1,-1,42,44,46,-1,48,-1,-1,-1,-1,-1,-1,-1,-1,-1,-1,-1,-1,-1,-1,-1],"split_conditions":[2.248E-1,9.91E-2,4.885E-1,3.51E-2,1.826753E1,3.46E-1,6.515E-1,8E-4,9.84E-1,2.54E-1,4.628938E-3,1E2,2.9620663E-3,4.075001E-3,6.1459034E-3,-2.5235265E-3,-1.9731426E-3,1.692E-1,4.6E1,1.135E-1,1.28E2,6.997E-1,7.6E1,5.31E-2,1E-3,1E-3,1.2436855E-3,-0E0,1.2548084E-3,8.69E-1,1.485E-1,2.913E-1,1.4400211E-3,5.904E-1,2.145675E-3,-5.264341E-4,-0E0,-1.8241191E-3,-1.0873437E-3,-7.9965213E-4,-0E0,-8.257205E-4,4.0608077E-4,-1.3242116E-3,-4.6051596E-4,2.0306783E-4,8.1658567E-4,1.6455579E-3,5.2169384E-4],"split_indices":[17,17,17,17,1,17,17,17,15,16,0,13,0,0,0,0,0,16,11,17,13,16,11,17,14,14,0,0,0,15,17,17,0,16,0,0,0,0,0,0,0,0,0,0,0,0,0,0,0],"split_type":[0,0,0,0,0,0,0,0,0,0,0,0,0,0,0,0,0,0,0,0,0,0,0,0,0,0,0,0,0,0,0,0,0,0,0,0,0,0,0,0,0,0,0,0,0,0,0,0,0],"sum_hessian":[1.963E3,1.24E3,7.23E2,8.76E2,3.64E2,5.63E2,1.6E2,4.84E2,3.92E2,3.58E2,6E0,4.62E2,1.01E2,2.9E1,1.31E2,2.29E2,2.55E2,3.68E2,2.4E1,2.4E1,3.34E2,2.7E2,1.92E2,2.6E1,3.42E2,2.1E1,3E0,4E0,2E1,1.16E2,2.18E2,2.31E2,3.9E1,9.4E1,9.8E1,1.6E1,1E1,2.5E2,9.2E1,1.6E1,5E0,3.3E1,8.3E1,9.1E1,1.27E2,6.7E1,1.64E2,4E1,5.4E1],"tree_param":{"num_deleted":"0","num_feature":"21","num_nodes":"49","size_leaf_vector":"1"}},{"base_weights":[1.4060111E-4,-2.643962E-2,4.9537987E-2,-3.6621273E-2,-4.5766956E-3,2.9826438E-2,1.1082033E-1,-2.2437254E-3,-3.090368E-2,-1.1057439E-2,3.400338E-2,2.294036E-2,2.9206877E-3,4.5880186E-3,6.2525095E-3,-1.9938876E-3,-2.6808381E-2,-3.993066E-3,-2.4490388E-2,6.019447E-3,1.7825188E-2,2.0487662E-2,2.65194E-3,-1.5795372E-2,-3.0984413E-2,-1.2588513E-2,2.1721285E-3,-2.1128438E-3,-1.2566493E-2,-1.1297376E-3,2.491492E-2,1.6540127E-2,3.609485E-2,-6.449207E-5,-1.0048191E-3,-1.7414683E-3,-9.289742E-4,-0E0,-7.1086583E-4,-3.3005045E-4,3.0904586E-4,-7.6096266E-4,-0E0,-0E0,-4.5375578E-4,1.439703E-3,-0E0,5.308816E-4,1.0914053E-3,5.7072565E-4,2.0916665E-3],"categories":[],"categories_nodes":[],"categories_segments":[],"categories_sizes":[],"default_left":[0,0,0,0,0,0,0,0,0,0,0,0,0,0,0,0,0,0,0,0,0,0,0,0,0,0,0,0,0,0,0,0,0,0,0,0,0,0,0,0,0,0,0,0,0,0,0,0,0,0,0],"id":20,"left_children":[1,3,5,7,9,11,13,-1,15,17,19,21,-1,-1,-1,-1,23,25,27,-1,29,31,-1,33,35,37,39,-1,41,43,45,47,49,-1,-1,-1,-1,-1,-1,-1,-1,-1,-1,-1,-1,-1,-1,-1,-1,-1,-1],"loss_changes":[2.6282933E0,2.8487098E-1,8.2941663E-1,3.2702923E-2,1.023429E-1,9.544799E-2,1.2680531E-2,0E0,1.1814117E-2,3.121619E-2,6.509125E-2,2.359964E-2,0E0,0E0,0E0,0E0,1.21251345E-2,1.3893192E-2,1.9196287E-2,0E0,9.260317E-3,1.9153103E-2,0E0,4.82296E-3,6.6515207E-3,2.087716E-3,4.7466946E-3,0E0,3.7488714E-3,6.448224E-4,2.738446E-3,6.889932E-3,4.961394E-3,0E0,0E0,0E0,0E0,0E0,0E0,0E0,0E0,0E0,0E0,0E0,0E0,0E0,0E0,0E0,0E0,0E0,0E0],"parents":[2147483647,0,0,1,1,2,2,3,3,4,4,5,5,6,6,8,8,9,9,10,10,11,11,16,16,17,17,18,18,20,20,21,21,23,23,24,24,25,25,26,26,28,28,29,29,30,30,31,31,32,32],"right_children":[2,4,6,8,10,12,14,-1,16,18,20,22,-1,-1,-1,-1,24,26,28,-1,30,32,-1,34,36,38,40,-1,42,44,46,48,50,-1,-1,-1,-1,-1,-1,-1,-1,-1,-1,-1,-1,-1,-1,-1,-1,-1,-1],"split_conditions":[2.45E-1,9.76E-2,4.885E-1,1.42E-2,3.4339871E0,3.46E-1,8.5E1,-2.2437254E-3,1E-1,1E-2,1E0,3.9318256E0,2.9206877E-3,4.5880186E-3,6.2525095E-3,-1.9938876E-3,3E-1,1.1512936E1,7.758171E0,6.019447E-3,1.15E-1,4E0,2.65194E-3,2.374E-1,9.6E1,6.977E-1,8.642E-1,-2.1128438E-3,6.2E1,3.436E-1,5E-4,9.892E-1,3.003E-1,-6.449207E-5,-1.0048191E-3,-1.7414683E-3,-9.289742E-4,-0E0,-7.1086583E-4,-3.3005045E-4,3.0904586E-4,-7.6096266E-4,-0E0,-0E0,-4.5375578E-4,1.439703E-3,-0E0,5.308816E-4,1.0914053E-3,5.7072565E-4,2.0916665E-3],"split_indices":[17,17,17,17,9,17,11,0,20,12,10,9,0,0,0,0,20,1,18,0,17,4,0,19,11,16,15,0,11,15,14,15,17,0,0,0,0,0,0,0,0,0,0,0,0,0,0,0,0,0,0],"split_type":[0,0,0,0,0,0,0,0,0,0,0,0,0,0,0,0,0,0,0,0,0,0,0,0,0,0,0,0,0,0,0,0,0,0,0,0,0,0,0,0,0,0,0,0,0,0,0,0,0,0,0],"sum_hessian":[1.998E3,1.298E3,7E2,8.82E2,4.16E2,5.32E2,1.68E2,3.51E2,5.31E2,3.59E2,5.7E1,4.33E2,9.9E1,7.8E1,9E1,1.56E2,3.75E2,2.41E2,1.18E2,7E0,5E1,4.05E2,2.8E1,1.11E2,2.64E2,1.07E2,1.34E2,4.3E1,7.5E1,1E1,4E1,3.3E2,7.5E1,3.1E1,8E1,1.94E2,7E1,1.3E1,9.4E1,3.4E1,1E2,6.7E1,8E0,3E0,7E0,3.3E1,7E0,1.66E2,1.64E2,1.8E1,5.7E1],"tree_param":{"num_deleted":"0","num_feature":"21","num_nodes":"51","size_leaf_vector":"1"}},{"base_weights":[6.554221E-4,-1.32193575E-2,5.7090018E-2,-2.5306847E-2,7.7609005E-3,1.5563929E-3,8.278931E-2,-3.1675838E-2,-2.7839802E-3,1.9378774E-2,-1.29601555E-2,-1.7560598E-2,1.775186E-2,5.4242997E-3,4.714907E-2,-4.3499064E-2,-2.5917323E-2,-2.1274587E-2,4.909888E-2,8.849693E-2,1.6535437E-2,-0E0,-2.3417296E-2,-1.6497575E-3,-0E0,1.6756583E-3,3.3329537E-3,3.1198522E-2,3.3547815E-3,-1.8137522E-3,-2.569742E-3,-9.30687E-3,-3.2932505E-2,-1.6827219E-3,-1.0835168E-2,4.0786028E-2,5.452895E-3,5.22068E-3,7.9051686E-5,1.2825413E-2,3.377995E-2,2.3767797E-3,-2.065886E-3,-5.1610934E-4,-1.6988342E-3,-8.732471E-4,1.826695E-2,-5.5833156E-3,1.4112295E-2,-1.0301432E-3,1.8160265E-3,9.2545924E-5,-7.6485163E-4,-2.0959235E-3,-1.2422719E-3,-1.2415241E-3,-8.341793E-5,2.584213E-3,-0E0,7.573878E-4,-0E0,-0E0,1.8103464E-3,-4.2680308E-4,2.6789538E-4,-0E0,1.3347829E-3,-7.133601E-4,5.1088475E-5,-0E0,1.1265078E-3],"categories":[],"categories_nodes":[],"categories_segments":[],"categories_sizes":[],"default_left":[0,0,0,0,0,0,0,0,0,0,0,0,0,0,0,0,0,0,0,0,0,0,0,0,0,0,0,0,0,0,0,0,0,0,0,0,0,0,0,0,0,0,0,0,0,0,0,0,0,0,0,0,0,0,0,0,0,0,0,0,0,0,0,0,0,0,0,0,0,0,0],"id":21,"left_children":[1,3,5,7,9,11,13,15,17,19,21,23,25,-1,27,29,31,33,35,37,39,41,43,-1,45,47,-1,49,-1,-1,-1,51,53,-1,55,57,-1,-1,-1,59,61,-1,63,-1,-1,-1,65,67,69,-1,-1,-1,-1,-1,-1,-1,-1,-1,-1,-1,-1,-1,-1,-1,-1,-1,-1,-1,-1,-1,-1],"loss_changes":[1.5382901E0,4.0035442E-1,5.4518044E-1,1.3991374E-1,1.385932E-1,3.903193E-2,2.2110224E-1,4.476434E-2,2.1411489E-1,6.0748145E-2,2.8965507E-2,1.3522433E-2,4.8878014E-2,0E0,2.4347365E-2,3.4573674E-3,5.7228E-2,1.6898446E-2,9.476528E-3,7.219799E-3,1.7810188E-2,1.1660933E-2,1.1121176E-2,0E0,9.218246E-3,5.987216E-3,0E0,2.0362303E-2,0E0,0E0,0E0,1.226735E-2,1.90247E-2,0E0,9.753049E-3,1.9692734E-2,0E0,0E0,0E0,1.0375768E-2,1.9860417E-3,0E0,4.4463766E-3,0E0,0E0,0E0,1.363406E-3,3.1172128E-3,2.9436476E-3,0E0,0E0,0E0,0E0,0E0,0E0,0E0,0E0,0E0,0E0,0E0,0E0,0E0,0E0,0E0,0E0,0E0,0E0,0E0,0E0,0E0,0E0],"parents":[2147483647,0,0,1,1,2,2,3,3,4,4,5,5,6,6,7,7,8,8,9,9,10,10,11,11,12,12,14,14,15,15,16,16,17,17,18,18,19,19,20,20,21,21,22,22,24,24,25,25,27,27,31,31,32,32,34,34,35,35,39,39,40,40,42,42,46,46,47,47,48,48],"right_children":[2,4,6,8,10,12,14,16,18,20,22,24,26,-1,28,30,32,34,36,38,40,42,44,-1,46,48,-1,50,-1,-1,-1,52,54,-1,56,58,-1,-1,-1,60,62,-1,64,-1,-1,-1,66,68,70,-1,-1,-1,-1,-1,-1,-1,-1,-1,-1,-1,-1,-1,-1,-1,-1,-1,-1,-1,-1,-1,-1],"split_conditions":[4E0,9.08E-1,9.38E-1,3.0445225E0,7.556E-1,6.152E-1,3.503E-1,5.86E-1,3.884E-1,2.352E-1,3E-1,3.0445225E0,9.1E-2,5.4242997E-3,9.98E-1,7.848153E0,7.848153E0,1.138E-1,6.751E-1,1.3304687E1,8.340564E0,8.516E-1,1.0819798E1,-1.6497575E-3,3.08E-1,1.2E1,3.3329537E-3,1.1E1,3.3547815E-3,-1.8137522E-3,-2.569742E-3,9.18E-2,6.651E-1,-1.6827219E-3,7.238702E0,2.54E-1,5.452895E-3,5.22068E-3,7.9051686E-5,7.848153E0,9.33E-1,2.3767797E-3,9.996E-1,-5.1610934E-4,-1.6988342E-3,-8.732471E-4,4.24E-1,8.704E-1,7.834E-1,-1.0301432E-3,1.8160265E-3,9.2545924E-5,-7.6485163E-4,-2.0959235E-3,-1.2422719E-3,-1.2415241E-3,-8.341793E-5,2.584213E-3,-0E0,7.573878E-4,-0E0,-0E0,1.8103464E-3,-4.2680308E-4,2.6789538E-4,-0E0,1.3347829E-3,-7.133601E-4,5.1088475E-5,-0E0,1.1265078E-3],"split_indices":[5,15,15,9,16,15,16,15,15,19,20,9,20,0,15,8,8,15,16,1,18,16,1,0,15,0,0,0,0,0,0,20,20,0,18,16,0,0,0,8,15,0,15,0,0,0,15,15,15,0,0,0,0,0,0,0,0,0,0,0,0,0,0,0,0,0,0,0,0,0,0],"split_type":[0,0,0,0,0,0,0,0,0,0,0,0,0,0,0,0,0,0,0,0,0,0,0,0,0,0,0,0,0,0,0,0,0,0,0,0,0,0,0,0,0,0,0,0,0,0,0,0,0,0,0,0,0,0,0,0,0,0,0,0,0,0,0,0,0,0,0,0,0,0,0],"sum_hessian":[1.957E3,1.57E3,3.87E2,9.99E2,5.71E2,1.24E2,2.63E2,7.75E2,2.24E2,3.69E2,2.02E2,5.4E1,7E1,1.5E2,1.13E2,2.46E2,5.29E2,1.67E2,5.7E1,1.2E1,3.57E2,8.8E1,1.14E2,2.7E1,2.7E1,5.5E1,1.5E1,6.7E1,4.6E1,1.38E2,1.08E2,1.62E2,3.67E2,7.1E1,9.6E1,5.3E1,4E0,9E0,3E0,3E2,5.7E1,4E0,8.4E1,5.6E1,5.8E1,1.5E1,1.2E1,3E1,2.5E1,4E0,6.3E1,5.1E1,1.11E2,1.66E2,2.01E2,3.3E1,6.3E1,4E1,1.3E1,2.6E2,4E1,6E0,5.1E1,5.2E1,3.2E1,5E0,7E0,1.9E1,1.1E1,1E1,1.5E1],"tree_param":{"num_deleted":"0","num_feature":"21","num_nodes":"71","size_leaf_vector":"1"}},{"base_weights":[9.818418E-5,-1.2122537E-2,5.286172E-2,-2.6193947E-2,4.1326275E-3,-8.498909E-3,7.275313E-2,-3.3043317E-2,-4.7231507E-3,1.7556287E-2,-1.608888E-2,-1.9461494E-2,5.707788E-3,1.0105798E-1,4.2594563E-2,-3.972684E-2,-2.7536642E-2,-1.9121604E-2,4.1229315E-2,1.35336565E-2,4.6588597E-3,-2.2124248E-2,-0E0,-1.325396E-3,-0E0,-1.2627966E-2,4.2565968E-2,3.92782E-3,5.499001E-3,2.796087E-2,6.082505E-2,-2.4216173E-3,-3.537187E-2,-3.21322E-2,-6.3476907E-3,-2.7663352E-2,-1.457001E-3,-0E0,4.656323E-2,3.307419E-3,2.0725597E-2,-6.304414E-4,-3.3395994E-2,-8.780296E-4,3.9782627E-3,-4.4876924E-5,3.0770764E-4,-9.113297E-4,-0E0,2.5991264E-3,-0E0,-8.167307E-4,1.5557784E-3,3.7143973E-3,2.0676113E-3,-9.522989E-4,-1.9073542E-3,-1.9878994E-3,-1.2725206E-3,-6.7239674E-4,-0E0,-1.5136896E-3,-0E0,-9.2664495E-4,3.0164554E-4,7.405661E-5,-0E0,-0E0,2.4441932E-3,8.829E-4,-1.4072961E-5,1.8592682E-3,8.039344E-4,-0E0,-1.7649329E-3,5.237589E-4,-7.239368E-5],"categories":[],"categories_nodes":[],"categories_segments":[],"categories_sizes":[],"default_left":[0,0,0,0,0,0,0,0,0,0,0,0,0,0,0,0,0,0,0,0,0,0,0,0,0,0,0,0,0,0,0,0,0,0,0,0,0,0,0,0,0,0,0,0,0,0,0,0,0,0,0,0,0,0,0,0,0,0,0,0,0,0,0,0,0,0,0,0,0,0,0,0,0,0,0,0,0],"id":22,"left_children":[1,3,5,7,9,11,13,15,17,19,21,23,25,27,29,31,33,35,37,39,-1,41,43,-1,45,47,49,-1,-1,51,53,-1,55,57,59,61,63,65,67,69,71,-1,73,-1,75,-1,-1,-1,-1,-1,-1,-1,-1,-1,-1,-1,-1,-1,-1,-1,-1,-1,-1,-1,-1,-1,-1,-1,-1,-1,-1,-1,-1,-1,-1,-1,-1],"loss_changes":[1.2640257E0,3.648563E-1,4.574263E-1,1.21510684E-1,1.9939959E-1,1.5503245E-2,2.2034776E-1,1.5844643E-2,1.3818456E-1,1.2313044E-1,3.0171596E-2,8.680895E-3,2.7860932E-2,1.0145903E-3,2.6502997E-2,5.2186847E-4,3.1392604E-2,2.1642178E-2,7.768683E-3,2.8711863E-2,0E0,1.803834E-2,4.1441238E-3,0E0,3.0862776E-4,1.9798414E-3,4.3579545E-3,0E0,0E0,1.3444945E-2,5.6932867E-4,0E0,2.525106E-3,7.4986815E-3,1.8814979E-3,5.9500784E-3,8.779829E-3,1.0968763E-5,2.1340027E-3,1.1116078E-2,1.2662053E-2,0E0,3.433384E-3,0E0,3.279858E-3,0E0,0E0,0E0,0E0,0E0,0E0,0E0,0E0,0E0,0E0,0E0,0E0,0E0,0E0,0E0,0E0,0E0,0E0,0E0,0E0,0E0,0E0,0E0,0E0,0E0,0E0,0E0,0E0,0E0,0E0,0E0,0E0],"parents":[2147483647,0,0,1,1,2,2,3,3,4,4,5,5,6,6,7,7,8,8,9,9,10,10,11,11,12,12,13,13,14,14,15,15,16,16,17,17,18,18,19,19,21,21,22,22,24,24,25,25,26,26,29,29,30,30,32,32,33,33,34,34,35,35,36,36,37,37,38,38,39,39,40,40,42,42,44,44],"right_children":[2,4,6,8,10,12,14,16,18,20,22,24,26,28,30,32,34,36,38,40,-1,42,44,-1,46,48,50,-1,-1,52,54,-1,56,58,60,62,64,66,68,70,72,-1,74,-1,76,-1,-1,-1,-1,-1,-1,-1,-1,-1,-1,-1,-1,-1,-1,-1,-1,-1,-1,-1,-1,-1,-1,-1,-1,-1,-1,-1,-1,-1,-1,-1,-1],"split_conditions":[4E0,8.494E-1,8.704E-1,3.0445225E0,7.502E-1,9.1E-2,3.503E-1,6.348E-1,3.884E-1,3.0445225E0,9.892E-1,7.76E-1,4.24E-1,9.836E-1,9.97E-1,6.82986E0,7.758171E0,1.83E-1,7E0,9.728E-1,4.6588597E-3,7.915E-1,1.5E-1,-1.325396E-3,1.2E1,3.08E-1,7.95E-1,3.92782E-3,5.499001E-3,1.1E1,2.382E-1,-2.4216173E-3,1E0,6.651E-1,7.148E-1,5E1,7.238702E0,2.415E-1,4.056E-1,2.38E-1,2.38E-1,-6.304414E-4,1.609438E0,-8.780296E-4,4E-1,-4.4876924E-5,3.0770764E-4,-9.113297E-4,-0E0,2.5991264E-3,-0E0,-8.167307E-4,1.5557784E-3,3.7143973E-3,2.0676113E-3,-9.522989E-4,-1.9073542E-3,-1.9878994E-3,-1.2725206E-3,-6.7239674E-4,-0E0,-1.5136896E-3,-0E0,-9.2664495E-4,3.0164554E-4,7.405661E-5,-0E0,-0E0,2.4441932E-3,8.829E-4,-1.4072961E-5,1.8592682E-3,8.039344E-4,-0E0,-1.7649329E-3,5.237589E-4,-7.239368E-5],"split_indices":[5,15,15,9,16,20,16,15,15,9,15,15,15,15,15,18,18,15,0,15,0,16,19,0,0,15,15,0,0,0,19,0,0,20,15,2,18,16,15,19,19,0,9,0,19,0,0,0,0,0,0,0,0,0,0,0,0,0,0,0,0,0,0,0,0,0,0,0,0,0,0,0,0,0,0,0,0],"split_type":[0,0,0,0,0,0,0,0,0,0,0,0,0,0,0,0,0,0,0,0,0,0,0,0,0,0,0,0,0,0,0,0,0,0,0,0,0,0,0,0,0,0,0,0,0,0,0,0,0,0,0,0,0,0,0,0,0,0,0,0,0,0,0,0,0,0,0,0,0,0,0,0,0,0,0,0,0],"sum_hessian":[1.952E3,1.584E3,3.68E2,8.52E2,7.32E2,8.9E1,2.79E2,6.42E2,2.1E2,4.43E2,2.89E2,5.4E1,3.5E1,1.41E2,1.38E2,2.79E2,3.63E2,1.62E2,4.8E1,4.23E2,2E1,2.14E2,7.5E1,4.1E1,1.3E1,2.2E1,1.3E1,4.6E1,9.5E1,8.1E1,5.7E1,8.2E1,1.97E2,2.94E2,6.9E1,1.05E2,5.7E1,7E0,4.1E1,1.81E2,2.42E2,1.22E2,9.2E1,9E0,6.6E1,6E0,7E0,1.6E1,6E0,1E1,3E0,3E0,7.8E1,2.9E1,2.8E1,3.5E1,1.62E2,1.28E2,1.66E2,2.5E1,4.4E1,9.4E1,1.1E1,2.1E1,3.6E1,4E0,3E0,3E0,3.8E1,4.1E1,1.4E2,4.7E1,1.95E2,7E0,8.5E1,3.8E1,2.8E1],"tree_param":{"num_deleted":"0","num_feature":"21","num_nodes":"77","size_leaf_vector":"1"}},{"base_weights":[6.736116E-4,-1.1845049E-2,7.9229765E-2,-3.152394E-2,8.122349E-3,5.6534648E-2,5.0236094E-3,-2.0998528E-3,-2.715077E-2,-4.2880476E-3,1.8728655E-2,1.6209399E-3,3.034908E-3,-2.7683161E-2,-0E0,-6.908497E-3,7.753548E-2,1.51862E-2,3.5083022E-2,-1.7450545E-2,-2.9445438E-2,-2.675911E-4,1.2274305E-3,-1.928865E-2,-5.1920733E-4,4.805971E-3,-0E0,2.0876338E-3,1.3666586E-2,1.8848678E-2,4.3439887E-2,-1.0835537E-3,-0E0,-1.558407E-3,-8.3223864E-4,-5.66451E-4,-1.8932162E-3,4.4278838E-4,-4.762716E-4,4.881837E-4,9.621353E-4,-0E0,1.0162446E-3,2.2793463E-3,-0E0],"categories":[],"categories_nodes":[],"categories_segments":[],"categories_sizes":[],"default_left":[0,0,0,0,0,0,0,0,0,0,0,0,0,0,0,0,0,0,0,0,0,0,0,0,0,0,0,0,0,0,0,0,0,0,0,0,0,0,0,0,0,0,0,0,0],"id":23,"left_children":[1,3,5,7,9,11,-1,-1,13,15,17,-1,-1,19,21,23,25,27,29,31,33,-1,-1,35,37,-1,-1,-1,39,41,43,-1,-1,-1,-1,-1,-1,-1,-1,-1,-1,-1,-1,-1,-1],"loss_changes":[1.9735291E0,6.800183E-1,1.1167848E-1,3.1837344E-2,1.1393507E-1,2.5766492E-3,0E0,0E0,1.0552913E-2,7.709458E-2,2.1379888E-2,0E0,0E0,5.8686435E-3,2.6396732E-3,2.8067345E-2,7.782288E-3,9.591699E-3,3.3988133E-3,5.405249E-3,6.0344934E-3,0E0,0E0,1.2985781E-2,2.1850636E-2,0E0,0E0,0E0,5.0291196E-3,1.9810908E-4,4.799515E-4,0E0,0E0,0E0,0E0,0E0,0E0,0E0,0E0,0E0,0E0,0E0,0E0,0E0,0E0],"parents":[2147483647,0,0,1,1,2,2,3,3,4,4,5,5,8,8,9,9,10,10,13,13,14,14,15,15,16,16,17,17,18,18,19,19,20,20,23,23,24,24,28,28,29,29,30,30],"right_children":[2,4,6,8,10,12,-1,-1,14,16,18,-1,-1,20,22,24,26,28,30,32,34,-1,-1,36,38,-1,-1,-1,40,42,44,-1,-1,-1,-1,-1,-1,-1,-1,-1,-1,-1,-1,-1,-1],"split_conditions":[3.46E-1,9.91E-2,6.515E-1,3.3E-3,2.328E-1,3.91E-1,5.0236094E-3,-2.0998528E-3,1.0419797E1,9.615872E0,8.541105E0,1.6209399E-3,3.034908E-3,2.177E-1,6E0,1.259E-1,5.2677283E0,2.443E-1,9.7E1,5.31E-2,1.06E2,-2.675911E-4,1.2274305E-3,9.38E-2,3E-1,4.805971E-3,-0E0,2.0876338E-3,9.93E-1,2.668E-1,3.181E-1,-1.0835537E-3,-0E0,-1.558407E-3,-8.3223864E-4,-5.66451E-4,-1.8932162E-3,4.4278838E-4,-4.762716E-4,4.881837E-4,9.621353E-4,-0E0,1.0162446E-3,2.2793463E-3,-0E0],"split_indices":[17,17,17,17,17,17,0,0,18,8,8,0,0,16,11,20,18,16,11,17,11,0,0,20,20,0,0,0,15,17,17,0,0,0,0,0,0,0,0,0,0,0,0,0,0],"split_type":[0,0,0,0,0,0,0,0,0,0,0,0,0,0,0,0,0,0,0,0,0,0,0,0,0,0,0,0,0,0,0,0,0,0,0,0,0,0,0,0,0,0,0,0,0],"sum_hessian":[1.998E3,1.723E3,2.75E2,8.7E2,8.53E2,1.37E2,1.38E2,2.47E2,6.23E2,3.89E2,4.64E2,2.5E1,1.12E2,6.13E2,1E1,3.79E2,1E1,3.88E2,7.6E1,1E2,5.13E2,7E0,3E0,1.23E2,2.56E2,7E0,3E0,1.6E1,3.72E2,3.1E1,4.5E1,7.6E1,2.4E1,4.44E2,6.9E1,9.1E1,3.2E1,1.2E2,1.36E2,2.31E2,1.41E2,4E0,2.7E1,4.1E1,4E0],"tree_param":{"num_deleted":"0","num_feature":"21","num_nodes":"45","size_leaf_vector":"1"}},{"base_weights":[-1.0482382E-3,-2.1605322E-2,4.0324442E-2,-3.1052653E-2,-7.0022843E-3,2.478618E-2,9.139033E-2,-1.9517568E-3,-2.667421E-2,-8.200639E-3,4.9273875E-3,1.2750362E-2,3.5821296E-2,5.237033E-3,3.7848675E-3,-2.7141806E-2,7.9494074E-4,-1.8218352E-2,-3.351703E-3,9.993947E-3,1.2887031E-3,2.9033296E-2,2.5006798E-3,-1.801135E-2,-2.9162686E-2,-2.8859986E-2,-6.802787E-3,1.6613452E-2,-7.94307E-3,1.1406821E-2,-0E0,1.3875419E-2,1.6005641E-3,-0E0,-9.786641E-4,-1.5851958E-3,-8.858691E-4,-1.5938886E-3,-0E0,-7.758927E-4,-0E0,-0E0,1.5560312E-3,-0E0,-7.4953627E-4,-0E0,6.307235E-4,1.203824E-4,1.461632E-3],"categories":[],"categories_nodes":[],"categories_segments":[],"categories_sizes":[],"default_left":[0,0,0,0,0,0,0,0,0,0,0,0,0,0,0,0,0,0,0,0,0,0,0,0,0,0,0,0,0,0,0,0,0,0,0,0,0,0,0,0,0,0,0,0,0,0,0,0,0],"id":24,"left_children":[1,3,5,7,9,11,13,-1,15,17,-1,19,21,-1,-1,23,-1,25,27,29,-1,31,-1,33,35,37,39,41,43,45,-1,47,-1,-1,-1,-1,-1,-1,-1,-1,-1,-1,-1,-1,-1,-1,-1,-1,-1],"loss_changes":[1.670235E0,1.7739415E-1,5.0266933E-1,2.013886E-2,5.7799347E-2,6.136006E-2,5.4535866E-3,0E0,1.198712E-2,2.294391E-2,0E0,4.9966983E-3,1.5401959E-2,0E0,0E0,4.3706E-3,0E0,1.59172E-2,3.1990167E-2,2.9969178E-3,0E0,3.137514E-3,0E0,3.5408996E-3,6.595582E-3,6.350644E-3,6.226415E-3,1.7477324E-2,1.599492E-2,1.5477166E-3,0E0,3.2817735E-3,0E0,0E0,0E0,0E0,0E0,0E0,0E0,0E0,0E0,0E0,0E0,0E0,0E0,0E0,0E0,0E0,0E0],"parents":[2147483647,0,0,1,1,2,2,3,3,4,4,5,5,6,6,8,8,9,9,11,11,12,12,15,15,17,17,18,18,19,19,21,21,23,23,24,24,25,25,26,26,27,27,28,28,29,29,31,31],"right_children":[2,4,6,8,10,12,14,-1,16,18,-1,20,22,-1,-1,24,-1,26,28,30,-1,32,-1,34,36,38,40,42,44,46,-1,48,-1,-1,-1,-1,-1,-1,-1,-1,-1,-1,-1,-1,-1,-1,-1,-1,-1],"split_conditions":[2.48E-1,8.14E-2,4.885E-1,3.3E-3,1.8515991E1,1.28E2,1.2E1,-1.9517568E-3,9.99E-1,1.259E-1,4.9273875E-3,6.997E-1,3.91E-1,5.237033E-3,3.7848675E-3,2.54E-1,7.9494074E-4,1.5768351E1,2.2E-1,7.8244457E0,1.2887031E-3,2.93E-1,2.5006798E-3,1E2,6.8E1,1.28E2,1.624E-1,1.382E-1,7.8244457E0,2.745E-1,-0E0,9.38E-2,1.6005641E-3,-0E0,-9.786641E-4,-1.5851958E-3,-8.858691E-4,-1.5938886E-3,-0E0,-7.758927E-4,-0E0,-0E0,1.5560312E-3,-0E0,-7.4953627E-4,-0E0,6.307235E-4,1.203824E-4,1.461632E-3],"split_indices":[17,17,17,17,1,13,0,0,15,20,0,16,17,0,0,16,0,1,20,8,0,17,0,13,11,3,17,17,8,17,0,20,0,0,0,0,0,0,0,0,0,0,0,0,0,0,0,0,0],"split_type":[0,0,0,0,0,0,0,0,0,0,0,0,0,0,0,0,0,0,0,0,0,0,0,0,0,0,0,0,0,0,0,0,0,0,0,0,0,0,0,0,0,0,0,0,0,0,0,0,0],"sum_hessian":[1.964E3,1.314E3,6.5E2,7.93E2,5.21E2,5.01E2,1.49E2,2.7E2,5.23E2,5.17E2,4E0,2.45E2,2.56E2,7.4E1,7.5E1,5.2E2,3E0,1.61E2,3.56E2,2.1E2,3.5E1,1.8E2,7.6E1,1.05E2,4.15E2,7.8E1,8.3E1,6.2E1,2.94E2,1.84E2,2.6E1,3.6E1,1.44E2,7E0,9.8E1,3.31E2,8.4E1,7E1,8E0,4.1E1,4.2E1,2.7E1,3.5E1,1.41E2,1.53E2,2.4E1,1.6E2,2.5E1,1.1E1],"tree_param":{"num_deleted":"0","num_feature":"21","num_nodes":"49","size_leaf_vector":"1"}},{"base_weights":[-8.743942E-4,-1.1164638E-2,4.4267535E-2,-2.149857E-2,1.5729837E-3,-7.899487E-3,6.1544266E-2,-2.7555378E-2,5.479834E-3,1.6302135E-2,-1.850118E-2,-2.4130102E-2,1.0897801E-2,3.508327E-2,8.740989E-2,-1.8490003E-2,-3.415863E-2,1.986629E-2,-3.7259872E-3,1.0457186E-2,5.1689934E-2,1.1941049E-3,-1.9335173E-2,-1.3473855E-3,-0E0,2.194724E-3,-6.6559874E-3,2.2150131E-2,4.3417912E-2,6.739237E-2,4.827498E-3,-2.6511705E-2,-6.130913E-4,-3.8689386E-2,-2.1533014E-2,3.6062725E-2,-0E0,-1.2132654E-2,-0E0,-0E0,1.5099208E-2,5.435559E-3,3.9532736E-2,-1.481382E-3,-1.5218443E-2,-5.519334E-4,-0E0,9.828151E-3,1.3753733E-3,2.2884405E-3,-0E0,3.501353E-3,-0E0,-1.6597565E-3,-7.282867E-4,-4.002184E-4,8.529245E-4,-2.0149373E-3,-8.5507584E-4,-1.2528067E-3,6.6001166E-4,1.310124E-3,3.5977867E-3,2.1987634E-4,-6.502435E-5,-7.1051694E-4,-0E0,2.677766E-4,-3.345144E-4,1.9032863E-4,-8.0915255E-4,5.693612E-4,1.4578385E-3,-0E0,2.1212308E-3,-8.9860725E-4,-4.6122549E-4,-0E0,5.330764E-4],"categories":[],"categories_nodes":[],"categories_segments":[],"categories_sizes":[],"default_left":[0,0,0,0,0,0,0,0,0,0,0,0,0,0,0,0,0,0,0,0,0,0,0,0,0,0,0,0,0,0,0,0,0,0,0,0,0,0,0,0,0,0,0,0,0,0,0,0,0,0,0,0,0,0,0,0,0,0,0,0,0,0,0,0,0,0,0,0,0,0,0,0,0,0,0,0,0,0,0],"id":25,"left_children":[1,3,5,7,9,11,13,15,17,19,21,23,25,27,29,31,33,35,37,39,41,-1,43,-1,-1,-1,45,47,49,51,-1,53,55,57,59,61,63,65,67,69,71,-1,73,-1,75,-1,-1,77,-1,-1,-1,-1,-1,-1,-1,-1,-1,-1,-1,-1,-1,-1,-1,-1,-1,-1,-1,-1,-1,-1,-1,-1,-1,-1,-1,-1,-1,-1,-1],"loss_changes":[9.220461E-1,2.1579306E-1,3.3752006E-1,1.4958468E-1,2.1415071E-1,2.9349528E-2,1.7495573E-1,3.8340747E-2,2.327563E-2,8.032435E-2,1.07526705E-2,9.480808E-4,2.718468E-2,7.680297E-3,2.3477077E-3,4.3160282E-2,1.717022E-2,1.9981194E-2,3.96648E-3,1.82227E-2,2.0391405E-2,0E0,7.818259E-3,0E0,0E0,0E0,1.0857857E-3,8.889474E-5,8.394361E-3,3.3915043E-3,0E0,1.2065694E-2,1.2815148E-2,4.0630996E-3,1.607829E-2,1.0396615E-3,3.5750165E-4,9.606993E-4,2.1159095E-3,7.3131053E-3,8.91985E-3,0E0,4.651144E-3,0E0,8.1178546E-4,0E0,0E0,1.02961436E-4,0E0,0E0,0E0,0E0,0E0,0E0,0E0,0E0,0E0,0E0,0E0,0E0,0E0,0E0,0E0,0E0,0E0,0E0,0E0,0E0,0E0,0E0,0E0,0E0,0E0,0E0,0E0,0E0,0E0,0E0,0E0],"parents":[2147483647,0,0,1,1,2,2,3,3,4,4,5,5,6,6,7,7,8,8,9,9,10,10,11,11,12,12,13,13,14,14,15,15,16,16,17,17,18,18,19,19,20,20,22,22,26,26,27,27,28,28,29,29,31,31,32,32,33,33,34,34,35,35,36,36,37,37,38,38,39,39,40,40,42,42,44,44,47,47],"right_children":[2,4,6,8,10,12,14,16,18,20,22,24,26,28,30,32,34,36,38,40,42,-1,44,-1,-1,-1,46,48,50,52,-1,54,56,58,60,62,64,66,68,70,72,-1,74,-1,76,-1,-1,78,-1,-1,-1,-1,-1,-1,-1,-1,-1,-1,-1,-1,-1,-1,-1,-1,-1,-1,-1,-1,-1,-1,-1,-1,-1,-1,-1,-1,-1,-1,-1],"split_conditions":[4E0,4.4E1,4.3E1,1.28E2,7.502E-1,2.4E1,9.1E-2,7.848153E0,8.810478E0,3.9318256E0,1.8E-1,1.6878258E1,3.316E-1,9.3E1,8.1E1,1E-1,3.0445225E0,2E-1,8E0,6.9E1,1.3304687E1,1.1941049E-3,6.651E-1,-1.3473855E-3,-0E0,2.194724E-3,3.8E1,1.2E1,1.5E2,3.294E-1,4.827498E-3,2.2E1,5E0,1.6275099E1,2.8E-1,6E0,1.5162718E1,1.1111791E1,7.3783836E0,7.848153E0,1.8E1,5.435559E-3,2.177E-1,-1.481382E-3,1.41E2,-5.519334E-4,-0E0,6.56E-1,1.3753733E-3,2.2884405E-3,-0E0,3.501353E-3,-0E0,-1.6597565E-3,-7.282867E-4,-4.002184E-4,8.529245E-4,-2.0149373E-3,-8.5507584E-4,-1.2528067E-3,6.6001166E-4,1.310124E-3,3.5977867E-3,2.1987634E-4,-6.502435E-5,-7.1051694E-4,-0E0,2.677766E-4,-3.345144E-4,1.9032863E-4,-8.0915255E-4,5.693612E-4,1.4578385E-3,-0E0,2.1212308E-3,-8.9860725E-4,-4.6122549E-4,-0E0,5.330764E-4],"split_indices":[5,11,11,3,16,11,20,8,18,9,20,1,16,11,11,20,9,6,11,11,1,0,20,0,0,0,11,0,11,16,0,11,0,1,16,0,1,18,8,8,2,0,16,0,11,0,0,16,0,0,0,0,0,0,0,0,0,0,0,0,0,0,0,0,0,0,0,0,0,0,0,0,0,0,0,0,0,0,0],"split_type":[0,0,0,0,0,0,0,0,0,0,0,0,0,0,0,0,0,0,0,0,0,0,0,0,0,0,0,0,0,0,0,0,0,0,0,0,0,0,0,0,0,0,0,0,0,0,0,0,0,0,0,0,0,0,0,0,0,0,0,0,0,0,0,0,0,0,0,0,0,0,0,0,0,0,0,0,0,0,0],"sum_hessian":[1.99E3,1.623E3,3.67E2,9E2,7.23E2,9E1,2.77E2,7.38E2,1.62E2,4.2E2,3.03E2,5.1E1,3.9E1,1.4E2,1.37E2,3.19E2,4.19E2,6.7E1,9.5E1,3.64E2,5.6E1,3E0,3E2,4.2E1,9E0,1.5E1,2.4E1,6.1E1,7.9E1,4.9E1,8.8E1,2.16E2,1.03E2,3.01E2,1.18E2,3.5E1,3.2E1,3.5E1,6E1,1.1E2,2.54E2,7E0,4.9E1,7.7E1,2.23E2,1.7E1,7E0,2.5E1,3.6E1,7.5E1,4E0,4.6E1,3E0,1.32E2,8.4E1,7.7E1,2.6E1,2.75E2,2.6E1,1.1E2,8E0,3.1E1,4E0,1.6E1,1.6E1,3E1,5E0,4E1,2E1,8.8E1,2.2E1,2.08E2,4.6E1,4E0,4.5E1,1.4E2,8.3E1,3E0,2.2E1],"tree_param":{"num_deleted":"0","num_feature":"21","num_nodes":"79","size_leaf_vector":"1"}},{"base_weights":[6.689213E-5,-1.9843372E-2,3.601415E-2,-2.7102716E-2,-4.0875454E-3,1.9809816E-2,7.529011E-2,-3.2613155E-2,-2.0784985E-2,-8.389965E-3,2.1391172E-2,1.3904436E-2,3.786185E-2,4.5452718E-2,8.3895214E-2,-2.5104115E-2,-1.7585447E-3,-2.1927522E-2,-0E0,-5.0526187E-3,-3.146121E-2,1.05197085E-2,3.5723024E-3,1.07917115E-2,2.6838819E-2,2.573178E-2,2.3746025E-3,-0E0,2.36101E-3,4.792398E-3,3.4244128E-3,-1.4486249E-2,-2.9720603E-2,-2.3022354E-2,-2.6922831E-3,-3.6232782E-4,5.227193E-3,4.2251474E-4,-9.589992E-3,-1.03617115E-2,-2.0464568E-3,-0E0,1.6030964E-2,1.16710495E-2,-0E0,-0E0,1.4379398E-3,-0E0,1.3377023E-3,-9.997531E-4,-0E0,-1.620965E-3,-2.5448846E-5,-1.2436277E-3,-5.3247093E-4,3.9688675E-4,-4.2592204E-4,-1.9816798E-4,2.1281429E-3,-3.5518775E-4,2.5205952E-4,-8.5435825E-4,-1.5955776E-4,-7.331389E-4,-0E0,6.74996E-6,-3.5676672E-4,-0E0,9.588843E-4,2.6005143E-4,7.2199776E-4],"categories":[],"categories_nodes":[],"categories_segments":[],"categories_sizes":[],"default_left":[0,0,0,0,0,0,0,0,0,0,0,0,0,0,0,0,0,0,0,0,0,0,0,0,0,0,0,0,0,0,0,0,0,0,0,0,0,0,0,0,0,0,0,0,0,0,0,0,0,0,0,0,0,0,0,0,0,0,0,0,0,0,0,0,0,0,0,0,0,0,0],"id":26,"left_children":[1,3,5,7,9,11,13,15,17,19,21,23,25,27,29,31,-1,33,35,37,39,41,-1,43,45,47,-1,-1,-1,-1,-1,49,51,53,55,-1,57,59,61,63,-1,65,67,69,-1,-1,-1,-1,-1,-1,-1,-1,-1,-1,-1,-1,-1,-1,-1,-1,-1,-1,-1,-1,-1,-1,-1,-1,-1,-1,-1],"loss_changes":[1.401563E0,1.4054203E-1,4.3387085E-1,2.378261E-2,4.2946633E-2,4.7385782E-2,3.5116196E-2,1.6747415E-3,9.91109E-3,2.2984512E-2,2.0981168E-2,1.12868175E-2,5.239725E-3,1.5006438E-3,5.177617E-3,1.373969E-3,0E0,5.5586398E-3,8.5514283E-4,8.597203E-3,2.437558E-3,3.682827E-3,0E0,2.680447E-3,2.1895804E-3,1.0182709E-3,0E0,0E0,0E0,0E0,0E0,2.1310598E-3,3.076166E-3,4.492864E-3,1.7978561E-3,0E0,8.832538E-3,4.3832976E-3,6.504841E-3,5.3976115E-4,0E0,4.0743154E-4,1.9987766E-4,3.1381994E-3,0E0,0E0,0E0,0E0,0E0,0E0,0E0,0E0,0E0,0E0,0E0,0E0,0E0,0E0,0E0,0E0,0E0,0E0,0E0,0E0,0E0,0E0,0E0,0E0,0E0,0E0,0E0],"parents":[2147483647,0,0,1,1,2,2,3,3,4,4,5,5,6,6,7,7,8,8,9,9,10,10,11,11,12,12,13,13,14,14,15,15,17,17,18,18,19,19,20,20,21,21,23,23,24,24,25,25,31,31,32,32,33,33,34,34,36,36,37,37,38,38,39,39,41,41,42,42,43,43],"right_children":[2,4,6,8,10,12,14,16,18,20,22,24,26,28,30,32,-1,34,36,38,40,42,-1,44,46,48,-1,-1,-1,-1,-1,50,52,54,56,-1,58,60,62,64,-1,66,68,70,-1,-1,-1,-1,-1,-1,-1,-1,-1,-1,-1,-1,-1,-1,-1,-1,-1,-1,-1,-1,-1,-1,-1,-1,-1,-1,-1],"split_conditions":[2.382E-1,9.76E-2,3.9318256E0,3.08E-2,3.4339871E0,3.301E-1,8.564E-1,7.848153E0,9.95E-1,2E1,1E0,8.541105E0,8.9E1,7E0,2.418E-1,1E0,-1.7585447E-3,1.61E2,6.34E-2,1.28E2,7.848153E0,1.15E-1,3.5723024E-3,1.6275099E1,6.6E1,5.2E1,2.3746025E-3,-0E0,2.36101E-3,4.792398E-3,3.4244128E-3,2.368E-1,3.0445225E0,3.0445225E0,8.506E-1,-3.6232782E-4,1E1,8.845E-1,1.534E-1,2.7E1,-2.0464568E-3,3.436E-1,7.238702E0,1.1289794E1,-0E0,-0E0,1.4379398E-3,-0E0,1.3377023E-3,-9.997531E-4,-0E0,-1.620965E-3,-2.5448846E-5,-1.2436277E-3,