{"learner":{"attributes":{"best_iteration":"310","best_score":"0.13684178082447127","scikit_learn":"{\"_estimator_type\": \"classifier\"}"},"feature_names":[],"feature_types":[],"gradient_booster":{"model":{"gbtree_model_param":{"num_parallel_tree":"1","num_trees":"1083"},"iteration_indptr":[0,3,6,9,12,15,18,21,24,27,30,33,36,39,42,45,48,51,54,57,60,63,66,69,72,75,78,81,84,87,90,93,96,99,102,105,108,111,114,117,120,123,126,129,132,135,138,141,144,147,150,153,156,159,162,165,168,171,174,177,180,183,186,189,192,195,198,201,204,207,210,213,216,219,222,225,228,231,234,237,240,243,246,249,252,255,258,261,264,267,270,273,276,279,282,285,288,291,294,297,300,303,306,309,312,315,318,321,324,327,330,333,336,339,342,345,348,351,354,357,360,363,366,369,372,375,378,381,384,387,390,393,396,399,402,405,408,411,414,417,420,423,426,429,432,435,438,441,444,447,450,453,456,459,462,465,468,471,474,477,480,483,486,489,492,495,498,501,504,507,510,513,516,519,522,525,528,531,534,537,540,543,546,549,552,555,558,561,564,567,570,573,576,579,582,585,588,591,594,597,600,603,606,609,612,615,618,621,624,627,630,633,636,639,642,645,648,651,654,657,660,663,666,669,672,675,678,681,684,687,690,693,696,699,702,705,708,711,714,717,720,723,726,729,732,735,738,741,744,747,750,753,756,759,762,765,768,771,774,777,780,783,786,789,792,795,798,801,804,807,810,813,816,819,822,825,828,831,834,837,840,843,846,849,852,855,858,861,864,867,870,873,876,879,882,885,888,891,894,897,900,903,906,909,912,915,918,921,924,927,930,933,936,939,942,945,948,951,954,957,960,963,966,969,972,975,978,981,984,987,990,993,996,999,1002,1005,1008,1011,1014,1017,1020,1023,1026,1029,1032,1035,1038,1041,1044,1047,1050,1053,1056,1059,1062,1065,1068,1071,1074,1077,1080,1083],"tree_info":[0,1,2,0,1,2,0,1,2,0,1,2,0,1,2,0,1,2,0,1,2,0,1,2,0,1,2,0,1,2,0,1,2,0,1,2,0,1,2,0,1,2,0,1,2,0,1,2,0,1,2,0,1,2,0,1,2,0,1,2,0,1,2,0,1,2,0,1,2,0,1,2,0,1,2,0,1,2,0,1,2,0,1,2,0,1,2,0,1,2,0,1,2,0,1,2,0,1,2,0,1,2,0,1,2,0,1,2,0,1,2,0,1,2,0,1,2,0,1,2,0,1,2,0,1,2,0,1,2,0,1,2,0,1,2,0,1,2,0,1,2,0,1,2,0,1,2,0,1,2,0,1,2,0,1,2,0,1,2,0,1,2,0,1,2,0,1,2,0,1,2,0,1,2,0,1,2,0,1,2,0,1,2,0,1,2,0,1,2,0,1,2,0,1,2,0,1,2,0,1,2,0,1,2,0,1,2,0,1,2,0,1,2,0,1,2,0,1,2,0,1,2,0,1,2,0,1,2,0,1,2,0,1,2,0,1,2,0,1,2,0,1,2,0,1,2,0,1,2,0,1,2,0,1,2,0,1,2,0,1,2,0,1,2,0,1,2,0,1,2,0,1,2,0,1,2,0,1,2,0,1,2,0,1,2,0,1,2,0,1,2,0,1,2,0,1,2,0,1,2,0,1,2,0,1,2,0,1,2,0,1,2,0,1,2,0,1,2,0,1,2,0,1,2,0,1,2,0,1,2,0,1,2,0,1,2,0,1,2,0,1,2,0,1,2,0,1,2,0,1,2,0,1,2,0,1,2,0,1,2,0,1,2,0,1,2,0,1,2,0,1,2,0,1,2,0,1,2,0,1,2,0,1,2,0,1,2,0,1,2,0,1,2,0,1,2,0,1,2,0,1,2,0,1,2,0,1,2,0,1,2,0,1,2,0,1,2,0,1,2,0,1,2,0,1,2,0,1,2,0,1,2,0,1,2,0,1,2,0,1,2,0,1,2,0,1,2,0,1,2,0,1,2,0,1,2,0,1,2,0,1,2,0,1,2,0,1,2,0,1,2,0,1,2,0,1,2,0,1,2,0,1,2,0,1,2,0,1,2,0,1,2,0,1,2,0,1,2,0,1,2,0,1,2,0,1,2,0,1,2,0,1,2,0,1,2,0,1,2,0,1,2,0,1,2,0,1,2,0,1,2,0,1,2,0,1,2,0,1,2,0,1,2,0,1,2,0,1,2,0,1,2,0,1,2,0,1,2,0,1,2,0,1,2,0,1,2,0,1,2,0,1,2,0,1,2,0,1,2,0,1,2,0,1,2,0,1,2,0,1,2,0,1,2,0,1,2,0,1,2,0,1,2,0,1,2,0,1,2,0,1,2,0,1,2,0,1,2,0,1,2,0,1,2,0,1,2,0,1,2,0,1,2,0,1,2,0,1,2,0,1,2,0,1,2,0,1,2,0,1,2,0,1,2,0,1,2,0,1,2,0,1,2,0,1,2,0,1,2,0,1,2,0,1,2,0,1,2,0,1,2,0,1,2,0,1,2,0,1,2,0,1,2,0,1,2,0,1,2,0,1,2,0,1,2,0,1,2,0,1,2,0,1,2,0,1,2,0,1,2,0,1,2,0,1,2,0,1,2,0,1,2,0,1,2,0,1,2,0,1,2,0,1,2,0,1,2,0,1,2,0,1,2,0,1,2,0,1,2,0,1,2,0,1,2,0,1,2,0,1,2,0,1,2,0,1,2,0,1,2,0,1,2,0,1,2,0,1,2,0,1,2,0,1,2,0,1,2,0,1,2,0,1,2,0,1,2,0,1,2,0,1,2,0,1,2,0,1,2,0,1,2,0,1,2,0,1,2,0,1,2,0,1,2,0,1,2,0,1,2,0,1,2,0,1,2,0,1,2,0,1,2,0,1,2,0,1,2,0,1,2,0,1,2,0,1,2,0,1,2,0,1,2,0,1,2,0,1,2,0,1,2,0,1,2,0,1,2,0,1,2,0,1,2,0,1,2,0,1,2,0,1,2,0,1,2,0,1,2,0,1,2,0,1,2,0,1,2,0,1,2,0,1,2,0,1,2,0,1,2,0,1,2,0,1,2,0,1,2,0,1,2,0,1,2,0,1,2,0,1,2,0,1,2,0,1,2,0,1,2,0,1,2,0,1,2,0,1,2,0,1,2,0,1,2,0,1,2,0,1,2,0,1,2,0,1,2,0,1,2,0,1,2,0,1,2,0,1,2,0,1,2,0,1,2,0,1,2,0,1,2,0,1,2,0,1,2,0,1,2,0,1,2,0,1,2,0,1,2,0,1,2,0,1,2,0,1,2,0,1,2,0,1,2,0,1,2,0,1,2,0,1,2,0,1,2,0,1,2,0,1,2,0,1,2,0,1,2,0,1,2,0,1,2,0,1,2,0,1,2,0,1,2],"trees":[{"base_weights":[-8.994352E-3,5.094055E-1,-4.8440307E-1,-6.359074E-1,8.031488E-1,-6.253865E-1,1.2028037E0,2.2894736E-2,-3.5740744E-2,1.1089113E0,9.540592E-3,-6.9917756E-1,-2.6481208E-1,1.3863158E0,-9.000002E-3,1.3703895E0,6.643636E-1,4.3207544E-1,-5.173229E-1,-4.0460053E-1,-7.406965E-1,2.4632584E-1,-7.0387816E-1,7.219844E-2,3.1216217E-2,-2.9693881E-2,1.434595E0,1.3088889E0,3.9860096E-2,8.442379E-1,-9.262677E-2,1.8387093E-1,-3.6212128E-2,-3.323921E-2,2.6528922E-1,-1.7195124E-2,-3.71945E-2,6.714765E-2,-3.528902E-2,-3.6351357E-2,-1.5000002E-2,7.328784E-2,5.0454546E-2,1.5461537E-2,7.293697E-2,-1.8789476E-2,4.0882353E-2,6.449239E-2,-1.6111113E-2,2.7222222E-2,-2.2448279E-2,5.8999997E-2,-3.0789478E-2,-3.122951E-2,5.1521737E-2],"categories":[],"categories_nodes":[],"categories_segments":[],"categories_sizes":[],"default_left":[0,0,0,0,0,0,0,0,0,0,0,0,0,0,0,0,0,0,0,0,0,0,0,0,0,0,0,0,0,0,0,0,0,0,0,0,0,0,0,0,0,0,0,0,0,0,0,0,0,0,0,0,0,0,0],"id":0,"left_children":[1,3,5,7,9,11,13,-1,-1,15,17,19,21,23,-1,25,27,29,31,33,35,37,39,-1,-1,-1,41,43,45,47,49,51,-1,-1,53,-1,-1,-1,-1,-1,-1,-1,-1,-1,-1,-1,-1,-1,-1,-1,-1,-1,-1,-1,-1],"loss_changes":[2.1671107E2,1.4201411E2,1.0982312E2,7.8043633E0,8.1221115E1,1.1002838E1,9.420982E0,0E0,0E0,2.7003143E1,2.1215311E1,3.881424E0,1.680153E1,2.8282166E-1,0E0,2.000772E1,3.670955E1,1.1615275E1,6.329377E0,8.214481E0,2.357483E-2,3.7323215E1,5.4201126E-2,0E0,0E0,0E0,2.1960449E-1,6.1130753E0,1.5761454E1,1.6048208E1,5.708428E0,9.014224E0,0E0,0E0,9.838334E0,0E0,0E0,0E0,0E0,0E0,0E0,0E0,0E0,0E0,0E0,0E0,0E0,0E0,0E0,0E0,0E0,0E0,0E0,0E0,0E0],"parents":[2147483647,0,0,1,1,2,2,3,3,4,4,5,5,6,6,9,9,10,10,11,11,12,12,13,13,15,15,16,16,17,17,18,18,19,19,20,20,21,21,22,22,26,26,27,27,28,28,29,29,30,30,31,31,34,34],"right_children":[2,4,6,8,10,12,14,-1,-1,16,18,20,22,24,-1,26,28,30,32,34,36,38,40,-1,-1,-1,42,44,46,48,50,52,-1,-1,54,-1,-1,-1,-1,-1,-1,-1,-1,-1,-1,-1,-1,-1,-1,-1,-1,-1,-1,-1,-1],"split_conditions":[4.2E1,7.8244457E0,2.56E2,5E0,3.0445225E0,5E-4,5E0,2.2894736E-2,-3.5740744E-2,2.4E1,9E0,5.2E1,8.7E1,9.5E1,-9.000002E-3,2.0794415E0,6.8426833E0,1.319E-1,1.2E1,1.8E-1,2.3585684E0,1.5585736E1,1.94E2,7.219844E-2,3.1216217E-2,-2.9693881E-2,2.2E1,7.848153E0,9.38E-2,2.8E1,1.3E1,7.238702E0,-3.6212128E-2,-3.323921E-2,7.3783836E0,-1.7195124E-2,-3.71945E-2,6.714765E-2,-3.528902E-2,-3.6351357E-2,-1.5000002E-2,7.328784E-2,5.0454546E-2,1.5461537E-2,7.293697E-2,-1.8789476E-2,4.0882353E-2,6.449239E-2,-1.6111113E-2,2.7222222E-2,-2.2448279E-2,5.8999997E-2,-3.0789478E-2,-3.122951E-2,5.1521737E-2],"split_indices":[11,8,13,11,9,14,0,0,0,11,0,11,11,11,0,9,15,17,11,17,15,1,11,0,0,0,11,8,17,11,11,15,0,0,8,0,0,0,0,0,0,0,0,0,0,0,0,0,0,0,0,0,0,0,0],"split_type":[0,0,0,0,0,0,0,0,0,0,0,0,0,0,0,0,0,0,0,0,0,0,0,0,0,0,0,0,0,0,0,0,0,0,0,0,0,0,0,0,0,0,0,0,0,0,0,0,0,0,0,0,0,0,0],"sum_hessian":[8.7733325E2,4.1955554E2,4.5777774E2,8.533333E1,3.342222E2,4.2311108E2,3.4666664E1,5.333333E0,7.999999E1,2.4088887E2,9.333333E1,3.502222E2,7.2888885E1,3.0666664E1,3.9999998E0,1.5022221E2,9.0666664E1,5.1999996E1,4.1333332E1,4.4888885E1,3.053333E2,3.3777775E1,3.9111107E1,2.7555553E1,3.111111E0,4.444444E0,1.4577777E2,4.3999996E1,4.6666664E1,2.8888887E1,2.311111E1,9.333333E0,3.1999998E1,3.2444443E1,1.2444444E1,3.5555553E0,3.0177777E2,1.5555554E1,1.8222221E1,3.5999996E1,3.111111E0,1.3333333E2,1.2444444E1,6.222222E0,3.7777775E1,3.0666664E1,1.5999999E1,2.0888887E1,7.9999995E0,7.9999995E0,1.5111111E1,3.9999998E0,5.333333E0,5.7777777E0,6.666666E0],"tree_param":{"num_deleted":"0","num_feature":"18","num_nodes":"55","size_leaf_vector":"1"}},{"base_weights":[-1.0233596E-1,8.880753E-3,-5.500957E-1,-1.3858792E-1,7.6880467E-1,-3.8012725E-1,-3.2829296E-2,8.6177284E-1,-2.1154706E-1,4.511516E-2,3.0957446E-2,-4.0782034E-1,6.891891E-3,5.6666666E-1,1.1220994E0,-1.5304373E-1,-2.641177E-2,-2.8378395E-3,-2.1125657E-2,8.150442E-1,1.6588232E-1,6.072414E-2,2.9E-2,6.392308E-2,-1.7544162E-1,2.2384614E-2,5.4473687E-2,-1.3301889E-2,3.5487805E-2,-1.3434261E-2,3.34345E-3],"categories":[],"categories_nodes":[],"categories_segments":[],"categories_sizes":[],"default_left":[0,0,0,0,0,0,0,0,0,0,0,0,0,0,0,0,0,0,0,0,0,0,0,0,0,0,0,0,0,0,0],"id":1,"left_children":[1,3,5,7,9,11,-1,13,15,-1,-1,17,-1,19,21,23,-1,-1,-1,25,27,-1,-1,-1,29,-1,-1,-1,-1,-1,-1],"loss_changes":[4.3643635E1,7.882672E1,2.8021774E0,4.307328E1,1.5734482E0,1.085702E0,0E0,2.27676E0,1.0030762E1,0E0,0E0,2.7253914E-1,0E0,1.8571677E0,1.2333679E-1,1.5037391E1,0E0,0E0,0E0,6.242876E-1,2.4517882E0,0E0,0E0,0E0,1.0413777E1,0E0,0E0,0E0,0E0,0E0,0E0],"parents":[2147483647,0,0,1,1,2,2,3,3,4,4,5,5,7,7,8,8,11,11,13,13,14,14,15,15,19,19,20,20,24,24],"right_children":[2,4,6,8,10,12,-1,14,16,-1,-1,18,-1,20,22,24,-1,-1,-1,26,28,-1,-1,-1,30,-1,-1,-1,-1,-1,-1],"split_conditions":[8.541105E0,7.244E-1,2.396E-1,1E-4,1.0819798E1,1.6878258E1,-3.2829296E-2,4E-1,1.92E2,4.511516E-2,3.0957446E-2,1.2254868E1,6.891891E-3,1E-4,1.8019531E1,1E-3,-2.641177E-2,-2.8378395E-3,-2.1125657E-2,7.3783836E0,1.8019531E1,6.072414E-2,2.9E-2,6.392308E-2,7.9446588E0,2.2384614E-2,5.4473687E-2,-1.3301889E-2,3.5487805E-2,-1.3434261E-2,3.34345E-3],"split_indices":[8,16,16,12,1,1,0,16,3,0,0,1,0,14,1,12,0,0,0,8,1,0,0,0,15,0,0,0,0,0,0],"split_type":[0,0,0,0,0,0,0,0,0,0,0,0,0,0,0,0,0,0,0,0,0,0,0,0,0,0,0,0,0,0,0],"sum_hessian":[8.7422217E2,7.0088885E2,1.7333333E2,5.8755554E2,1.1333333E2,6.8888885E1,1.04444435E2,3.9111107E1,5.484444E2,5.6888885E1,5.6444443E1,6.577777E1,3.111111E0,1.9999998E1,1.911111E1,4.6444443E2,8.399999E1,3.111111E0,6.2666664E1,1.1555555E1,8.444444E0,1.5111111E1,3.9999998E0,6.222222E0,4.582222E2,6.222222E0,5.333333E0,4.8888884E0,3.5555553E0,3.3111108E2,1.2711111E2],"tree_param":{"num_deleted":"0","num_feature":"18","num_nodes":"31","size_leaf_vector":"1"}},{"base_weights":[1.046925E-1,-1.1094977E-1,1.0047301E0,-3.1646034E-1,4.707805E-2,8.104039E-1,6.0974028E-2,-7.041254E-1,4.1322574E-2,4.1577946E-2,6.891891E-3,8.09589E-1,-3.7344325E-2,5.217703E-2,-4.103276E-2,6.891891E-3,5.8999997E-2,1.3058068E-1,-5.2331847E-1,-2.3537552E-2,1.117881E-2,-4.9024415E-3,-3.478859E-2],"categories":[],"categories_nodes":[],"categories_segments":[],"categories_sizes":[],"default_left":[0,0,0,0,0,0,0,0,0,0,0,0,0,0,0,0,0,0,0,0,0,0,0],"id":2,"left_children":[1,3,5,7,-1,9,-1,11,13,-1,-1,15,-1,-1,17,-1,-1,19,21,-1,-1,-1,-1],"loss_changes":[1.6748154E2,1.5080573E2,5.7686615E0,8.0988266E1,0E0,1.08004E0,0E0,1.8729446E1,2.5243792E1,0E0,0E0,1.7238069E0,0E0,0E0,2.3438622E1,0E0,0E0,1.1743199E1,5.303938E0,0E0,0E0,0E0,0E0],"parents":[2147483647,0,0,1,1,2,2,3,3,5,5,7,7,8,8,11,11,14,14,17,17,18,18],"right_children":[2,4,6,8,-1,10,-1,12,14,-1,-1,16,-1,-1,18,-1,-1,20,22,-1,-1,-1,-1],"split_conditions":[4E0,1.1024E0,2.396E-1,5E0,4.707805E-2,1.6878258E1,6.0974028E-2,2.352E-1,1.5162718E1,4.1577946E-2,6.891891E-3,3.4339871E0,-3.7344325E-2,5.217703E-2,1.8E-1,6.891891E-3,5.8999997E-2,1.5585736E1,1.609438E0,-2.3537552E-2,1.117881E-2,-4.9024415E-3,-3.478859E-2],"split_indices":[5,17,16,0,0,1,0,16,1,0,0,9,0,0,17,0,0,1,9,0,0,0,0],"split_type":[0,0,0,0,0,0,0,0,0,0,0,0,0,0,0,0,0,0,0,0,0,0,0],"sum_hessian":[8.6088885E2,6.951111E2,1.6577777E2,5.8222217E2,1.12888885E2,8.977777E1,7.599999E1,2.7911108E2,3.0311108E2,8.6666664E1,3.111111E0,7.1111107E0,2.7199997E2,2.2222221E1,2.808889E2,3.111111E0,3.9999998E0,2.0755554E2,7.333333E1,2.7111109E1,1.8044443E2,2.1777777E1,5.1555553E1],"tree_param":{"num_deleted":"0","num_feature":"18","num_nodes":"23","size_leaf_vector":"1"}},{"base_weights":[-2.6789837E-2,4.6144286E-1,-4.9383745E-1,-6.5471125E-1,7.1949005E-1,-6.204284E-1,1.2864563E0,1.3331624E-2,-7.013559E-1,1.0317796E0,2.8085026E-1,-6.875942E-1,-3.0787772E-1,6.715818E-2,2.932171E-2,-4.5802802E-1,-3.627709E-2,1.09089E0,-3.171128E-2,4.913481E-2,6.7874394E-2,1.8801692E-1,-7.0676184E-1,1.4276053E-1,-6.753958E-1,-1.8694124E-3,-3.0971197E-2,1.2499249E0,5.431525E-1,6.0536113E-2,-7.4156135E-2,-1.8568343E-2,4.1600823E-2,-8.4200585E-3,-7.151286E-1,1.2101957E0,-3.5000753E-2,-3.6018346E-2,-2.502564E-3,5.4319482E-2,6.962534E-2,5.5329967E-2,1.2021781E-3,2.5696835E-2,-1.3694401E-2,-3.6043614E-2,-8.2789315E-3,6.55495E-2,2.9383171E-2],"categories":[],"categories_nodes":[],"categories_segments":[],"categories_sizes":[],"default_left":[0,0,0,0,0,0,0,0,0,0,0,0,0,0,0,0,0,0,0,0,0,0,0,0,0,0,0,0,0,0,0,0,0,0,0,0,0,0,0,0,0,0,0,0,0,0,0,0,0],"id":3,"left_children":[1,3,5,7,9,11,13,-1,15,17,19,21,23,-1,-1,25,-1,27,-1,29,-1,31,33,35,37,-1,-1,39,41,-1,43,-1,-1,-1,45,47,-1,-1,-1,-1,-1,-1,-1,-1,-1,-1,-1,-1,-1],"loss_changes":[2.0224762E2,1.2534969E2,1.029084E2,3.748619E0,4.7891342E1,8.589767E0,2.2497177E-1,0E0,1.0108948E-2,2.0975723E1,3.6759766E1,6.0242157E0,1.291448E1,0E0,0E0,6.012459E-1,0E0,1.6467255E1,0E0,1.7825975E1,0E0,3.2843149E0,1.3263092E0,3.267691E1,1.0891056E0,0E0,0E0,1.8121796E0,1.3509112E1,0E0,1.3285075E1,0E0,0E0,0E0,8.497009E-1,4.3930054E-2,0E0,0E0,0E0,0E0,0E0,0E0,0E0,0E0,0E0,0E0,0E0,0E0,0E0],"parents":[2147483647,0,0,1,1,2,2,3,3,4,4,5,5,6,6,8,8,9,9,10,10,11,11,12,12,15,15,17,17,19,19,21,21,22,22,23,23,24,24,27,27,28,28,30,30,34,34,35,35],"right_children":[2,4,6,8,10,12,14,-1,16,18,20,22,24,-1,-1,26,-1,28,-1,30,-1,32,34,36,38,-1,-1,40,42,-1,44,-1,-1,-1,46,48,-1,-1,-1,-1,-1,-1,-1,-1,-1,-1,-1,-1,-1],"split_conditions":[4.3E1,7.8244457E0,7.339E-1,5E0,2.4E1,5E-4,9.4E1,1.3331624E-2,1.0819798E1,2E0,4.2E-1,1.5E-1,8.7E1,6.715818E-2,2.932171E-2,1.2E1,-3.627709E-2,1.1E1,-3.171128E-2,1.5E-1,6.7874394E-2,5E0,4E0,1.5585736E1,1.99E2,-1.8694124E-3,-3.0971197E-2,3E0,1.5585736E1,6.0536113E-2,4E0,-1.8568343E-2,4.1600823E-2,-8.4200585E-3,3.4E1,7.7E1,-3.5000753E-2,-3.6018346E-2,-2.502564E-3,5.4319482E-2,6.962534E-2,5.5329967E-2,1.2021781E-3,2.5696835E-2,-1.3694401E-2,-3.6043614E-2,-8.2789315E-3,6.55495E-2,2.9383171E-2],"split_indices":[11,8,16,11,11,14,11,0,1,7,16,16,11,0,0,11,0,0,0,16,0,0,0,1,11,0,0,0,1,0,0,0,0,0,2,11,0,0,0,0,0,0,0,0,0,0,0,0,0],"split_type":[0,0,0,0,0,0,0,0,0,0,0,0,0,0,0,0,0,0,0,0,0,0,0,0,0,0,0,0,0,0,0,0,0,0,0,0,0,0,0,0,0,0,0,0,0,0,0,0,0],"sum_hessian":[8.8492883E2,4.3255313E2,4.5237567E2,8.086331E1,3.5168982E2,4.2300485E2,2.9370836E1,3.566006E0,7.72973E1,2.0450928E2,1.4718054E2,3.4693097E2,7.6073875E1,2.6187824E1,3.183011E0,9.164839E0,6.813246E1,1.978932E2,6.6160865E0,1.22051056E2,2.512948E1,7.1313643E0,3.3979962E2,3.432508E1,4.1748795E1,3.0547125E0,6.110126E0,1.5222913E2,4.5664066E1,1.0942949E1,1.1110811E2,3.959859E0,3.1715055E0,5.7063036E0,3.340933E2,1.5004061E1,1.9321018E1,3.8656948E1,3.091845E0,7.524603E1,7.69831E1,2.1261848E1,2.4402218E1,2.764273E1,8.346538E1,3.30149E2,3.9443102E0,1.1823228E1,3.1808329E0],"tree_param":{"num_deleted":"0","num_feature":"18","num_nodes":"49","size_leaf_vector":"1"}},{"base_weights":[-8.801667E-2,-3.349799E-1,1.3001458E-1,-1.4880227E-1,-3.6933143E-2,2.6145718E-1,-6.004698E-1,-5.287494E-1,1.6142438E-1,7.380573E-2,7.1327573E-1,-6.478697E-1,-1.0717203E-1,-6.0122633E-1,4.2592373E-2,-3.854239E-1,4.6050087E-1,4.7857028E-1,-7.0571566E-1,-3.0348063E-1,1.3656113E0,-3.6051534E-2,-3.5347983E-1,7.272437E-3,-1.6721072E-2,-6.4652234E-1,1.3158171E-2,3.179477E-1,-4.9720338E-1,6.397343E-1,-3.406566E-2,-3.4388103E-2,5.7941717E-1,-2.9551864E-1,-3.680612E-2,1.6668338E-1,-3.5945587E-2,2.7571812E-2,7.0279874E-2,-3.3481944E-2,3.1523157E-2,-3.496158E-2,-1.9330205E-2,2.9078865E-2,-2.7861078E-3,-3.5509743E-2,-1.0347786E-2,4.5928877E-2,7.217079E-3,6.8823546E-2,2.4024894E-2,7.290926E-3,-2.959445E-2,-3.4464035E-2,5.9298392E-2],"categories":[],"categories_nodes":[],"categories_segments":[],"categories_sizes":[],"default_left":[0,0,0,0,0,0,0,0,0,0,0,0,0,0,0,0,0,0,0,0,0,0,0,0,0,0,0,0,0,0,0,0,0,0,0,0,0,0,0,0,0,0,0,0,0,0,0,0,0,0,0,0,0,0,0],"id":4,"left_children":[1,3,5,7,-1,9,11,13,15,17,19,21,23,25,-1,27,29,31,33,35,37,-1,39,-1,-1,41,-1,43,45,47,-1,-1,49,51,-1,53,-1,-1,-1,-1,-1,-1,-1,-1,-1,-1,-1,-1,-1,-1,-1,-1,-1,-1,-1],"loss_changes":[4.7101257E1,3.0622826E1,4.471899E1,3.3370697E1,0E0,3.3311237E1,1.5155945E0,1.3211979E1,2.568375E1,8.865061E1,7.711253E1,1.0248852E0,5.043429E-1,4.964939E0,0E0,4.5432997E0,2.1175344E1,2.214281E1,8.767586E-1,9.138393E0,1.3271942E0,0E0,5.109191E0,0E0,0E0,1.2080193E0,0E0,8.8335675E-1,2.7560778E0,1.1944824E1,0E0,0E0,1.2624321E1,1.2457469E0,0E0,2.025863E1,0E0,0E0,0E0,0E0,0E0,0E0,0E0,0E0,0E0,0E0,0E0,0E0,0E0,0E0,0E0,0E0,0E0,0E0,0E0],"parents":[2147483647,0,0,1,1,2,2,3,3,5,5,6,6,7,7,8,8,9,9,10,10,11,11,12,12,13,13,15,15,16,16,17,17,18,18,19,19,20,20,22,22,25,25,27,27,28,28,29,29,32,32,33,33,35,35],"right_children":[2,4,6,8,-1,10,12,14,16,18,20,22,24,26,-1,28,30,32,34,36,38,-1,40,-1,-1,42,-1,44,46,48,-1,-1,50,52,-1,54,-1,-1,-1,-1,-1,-1,-1,-1,-1,-1,-1,-1,-1,-1,-1,-1,-1,-1,-1],"split_conditions":[1.312E-1,7E1,8.541105E0,2.4E1,-3.6933143E-2,7.244E-1,9.6E1,1.6878258E1,7.0693946E0,6.4E1,7.9E1,1E-2,1.3304687E1,2.435E-1,4.2592373E-2,7.848153E0,1.284E-1,1.5E-1,7.1E1,1.0819798E1,8.7E1,-3.6051534E-2,4E1,7.272437E-3,-1.6721072E-2,2E1,1.3158171E-2,2.8E1,6.82986E0,5E1,-3.406566E-2,-3.4388103E-2,1.0819798E1,1.0819798E1,-3.680612E-2,4.6E1,-3.5945587E-2,2.7571812E-2,7.0279874E-2,-3.3481944E-2,3.1523157E-2,-3.496158E-2,-1.9330205E-2,2.9078865E-2,-2.7861078E-3,-3.5509743E-2,-1.0347786E-2,4.5928877E-2,7.217079E-3,6.8823546E-2,2.4024894E-2,7.290926E-3,-2.959445E-2,-3.4464035E-2,5.9298392E-2],"split_indices":[17,11,8,11,0,16,11,1,15,11,11,12,1,16,0,8,17,16,11,1,11,0,11,0,0,11,0,11,15,11,0,0,1,1,0,11,0,0,0,0,0,0,0,0,0,0,0,0,0,0,0,0,0,0,0],"split_type":[0,0,0,0,0,0,0,0,0,0,0,0,0,0,0,0,0,0,0,0,0,0,0,0,0,0,0,0,0,0,0,0,0,0,0,0,0,0,0,0,0,0,0,0,0,0,0,0,0,0,0,0,0,0,0],"sum_hessian":[8.725555E2,4.0909607E2,4.6345944E2,2.8107928E2,1.2801678E2,3.9344275E2,7.00167E1,1.2617077E2,1.5490852E2,2.7896594E2,1.144768E2,6.3407913E1,6.608784E0,1.2048276E2,5.688011E0,5.4547577E1,1.0036094E2,1.8395969E2,9.5006256E1,4.4890366E1,6.9586426E1,4.9353737E1,1.4054178E1,3.0917592E0,3.5170252E0,1.14832985E2,5.649777E0,7.1043663E0,4.744321E1,8.72002E1,1.3160736E1,1.4098121E1,1.6986156E2,7.5232244E0,8.748303E1,2.1225956E1,2.3664412E1,4.0670395E0,6.551939E1,1.0955151E1,3.099027E0,9.374694E1,2.108604E1,3.996206E0,3.1081603E0,2.6330095E1,2.1113113E1,5.5119064E1,3.2081142E1,1.7215958E1,1.526456E2,3.0909436E0,4.4322805E0,1.1659943E1,9.566013E0],"tree_param":{"num_deleted":"0","num_feature":"18","num_nodes":"55","size_leaf_vector":"1"}},{"base_weights":[9.188113E-2,-4.836358E-1,6.5546143E-1,-6.4458054E-1,-3.7232533E-2,1.1734177E0,-3.6545392E-2,-7.025893E-1,-3.0280846E-1,9.7463757E-1,-2.8467935E-1,5.836447E-1,1.3720828E0,-3.6152296E-2,-2.8575265E-1,-5.436894E-1,5.0372225E-1,2.8156474E-1,6.6260085E-2,-4.6476725E-1,1.9057989E-1,1.424248E-1,1.1732681E0,1.3988899E0,5.16506E-1,-3.233646E-2,8.182661E-3,-3.5840094E-2,7.817491E-3,-2.6667494E-2,4.733834E-2,1.02606E-3,2.1554697E-2,-6.354612E-1,-3.0102357E-3,-3.1457264E-2,9.7755903E-1,-1.2267814E-1,6.995226E-1,6.848227E-2,6.484226E-1,3.4295358E-2,1.4065589E0,4.257026E-2,-3.3814926E-3,-3.1658623E-2,5.4372758E-2,-3.655904E-2,-1.287803E-2,-1.6683126E-2,3.39132E-2,2.5627745E-2,6.144491E-2,-3.500996E-2,1.8323338E-2,1.5816389E-2,6.1328538E-2,3.688375E-3,5.8828443E-2,4.8730504E-2,7.11449E-2],"categories":[],"categories_nodes":[],"categories_segments":[],"categories_sizes":[],"default_left":[0,0,0,0,0,0,0,0,0,0,0,0,0,0,0,0,0,0,0,0,0,0,0,0,0,0,0,0,0,0,0,0,0,0,0,0,0,0,0,0,0,0,0,0,0,0,0,0,0,0,0,0,0,0,0,0,0,0,0,0,0],"id":5,"left_children":[1,3,5,7,9,11,-1,13,15,17,19,21,23,-1,25,27,29,31,-1,33,35,37,39,41,43,-1,-1,-1,45,-1,-1,-1,-1,47,49,-1,51,53,55,-1,57,-1,59,-1,-1,-1,-1,-1,-1,-1,-1,-1,-1,-1,-1,-1,-1,-1,-1,-1,-1],"loss_changes":[2.8864227E2,3.1539589E1,3.2375684E2,6.0978546E0,2.9727674E1,3.7406006E1,0E0,2.0412292E0,9.78381E0,5.1303062E0,8.296828E0,2.167207E1,4.6891785E0,0E0,2.5497947E0,3.7286472E0,5.9112024E0,3.049593E-1,0E0,5.432721E0,1.7953373E1,7.460083E0,2.611477E0,1.17370605E-1,1.9202085E0,0E0,0E0,0E0,7.6474E0,0E0,0E0,0E0,0E0,1.5492802E0,4.6950736E0,0E0,8.483963E-1,9.97842E0,2.7384424E0,0E0,3.374364E0,0E0,1.4984131E-2,0E0,0E0,0E0,0E0,0E0,0E0,0E0,0E0,0E0,0E0,0E0,0E0,0E0,0E0,0E0,0E0,0E0,0E0],"parents":[2147483647,0,0,1,1,2,2,3,3,4,4,5,5,7,7,8,8,9,9,10,10,11,11,12,12,14,14,15,15,16,16,17,17,19,19,20,20,21,21,22,22,23,23,24,24,28,28,33,33,34,34,36,36,37,37,38,38,40,40,42,42],"right_children":[2,4,6,8,10,12,-1,14,16,18,20,22,24,-1,26,28,30,32,-1,34,36,38,40,42,44,-1,-1,-1,46,-1,-1,-1,-1,48,50,-1,52,54,56,-1,58,-1,60,-1,-1,-1,-1,-1,-1,-1,-1,-1,-1,-1,-1,-1,-1,-1,-1,-1,-1],"split_conditions":[4.5E1,1.28E2,7.244E-1,9E0,1.5162718E1,6.7E1,-3.6545392E-2,1.6875546E1,3.7E1,1.2E1,2.3E1,9E0,2E2,-3.6152296E-2,3E1,7.762116E0,7.0693946E0,8E0,6.6260085E-2,5E-4,2.396E-1,8.340564E0,1E-1,2.2E-1,1.5495849E1,-3.233646E-2,8.182661E-3,-3.5840094E-2,1.8E1,-2.6667494E-2,4.733834E-2,1.02606E-3,2.1554697E-2,1.0418682E1,1.1E1,-3.1457264E-2,3E1,2.417E-1,5.7E1,6.848227E-2,5.1E1,3.4295358E-2,7.1E1,4.257026E-2,-3.3814926E-3,-3.1658623E-2,5.4372758E-2,-3.655904E-2,-1.287803E-2,-1.6683126E-2,3.39132E-2,2.5627745E-2,6.144491E-2,-3.500996E-2,1.8323338E-2,1.5816389E-2,6.1328538E-2,3.688375E-3,5.8828443E-2,4.8730504E-2,7.11449E-2],"split_indices":[11,3,16,0,1,11,0,1,11,11,11,0,11,0,11,15,15,11,0,14,16,15,6,16,1,0,0,0,11,0,0,0,0,15,11,0,11,16,11,0,11,0,11,0,0,0,0,0,0,0,0,0,0,0,0,0,0,0,0,0,0],"split_type":[0,0,0,0,0,0,0,0,0,0,0,0,0,0,0,0,0,0,0,0,0,0,0,0,0,0,0,0,0,0,0,0,0,0,0,0,0,0,0,0,0,0,0,0,0,0,0,0,0,0,0,0,0,0,0,0,0,0,0,0,0],"sum_hessian":[8.878795E2,4.392701E2,4.4860944E2,3.2237436E2,1.16895744E2,3.2675677E2,1.2185266E2,2.7444473E2,4.7929615E1,2.2312325E1,9.458342E1,8.3452965E1,2.4330382E2,2.606773E2,1.3767443E1,3.7253304E1,1.067631E1,8.196364E0,1.411596E1,6.876071E1,2.5822706E1,4.854071E1,3.4912254E1,2.3518312E2,8.120697E0,7.514781E0,6.2526617E0,2.8263338E1,8.989966E0,3.067174E0,7.609136E0,3.6428285E0,4.5535355E0,4.976992E1,1.8990791E1,1.2684204E1,1.3138502E1,3.329642E1,1.5244288E1,2.4096214E1,1.0816039E1,3.6039224E0,2.3157921E2,4.979485E0,3.1412115E0,5.8422704E0,3.1476963E0,3.875426E1,1.1015657E1,1.3227787E1,5.763004E0,5.8158073E0,7.3226953E0,1.5164748E1,1.8131674E1,9.863135E0,5.3811526E0,5.8164277E0,4.999612E0,1.0874214E1,2.2070499E2],"tree_param":{"num_deleted":"0","num_feature":"18","num_nodes":"61","size_leaf_vector":"1"}},{"base_weights":[-1.101328E-3,4.7513655E-1,-4.8881507E-1,-5.85709E-1,7.181977E-1,-6.2325984E-1,1.0060565E0,5.8142047E-2,-3.4564584E-2,9.5007527E-1,7.04688E-2,-2.803949E-1,-6.703336E-1,6.1706044E-2,-0E0,1.0105227E0,-3.2718047E-2,-2.0168033E-1,1.0456554E0,5.247537E-2,-4.8670045E-1,-7.156007E-1,-4.3247697E-1,-2.6984094E-2,2.4354348E-2,6.395452E-2,6.1319363E-1,6.0024935E-1,-5.293729E-1,6.4764425E-2,-1.46192415E-2,-2.7352602E-3,-5.5220824E-1,-3.594509E-2,-1.3926019E-2,1.22068234E-1,-3.5381813E-2,-7.749247E-3,4.793172E-2,6.029823E-2,-6.801667E-3,-1.234164E-2,-3.5551157E-2,-1.856578E-2,-3.2433234E-2,5.0457217E-2,-3.2627102E-2],"categories":[],"categories_nodes":[],"categories_segments":[],"categories_sizes":[],"default_left":[0,0,0,0,0,0,0,0,0,0,0,0,0,0,0,0,0,0,0,0,0,0,0,0,0,0,0,0,0,0,0,0,0,0,0,0,0,0,0,0,0,0,0,0,0,0,0],"id":6,"left_children":[1,3,5,7,9,11,13,-1,-1,15,17,19,21,-1,23,25,-1,27,29,-1,31,33,35,-1,-1,-1,37,39,41,-1,-1,-1,43,-1,-1,45,-1,-1,-1,-1,-1,-1,-1,-1,-1,-1,-1],"loss_changes":[2.0270361E2,1.1426114E2,8.726286E1,1.603636E1,5.3853104E1,6.1141357E0,8.220791E0,0E0,0E0,2.6365753E1,2.5776398E1,1.4124517E1,3.3175964E0,0E0,2.2723968E0,2.6292328E1,0E0,2.0235529E1,7.5569057E0,0E0,1.1508942E0,1.1857605E-1,9.063044E0,0E0,0E0,0E0,2.812479E1,1.024988E1,2.5230837E0,0E0,0E0,0E0,3.165493E-1,0E0,0E0,1.451593E1,0E0,0E0,0E0,0E0,0E0,0E0,0E0,0E0,0E0,0E0,0E0],"parents":[2147483647,0,0,1,1,2,2,3,3,4,4,5,5,6,6,9,9,10,10,11,11,12,12,14,14,15,15,17,17,18,18,20,20,21,21,22,22,26,26,27,27,28,28,32,32,35,35],"right_children":[2,4,6,8,10,12,14,-1,-1,16,18,20,22,-1,24,26,-1,28,30,-1,32,34,36,-1,-1,-1,38,40,42,-1,-1,-1,44,-1,-1,46,-1,-1,-1,-1,-1,-1,-1,-1,-1,-1,-1],"split_conditions":[4.3E1,7.8244457E0,9.927253E0,3E0,3.0445225E0,5.2E1,9.8E1,5.8142047E-2,-3.4564584E-2,2E0,5E-1,3.713572E0,1E-3,6.1706044E-2,5E-4,2.4E1,-3.2718047E-2,1.3E1,3.3E1,5.247537E-2,5E0,1.99E2,8.5E1,-2.6984094E-2,2.4354348E-2,6.395452E-2,7.848153E0,7.238702E0,7E0,6.4764425E-2,-1.46192415E-2,-2.7352602E-3,7.758171E0,-3.594509E-2,-1.3926019E-2,5E0,-3.5381813E-2,-7.749247E-3,4.793172E-2,6.029823E-2,-6.801667E-3,-1.234164E-2,-3.5551157E-2,-1.856578E-2,-3.2433234E-2,5.0457217E-2,-3.2627102E-2],"split_indices":[11,8,8,11,9,11,11,0,0,7,6,15,14,0,14,11,0,11,11,0,0,11,11,0,0,0,8,15,0,0,0,0,15,0,0,0,0,0,0,0,0,0,0,0,0,0,0],"split_type":[0,0,0,0,0,0,0,0,0,0,0,0,0,0,0,0,0,0,0,0,0,0,0,0,0,0,0,0,0,0,0,0,0,0,0,0,0,0,0,0,0,0,0,0,0,0,0],"sum_hessian":[8.7070935E2,4.404469E2,4.3026248E2,8.1764206E1,3.586827E2,3.9535526E2,3.4907227E1,4.031873E0,7.773233E1,2.636711E2,9.5011604E1,4.8823936E1,3.465313E2,2.8259813E1,6.6474123E0,2.5451471E2,9.156391E0,7.482152E1,2.0190088E1,5.9428463E0,4.2881092E1,2.8908575E2,5.7445564E1,3.088054E0,3.5593581E0,1.5039021E2,1.041245E2,2.1375195E1,5.344632E1,1.7105473E1,3.0846152E0,6.088928E0,3.6792164E1,2.8605173E2,3.0340126E0,1.9114964E1,3.83306E1,3.2380272E1,7.1744225E1,1.1451958E1,9.923236E0,2.20535E1,3.1392822E1,1.4842707E1,2.1949455E1,8.829653E0,1.0285311E1],"tree_param":{"num_deleted":"0","num_feature":"18","num_nodes":"47","size_leaf_vector":"1"}},{"base_weights":[-9.372593E-2,2.2599727E-2,-5.5106354E-1,-1.1516396E-1,7.0597285E-1,-3.7383333E-1,-6.624946E-1,1.3645412E-1,-7.054758E-1,-6.474958E-1,1.1350482E0,-5.2694973E-2,-5.95149E-1,-4.397478E-1,-3.5261318E-2,-2.100307E-2,8.215585E-1,-2.6665285E-1,-3.6090314E-2,-3.5306334E-2,-1.5826456E-2,4.0481764E-1,6.5735914E-2,-4.5544544E-1,7.569242E-1,-6.8293524E-1,-8.7183854E-4,-3.3562288E-2,1.2099498E-2,-2.0929037E-1,1.8916103E-1,-3.186343E-2,9.710592E-1,7.4395887E-3,-2.8727088E-2,6.0757365E-2,-3.2551613E-2,-3.0677138E-2,-0E0,5.621139E-3,5.9948828E-2,-1.4314656E-2,-3.5397563E-2,-1.7870784E-2,3.0290255E-2,-1.7000237E-2,1.6208813E-2,5.8374166E-2,1.7901417E-2],"categories":[],"categories_nodes":[],"categories_segments":[],"categories_sizes":[],"default_left":[0,0,0,0,0,0,0,0,0,0,0,0,0,0,0,0,0,0,0,0,0,0,0,0,0,0,0,0,0,0,0,0,0,0,0,0,0,0,0,0,0,0,0,0,0,0,0,0,0],"id":7,"left_children":[1,3,5,7,9,11,13,15,17,19,21,23,25,27,-1,29,31,33,-1,-1,-1,35,-1,37,39,41,-1,-1,-1,43,45,-1,47,-1,-1,-1,-1,-1,-1,-1,-1,-1,-1,-1,-1,-1,-1,-1,-1],"loss_changes":[4.6578102E1,6.5833855E1,3.1541672E0,8.6519966E1,6.892361E1,4.9615326E0,5.9708405E-1,4.4154182E1,9.560089E-1,2.3354721E-1,1.1039467E1,1.0199463E1,2.0403337E0,3.410802E0,0E0,1.3216512E1,1.7329239E1,1.1578162E0,0E0,0E0,0E0,1.7299906E1,0E0,1.55373E0,2.6867442E0,5.659485E-2,0E0,0E0,0E0,2.14819E1,1.1368802E1,0E0,7.836418E0,0E0,0E0,0E0,0E0,0E0,0E0,0E0,0E0,0E0,0E0,0E0,0E0,0E0,0E0,0E0,0E0],"parents":[2147483647,0,0,1,1,2,2,3,3,4,4,5,5,6,6,7,7,8,8,9,9,10,10,11,11,12,12,13,13,15,15,16,16,17,17,21,21,23,23,24,24,25,25,29,29,30,30,32,32],"right_children":[2,4,6,8,10,12,14,16,18,20,22,24,26,28,-1,30,32,34,-1,-1,-1,36,-1,38,40,42,-1,-1,-1,44,46,-1,48,-1,-1,-1,-1,-1,-1,-1,-1,-1,-1,-1,-1,-1,-1,-1,-1],"split_conditions":[8.541105E0,7.244E-1,2.396E-1,6.8E1,5.4E1,5E1,2E1,4E-1,7.1E1,4.6E1,8.6E1,3.2E1,1.51E2,9E0,-3.5261318E-2,2.4E1,2E0,1E2,-3.6090314E-2,-3.5306334E-2,-1.5826456E-2,1.0819798E1,6.5735914E-2,2.9E1,7E0,1E-1,-8.7183854E-4,-3.3562288E-2,1.2099498E-2,1.6876635E1,1E-2,-3.186343E-2,4.1E1,7.4395887E-3,-2.8727088E-2,6.0757365E-2,-3.2551613E-2,-3.0677138E-2,-0E0,5.621139E-3,5.9948828E-2,-1.4314656E-2,-3.5397563E-2,-1.7870784E-2,3.0290255E-2,-1.7000237E-2,1.6208813E-2,5.8374166E-2,1.7901417E-2],"split_indices":[8,16,16,11,11,11,11,16,11,11,11,11,11,0,0,11,2,13,0,0,0,1,0,11,0,6,0,0,0,1,12,0,11,0,0,0,0,0,0,0,0,0,0,0,0,0,0,0,0],"split_type":[0,0,0,0,0,0,0,0,0,0,0,0,0,0,0,0,0,0,0,0,0,0,0,0,0,0,0,0,0,0,0,0,0,0,0,0,0,0,0,0,0,0,0,0,0,0,0,0,0],"sum_hessian":[8.732992E2,6.967978E2,1.7650137E2,5.804649E2,1.163329E2,7.01618E1,1.0633958E2,4.074082E2,1.7305669E2,2.7823807E1,8.8509094E1,2.9314768E1,4.0847027E1,1.9310629E1,8.7028946E1,3.3194162E2,7.54666E1,7.0505657E0,1.6600613E2,2.241696E1,5.406847E0,1.8229374E1,7.027972E1,1.9950987E1,9.36378E0,3.5150497E1,5.6965294E0,1.4536528E1,4.7741003E0,1.7533653E2,1.5660509E2,6.649481E0,6.8817116E1,3.0827937E0,3.9677722E0,1.0282068E1,7.947306E0,1.4672319E1,5.278668E0,4.4118905E0,4.9518895E0,3.0608537E0,3.208964E1,1.4895203E2,2.6384499E1,3.1375605E1,1.25229485E2,5.130929E1,1.7507826E1],"tree_param":{"num_deleted":"0","num_feature":"18","num_nodes":"49","size_leaf_vector":"1"}},{"base_weights":[8.348957E-2,-4.699478E-1,6.05635E-1,1.0386405E0,-5.626942E-1,1.0819246E0,-3.5913553E-2,4.3976286E-1,6.38737E-2,-6.5546703E-1,-2.5326145E-1,4.8374075E-1,1.25609E0,5.252682E-2,-4.060696E-3,-7.0368296E-1,-1.5559661E-1,-3.583875E-2,1.503709E-1,2.89558E-4,1.1442894E0,1.2792056E0,4.4274914E-1,-3.5837978E-2,-4.162414E-1,-3.9573467E-1,3.339201E-1,-4.9200162E-1,8.6568624E-1,2.9567248E-1,-5.7213855E-1,6.465726E-2,6.474039E-1,8.866858E-1,1.316481E0,-4.1918014E-3,3.8786866E-2,-2.8624827E-2,2.065579E-3,-3.0215103E-2,2.1678836E-3,5.98371E-2,-2.9230446E-2,-3.0752784E-2,3.0159538E-3,5.6892302E-2,5.223121E-3,-3.21381E-2,2.7405579E-2,-3.4130692E-2,-3.9157574E-3,4.8832227E-3,5.4158427E-2,5.660802E-2,6.6965157E-3,3.310671E-2,6.619E-2],"categories":[],"categories_nodes":[],"categories_segments":[],"categories_sizes":[],"default_left":[0,0,0,0,0,0,0,0,0,0,0,0,0,0,0,0,0,0,0,0,0,0,0,0,0,0,0,0,0,0,0,0,0,0,0,0,0,0,0,0,0,0,0,0,0,0,0,0,0,0,0,0,0,0,0,0,0],"id":8,"left_children":[1,3,5,7,9,11,-1,13,-1,15,17,19,21,-1,-1,23,25,-1,27,29,31,33,35,-1,37,39,41,43,45,47,49,-1,51,53,55,-1,-1,-1,-1,-1,-1,-1,-1,-1,-1,-1,-1,-1,-1,-1,-1,-1,-1,-1,-1,-1,-1],"loss_changes":[2.5449208E2,6.0350235E1,2.865503E2,2.849249E0,1.1324821E1,3.398517E1,0E0,2.9778695E0,0E0,7.264267E0,1.7926146E1,2.4476994E1,4.106415E0,0E0,0E0,6.4764404E-1,3.5113807E0,0E0,2.4108126E1,7.843694E0,1.3693047E0,2.2691956E0,1.6720905E0,0E0,1.1478066E0,1.8997376E0,8.56638E0,1.973527E0,4.891243E0,7.644411E0,7.28621E-1,0E0,2.0852323E0,4.336113E0,7.0495605E-3,0E0,0E0,0E0,0E0,0E0,0E0,0E0,0E0,0E0,0E0,0E0,0E0,0E0,0E0,0E0,0E0,0E0,0E0,0E0,0E0,0E0,0E0],"parents":[2147483647,0,0,1,1,2,2,3,3,4,4,5,5,7,7,9,9,10,10,11,11,12,12,15,15,16,16,18,18,19,19,20,20,21,21,22,22,24,24,25,25,26,26,27,27,28,28,29,29,30,30,32,32,33,33,34,34],"right_children":[2,4,6,8,10,12,-1,14,-1,16,18,20,22,-1,-1,24,26,-1,28,30,32,34,36,-1,38,40,42,44,46,48,50,-1,52,54,56,-1,-1,-1,-1,-1,-1,-1,-1,-1,-1,-1,-1,-1,-1,-1,-1,-1,-1,-1,-1,-1,-1],"split_conditions":[4.4E1,3E0,7.244E-1,1.2E1,3.0445225E0,6.4E1,-3.5913553E-2,1.4899273E1,6.38737E-2,1.0419797E1,2E1,1.1E1,2E2,5.252682E-2,-4.060696E-3,4.1E1,1.3E1,-3.583875E-2,1.1E1,7E0,1E-1,7.1E1,3.4339871E0,-3.5837978E-2,9E0,1.8019531E1,1.609438E0,5E-4,1E-1,1.0819798E1,3.0445225E0,6.465726E-2,5.1E1,5E-1,2.2E-1,-4.1918014E-3,3.8786866E-2,-2.8624827E-2,2.065579E-3,-3.0215103E-2,2.1678836E-3,5.98371E-2,-2.9230446E-2,-3.0752784E-2,3.0159538E-3,5.6892302E-2,5.223121E-3,-3.21381E-2,2.7405579E-2,-3.4130692E-2,-3.9157574E-3,4.8832227E-3,5.4158427E-2,5.660802E-2,6.6965157E-3,3.310671E-2,6.619E-2],"split_indices":[11,2,16,11,9,11,0,1,0,15,11,0,11,0,0,11,11,0,0,0,6,11,9,0,0,1,9,14,6,1,9,0,11,6,16,0,0,0,0,0,0,0,0,0,0,0,0,0,0,0,0,0,0,0,0,0,0],"split_type":[0,0,0,0,0,0,0,0,0,0,0,0,0,0,0,0,0,0,0,0,0,0,0,0,0,0,0,0,0,0,0,0,0,0,0,0,0,0,0,0,0,0,0,0,0,0,0,0,0,0,0,0,0,0,0,0,0],"sum_hessian":[8.7864044E2,4.2649463E2,4.5214578E2,2.4048653E1,4.0244598E2,3.327086E2,1.1943721E2,7.7857614E0,1.6262892E1,3.085087E2,9.393728E1,7.6007416E1,2.5670117E2,3.2044535E0,4.581308E0,2.8081445E2,2.769426E1,4.34794E1,5.045788E1,4.455196E1,3.145546E1,2.4893074E2,7.7704334E0,2.6683383E2,1.3980597E1,1.884533E1,8.848928E0,2.6675209E1,2.378267E1,2.9821642E1,1.4730317E1,2.2816408E1,8.639051E0,2.3971825E1,2.2495891E2,3.183689E0,4.5867443E0,1.0397257E1,3.58334E0,1.2675838E1,6.1694913E0,4.462785E0,4.386144E0,2.1870132E1,4.8050766E0,1.705786E1,6.7248096E0,5.9098E0,2.391184E1,1.155949E1,3.170827E0,4.462713E0,4.176338E0,1.759666E1,6.3751626E0,3.65125E0,2.2130766E2],"tree_param":{"num_deleted":"0","num_feature":"18","num_nodes":"57","size_leaf_vector":"1"}},{"base_weights":[-6.1300932E-3,4.3993777E-1,-4.5331037E-1,-5.923042E-1,6.641287E-1,-5.875102E-1,5.724745E-2,5.497525E-2,-3.4592267E-2,9.413196E-1,2.9436806E-1,-6.7275554E-1,-2.0794019E-1,9.9235445E-1,-3.0470908E-2,-5.2422393E-2,6.171247E-2,1.1445852E-3,-6.870092E-1,2.5941595E-1,-6.4530784E-1,5.956731E-2,7.144399E-1,2.6558316E-1,-5.1062715E-1,-2.7120415E-2,3.0456245E-2,-5.086637E-1,-3.5525125E-2,1.1309352E0,-3.365812E-2,-3.4658547E-2,-1.8007605E-3,4.9529858E-2,-1.2859899E-2,3.821936E-2,-9.610401E-3,-1.1550734E-2,-3.47787E-2,5.618179E-4,-3.4538493E-2,6.045195E-2,2.7255395E-2],"categories":[],"categories_nodes":[],"categories_segments":[],"categories_sizes":[],"default_left":[0,0,0,0,0,0,0,0,0,0,0,0,0,0,0,0,0,0,0,0,0,0,0,0,0,0,0,0,0,0,0,0,0,0,0,0,0,0,0,0,0,0,0],"id":9,"left_children":[1,3,5,7,9,11,-1,-1,-1,13,15,17,19,21,-1,23,-1,25,27,29,31,-1,33,35,37,-1,-1,39,-1,41,-1,-1,-1,-1,-1,-1,-1,-1,-1,-1,-1,-1,-1],"loss_changes":[1.7219554E2,1.00386604E2,9.310145E1,1.3778446E1,3.6037415E1,1.2666412E1,0E0,0E0,0E0,1.6675705E1,5.035568E1,3.1889038E0,1.5484847E1,9.829102E0,0E0,1.667286E1,0E0,2.8419552E0,8.4980774E-1,3.066596E1,1.0397453E0,0E0,2.3062637E1,1.560068E1,2.1719627E0,0E0,0E0,3.9622602E0,0E0,5.405426E-2,0E0,0E0,0E0,0E0,0E0,0E0,0E0,0E0,0E0,0E0,0E0,0E0,0E0],"parents":[2147483647,0,0,1,1,2,2,3,3,4,4,5,5,9,9,10,10,11,11,12,12,13,13,15,15,17,17,18,18,19,19,20,20,22,22,23,23,24,24,27,27,29,29],"right_children":[2,4,6,8,10,12,-1,-1,-1,14,16,18,20,22,-1,24,-1,26,28,30,32,-1,34,36,38,-1,-1,40,-1,42,-1,-1,-1,-1,-1,-1,-1,-1,-1,-1,-1,-1,-1],"split_conditions":[4.3E1,7.8244457E0,7.339E-1,3E0,2.3E1,5E-4,5.724745E-2,5.497525E-2,-3.4592267E-2,2E0,2.8E-1,1.5E-1,8.7E1,1.269E-1,-3.0470908E-2,9.51E-2,6.171247E-2,2.5E-1,5.2E1,1.5585736E1,1.94E2,5.956731E-2,7.758171E0,7.0693946E0,1.2E1,-2.7120415E-2,3.0456245E-2,1.5410756E1,-3.5525125E-2,7.9E1,-3.365812E-2,-3.4658547E-2,-1.8007605E-3,4.9529858E-2,-1.2859899E-2,3.821936E-2,-9.610401E-3,-1.1550734E-2,-3.47787E-2,5.618179E-4,-3.4538493E-2,6.045195E-2,2.7255395E-2],"split_indices":[11,8,16,11,11,14,0,0,0,7,17,16,11,17,0,17,0,17,11,1,11,0,15,15,2,0,0,1,0,11,0,0,0,0,0,0,0,0,0,0,0,0,0],"split_type":[0,0,0,0,0,0,0,0,0,0,0,0,0,0,0,0,0,0,0,0,0,0,0,0,0,0,0,0,0,0,0,0,0,0,0,0,0,0,0,0,0,0,0],"sum_hessian":[8.612469E2,4.3105588E2,4.30191E2,7.654264E1,3.5451324E2,3.9750867E2,3.2682343E1,3.6392496E0,7.290339E1,2.0158153E2,1.529317E2,3.2376126E2,7.374742E1,1.9556987E2,6.011653E0,1.12324776E2,4.0606934E1,6.5797915E0,3.1718146E2,3.5737633E1,3.8009785E1,1.1184227E2,8.372761E1,6.6425766E1,4.5899006E1,3.4440653E0,3.135726E0,4.0050594E1,2.771309E2,1.8419062E1,1.7318571E1,3.4961582E1,3.0482032E0,6.526228E1,1.8465324E1,3.1572956E1,3.4852814E1,1.9383612E1,2.6515392E1,1.0490402E1,2.9560192E1,1.5162986E1,3.2560768E0],"tree_param":{"num_deleted":"0","num_feature":"18","num_nodes":"43","size_leaf_vector":"1"}},{"base_weights":[-9.4605766E-2,1.00476E-2,-5.176615E-1,-1.19607724E-1,6.354388E-1,-3.390553E-1,-6.3776183E-1,1.1164239E-1,-6.9198775E-1,-2.4662256E-1,6.1760165E-2,-1.1517075E-2,-5.811928E-1,-4.478151E-1,-3.3953212E-2,-3.128671E-2,7.7347976E-1,-1.4605569E-2,-3.5138E-2,-3.3375736E-2,2.7574095E-1,-2.5422361E-1,5.7225235E-2,-6.7018455E-1,-0E0,-3.3368666E-2,1.5563274E-2,-2.1773408E-1,2.8475958E-1,-3.0991232E-2,9.121109E-1,5.7522684E-2,-2.9190866E-2,2.4807417E-1,-3.3478275E-2,-1.3902626E-2,-3.47588E-2,-1.6587434E-2,7.7034347E-3,1.5018255E-3,2.7343223E-2,5.696515E-2,8.308063E-3,-3.0047465E-2,5.421677E-2],"categories":[],"categories_nodes":[],"categories_segments":[],"categories_sizes":[],"default_left":[0,0,0,0,0,0,0,0,0,0,0,0,0,0,0,0,0,0,0,0,0,0,0,0,0,0,0,0,0,0,0,0,0,0,0,0,0,0,0,0,0,0,0,0,0],"id":10,"left_children":[1,3,5,7,9,11,13,15,17,19,-1,21,23,25,-1,27,29,-1,-1,-1,31,33,-1,35,-1,-1,-1,37,39,-1,41,-1,-1,43,-1,-1,-1,-1,-1,-1,-1,-1,-1,-1,-1],"loss_changes":[3.8152615E1,5.612644E1,3.3510132E0,7.594408E1,6.329572E1,5.5780573E0,3.7314987E-1,3.8756195E1,4.0628815E-1,1.0970671E1,0E0,9.024283E0,2.1682787E0,3.8020148E0,0E0,1.990863E1,1.46452675E1,0E0,0E0,0E0,1.7580658E1,5.815586E0,0E0,5.6807518E-2,0E0,0E0,0E0,9.084301E0,8.287855E0,0E0,1.0972187E1,0E0,0E0,9.7780905E0,0E0,0E0,0E0,0E0,0E0,0E0,0E0,0E0,0E0,0E0,0E0],"parents":[2147483647,0,0,1,1,2,2,3,3,4,4,5,5,6,6,7,7,8,8,9,9,11,11,12,12,13,13,15,15,16,16,20,20,21,21,23,23,27,27,28,28,30,30,33,33],"right_children":[2,4,6,8,10,12,14,16,18,20,-1,22,24,26,-1,28,30,-1,-1,-1,32,34,-1,36,-1,-1,-1,38,40,-1,42,-1,-1,44,-1,-1,-1,-1,-1,-1,-1,-1,-1,-1,-1],"split_conditions":[8.541105E0,7.244E-1,2.396E-1,6.6E1,8.7E1,4.8E1,2.1E1,4E-1,6.8E1,5.2E1,6.1760165E-2,4.2E1,1.51E2,9E0,-3.3953212E-2,7.9446588E0,2E0,-1.4605569E-2,-3.5138E-2,-3.3375736E-2,1.0819798E1,1.6E1,5.7225235E-2,7E0,-0E0,-3.3368666E-2,1.5563274E-2,2.418E-1,2.8E1,-3.0991232E-2,4.1E1,5.7522684E-2,-2.9190866E-2,2.5E1,-3.3478275E-2,-1.3902626E-2,-3.47588E-2,-1.6587434E-2,7.7034347E-3,1.5018255E-3,2.7343223E-2,5.696515E-2,8.308063E-3,-3.0047465E-2,5.421677E-2],"split_indices":[8,16,16,11,11,11,11,16,11,11,0,11,11,0,0,15,2,0,0,0,1,2,0,0,0,0,0,16,11,0,11,0,0,11,0,0,0,0,0,0,0,0,0,0,0],"split_type":[0,0,0,0,0,0,0,0,0,0,0,0,0,0,0,0,0,0,0,0,0,0,0,0,0,0,0,0,0,0,0,0,0,0,0,0,0,0,0,0,0,0,0,0,0],"sum_hessian":[8.594705E2,6.896166E2,1.6985394E2,5.717342E2,1.1788238E2,7.0164734E1,9.96892E1,4.0766263E2,1.6407158E2,4.788336E1,6.9999016E1,3.0443932E1,3.9720806E1,2.0352592E1,7.933661E1,3.359197E2,7.174293E1,5.2850637E0,1.5878651E2,2.6469357E1,2.1414005E1,2.5877539E1,4.5663934E0,3.4451965E1,5.268838E0,1.5982367E1,4.3702245E0,2.116733E2,1.24246414E2,6.112927E0,6.563E1,1.050337E1,1.0910635E1,1.1785992E1,1.4091547E1,3.0303903E0,3.1421577E1,1.6228479E2,4.93885E1,6.3769257E1,6.0477158E1,4.9800888E1,1.5829107E1,5.9286594E0,5.8573318E0],"tree_param":{"num_deleted":"0","num_feature":"18","num_nodes":"45","size_leaf_vector":"1"}},{"base_weights":[9.937323E-2,-1.09298214E-1,8.843097E-1,-2.9462016E-1,7.97826E-1,9.8485756E-1,5.7748395E-1,-6.6249967E-1,1.8723289E-2,3.467961E-2,4.494522E-2,3.984447E-2,5.3112973E-2,1.6423647E-3,3.0938853E-2,-3.215746E-1,-3.5254765E-2,9.0705824E-1,-5.2509695E-2,4.3669414E-2,-3.3895977E-2,5.10171E-2,3.0229628E-2,1.0402639E-1,-5.4114586E-1,-1.6919766E-2,8.387769E-3,-1.3902006E-2,-3.384716E-2],"categories":[],"categories_nodes":[],"categories_segments":[],"categories_sizes":[],"default_left":[0,0,0,0,0,0,0,0,0,0,0,0,0,0,0,0,0,0,0,0,0,0,0,0,0,0,0,0,0],"id":11,"left_children":[1,3,5,7,9,11,13,15,17,-1,-1,-1,-1,-1,-1,19,-1,21,23,-1,-1,-1,-1,25,27,-1,-1,-1,-1],"loss_changes":[1.4263602E2,1.1582598E2,4.916794E0,6.60149E1,4.486084E-1,9.4732666E-1,9.895172E-1,3.4940262E0,1.9732536E1,0E0,0E0,0E0,0E0,0E0,0E0,1.3918182E1,0E0,1.3896942E-2,2.2096785E1,0E0,0E0,0E0,0E0,6.2000284E0,2.2205696E0,0E0,0E0,0E0,0E0],"parents":[2147483647,0,0,1,1,2,2,3,3,4,4,5,5,6,6,7,7,8,8,15,15,17,17,18,18,23,23,24,24],"right_children":[2,4,6,8,10,12,14,16,18,-1,-1,-1,-1,-1,-1,20,-1,22,24,-1,-1,-1,-1,26,28,-1,-1,-1,-1],"split_conditions":[4E0,1.1024E0,1E-1,5E0,1.0819798E1,8.99E-2,1.1E1,1.28E2,3E0,3.467961E-2,4.494522E-2,3.984447E-2,5.3112973E-2,1.6423647E-3,3.0938853E-2,6.2905946E0,-3.5254765E-2,1.506315E1,1.8E-1,4.3669414E-2,-3.3895977E-2,5.10171E-2,3.0229628E-2,1.5585736E1,7.3783836E0,-1.6919766E-2,8.387769E-3,-1.3902006E-2,-3.384716E-2],"split_indices":[5,17,6,0,1,17,0,13,2,0,0,0,0,0,0,15,0,1,17,0,0,0,0,1,8,0,0,0,0],"split_type":[0,0,0,0,0,0,0,0,0,0,0,0,0,0,0,0,0,0,0,0,0,0,0,0,0,0,0,0,0],"sum_hessian":[8.6876337E2,6.868903E2,1.8187302E2,5.7101886E2,1.1587147E2,1.3507327E2,4.679974E1,2.622869E2,3.0873196E2,6.140295E1,5.446852E1,4.3068977E1,9.2004295E1,3.5953887E0,4.320435E1,3.0341118E1,2.3194577E2,2.2151712E1,2.8658026E2,6.571783E0,2.3769333E1,1.4148561E1,8.003152E0,2.1748933E2,6.909092E1,2.664366E1,1.9084567E2,2.480853E1,4.4282387E1],"tree_param":{"num_deleted":"0","num_feature":"18","num_nodes":"29","size_leaf_vector":"1"}},{"base_weights":[-2.4039766E-2,4.7007185E-1,-4.168855E-1,-5.8799314E-1,7.223723E-1,-5.5039954E-1,9.6898466E-1,2.3030916E-2,-6.633092E-1,8.7299496E-1,1.9152354E-1,-6.350524E-1,-1.7447431E-1,5.574138E-2,2.0219916E-3,-3.4909984E-1,-3.4550574E-2,9.3427205E-1,-3.1880222E-2,7.3176974E-1,-3.5058665E-1,-3.7327957E-1,-3.4567427E-2,2.8225198E-1,-6.6153467E-1,-2.5315653E-3,-2.6374463E-2,1.073317E0,6.226232E-1,5.6916874E-2,-1.2054277E-1,3.3216798E-1,-3.4553964E-2,4.9156286E-3,-3.3584397E-2,5.725049E-2,-3.364879E-2,-3.416528E-2,-1.5241194E-2,4.6453502E-2,6.0136613E-2,1.117886E-3,4.419791E-2,-3.144819E-2,2.0994354E-2,-2.800788E-2,3.8244862E-2,-3.2955367E-2,3.2732334E-2],"categories":[],"categories_nodes":[],"categories_segments":[],"categories_sizes":[],"default_left":[0,0,0,0,0,0,0,0,0,0,0,0,0,0,0,0,0,0,0,0,0,0,0,0,0,0,0,0,0,0,0,0,0,0,0,0,0,0,0,0,0,0,0,0,0,0,0,0,0],"id":12,"left_children":[1,3,5,7,9,11,13,-1,15,17,19,21,23,-1,-1,25,-1,27,-1,29,31,33,-1,35,37,-1,-1,39,41,-1,43,45,-1,47,-1,-1,-1,-1,-1,-1,-1,-1,-1,-1,-1,-1,-1,-1,-1],"loss_changes":[1.6762997E2,1.0252414E2,8.952687E1,6.1784954E0,2.4458084E1,1.3797882E1,5.6056595E0,0E0,2.6091576E-1,2.2888794E1,2.0735186E1,4.914383E0,1.8553518E1,0E0,0E0,3.3907402E-1,0E0,9.198517E0,0E0,1.2496532E1,8.499676E0,7.5060024E0,0E0,3.6351135E1,5.6934357E-3,0E0,0E0,1.6291962E0,1.1507107E1,0E0,3.6505694E0,5.223097E0,0E0,1.3332962E1,0E0,0E0,0E0,0E0,0E0,0E0,0E0,0E0,0E0,0E0,0E0,0E0,0E0,0E0,0E0],"parents":[2147483647,0,0,1,1,2,2,3,3,4,4,5,5,6,6,8,8,9,9,10,10,11,11,12,12,15,15,17,17,19,19,20,20,21,21,23,23,24,24,27,27,28,28,30,30,31,31,33,33],"right_children":[2,4,6,8,10,12,14,-1,16,18,20,22,24,-1,-1,26,-1,28,-1,30,32,34,-1,36,38,-1,-1,40,42,-1,44,46,-1,48,-1,-1,-1,-1,-1,-1,-1,-1,-1,-1,-1,-1,-1,-1,-1],"split_conditions":[3.5E1,7.8244457E0,2.56E2,5E0,1.1E1,5E-4,1.3710151E1,2.3030916E-2,1.0819798E1,2E0,9.51E-2,5E1,8.7E1,5.574138E-2,2.0219916E-3,1.7E1,-3.4550574E-2,2.3E1,-3.1880222E-2,2.4E1,1.3E1,7E0,-3.4567427E-2,1.5585736E1,1.92E2,-2.5315653E-3,-2.6374463E-2,3E0,7.848153E0,5.6916874E-2,1E-1,7.848153E0,-3.4553964E-2,7.848153E0,-3.3584397E-2,5.725049E-2,-3.364879E-2,-3.416528E-2,-1.5241194E-2,4.6453502E-2,6.0136613E-2,1.117886E-3,4.419791E-2,-3.144819E-2,2.0994354E-2,-2.800788E-2,3.8244862E-2,-3.2955367E-2,3.2732334E-2],"split_indices":[11,8,13,11,0,14,1,0,1,7,17,11,11,0,0,11,0,11,0,11,11,0,0,1,11,0,0,0,8,0,6,8,0,8,0,0,0,0,0,0,0,0,0,0,0,0,0,0,0],"split_type":[0,0,0,0,0,0,0,0,0,0,0,0,0,0,0,0,0,0,0,0,0,0,0,0,0,0,0,0,0,0,0,0,0,0,0,0,0,0,0,0,0,0,0,0,0,0,0,0,0],"sum_hessian":[8.616018E2,3.814156E2,4.8018622E2,7.310604E1,3.0830954E2,4.3860614E2,4.158009E1,4.4671555E0,6.8638885E1,2.3951643E2,6.879312E1,3.572119E2,8.139423E1,3.5669334E1,5.910757E0,6.9557595E0,6.168313E1,2.3060953E2,8.9068985E0,3.437296E1,3.4420162E1,6.4889114E1,2.9232278E2,4.2116207E1,3.927803E1,3.2920797E0,3.6636796E0,1.5755156E2,7.305797E1,2.3124104E1,1.1248856E1,1.13639555E1,2.3056208E1,2.890459E1,3.5984524E1,2.2079819E1,2.0036388E1,3.589157E1,3.3864598E0,7.873958E1,7.881198E1,2.2604788E1,5.0453182E1,5.8070064E0,5.4418497E0,3.539542E0,7.8244133E0,1.4211819E1,1.4692771E1],"tree_param":{"num_deleted":"0","num_feature":"18","num_nodes":"49","size_leaf_vector":"1"}},{"base_weights":[-8.3719864E-2,-3.1200382E-1,1.20166585E-1,-5.348536E-1,-1.6915908E-1,2.3006703E-1,-6.1007804E-1,-2.0711087E-1,-5.7910204E-1,-2.8631702E-2,-4.3406057E-1,6.634007E-2,5.975791E-1,-3.326164E-2,-1.7883917E-2,3.6724843E-2,-3.1180188E-2,-3.5332818E-2,-2.32163E-2,3.0641539E-2,-3.2878503E-2,-2.5759924E-2,-1.7039416E-2,-9.9544086E-2,7.712775E-1,3.484738E-2,2.4193501E-2,3.760786E-3,-0E0,3.103642E-1,-1.924754E-2,5.1251687E-2,-1.3173448E-1,5.1503133E-2,5.719204E-1,2.0768931E-2,1.1487021E-2,8.0438063E-4,-5.937755E-3,-1.287971E-2,6.8274178E-3,1.5377365E-2,4.1908506E-2],"categories":[],"categories_nodes":[],"categories_segments":[],"categories_sizes":[],"default_left":[0,0,0,0,0,0,0,0,0,0,0,0,0,0,0,0,0,0,0,0,0,0,0,0,0,0,0,0,0,0,0,0,0,0,0,0,0,0,0,0,0,0,0],"id":13,"left_children":[1,3,5,7,9,11,13,15,17,19,21,23,25,-1,-1,27,-1,-1,-1,29,-1,-1,-1,31,33,-1,-1,-1,-1,35,37,-1,39,-1,41,-1,-1,-1,-1,-1,-1,-1,-1],"loss_changes":[4.0372875E1,1.2863789E1,3.686183E1,2.1085205E0,9.287664E0,2.3900446E1,4.96027E-1,2.1887622E0,1.5947037E0,6.247475E0,3.9502525E-1,3.257306E1,9.304924E-1,0E0,0E0,2.0906052E-2,0E0,0E0,0E0,2.1553092E0,0E0,0E0,0E0,8.200354E0,1.9878864E0,0E0,0E0,0E0,0E0,3.7820816E-2,4.6777445E-1,0E0,7.47468E0,0E0,1.910779E0,0E0,0E0,0E0,0E0,0E0,0E0,0E0,0E0],"parents":[2147483647,0,0,1,1,2,2,3,3,4,4,5,5,6,6,7,7,8,8,9,9,10,10,11,11,12,12,15,15,19,19,23,23,24,24,29,29,30,30,32,32,34,34],"right_children":[2,4,6,8,10,12,14,16,18,20,22,24,26,-1,-1,28,-1,-1,-1,30,-1,-1,-1,32,34,-1,-1,-1,-1,36,38,-1,40,-1,42,-1,-1,-1,-1,-1,-1,-1,-1],"split_conditions":[1.312E-1,7.339321E0,2.56E2,7.848153E0,1.6876635E1,7.244E-1,5E0,1E-1,1.28E2,5E1,1E-1,7.9314895E0,1.0819798E1,-3.326164E-2,-1.7883917E-2,1E0,-3.1180188E-2,-3.5332818E-2,-2.32163E-2,1.5585736E1,-3.2878503E-2,-2.5759924E-2,-1.7039416E-2,1E-3,1.0419797E1,3.484738E-2,2.4193501E-2,3.760786E-3,-0E0,2E0,1E-4,5.1251687E-2,4.6151204E0,5.1503133E-2,4E-1,2.0768931E-2,1.1487021E-2,8.0438063E-4,-5.937755E-3,-1.287971E-2,6.8274178E-3,1.5377365E-2,4.1908506E-2],"split_indices":[17,15,13,8,1,16,0,6,3,2,6,15,1,0,0,0,0,0,0,1,0,0,0,12,15,0,0,0,0,0,14,0,9,0,16,0,0,0,0,0,0,0,0],"split_type":[0,0,0,0,0,0,0,0,0,0,0,0,0,0,0,0,0,0,0,0,0,0,0,0,0,0,0,0,0,0,0,0,0,0,0,0,0,0,0,0,0,0,0],"sum_hessian":[8.651953E2,4.0815726E2,4.5703806E2,1.580858E2,2.5007144E2,3.979667E2,5.907135E1,1.9748907E1,1.383369E2,1.6436382E2,8.570764E1,2.7631897E2,1.21647736E2,4.6810432E1,1.2260919E1,1.2880023E1,6.8688846E0,6.2666046E1,7.5670845E1,1.5093178E2,1.343203E1,4.2842796E1,4.286484E1,2.242629E2,5.205606E1,6.1710926E1,5.993681E1,6.004313E0,6.87571E0,2.2357737E1,1.2857404E2,5.296019E0,2.1896687E2,2.0620325E1,3.1435738E1,7.3681493E0,1.4989588E1,9.475862E1,3.3815422E1,1.4932603E2,6.9640854E1,1.7043282E1,1.4392455E1],"tree_param":{"num_deleted":"0","num_feature":"18","num_nodes":"43","size_leaf_vector":"1"}},{"base_weights":[9.757693E-2,-4.5258364E-1,5.8721864E-1,9.906645E-1,-5.4007083E-1,9.92225E-1,-3.4735814E-2,1.3666441E-2,5.8445908E-2,-6.287251E-1,-2.3612049E-1,5.468494E-1,1.1553644E0,-6.724921E-1,-1.9197708E-1,-6.6593486E-1,2.0281552E-1,1.11908846E-1,5.4422464E-2,1.1804652E0,3.9127892E-1,-6.8509114E-1,-3.7837315E-1,1.8694504E-1,-2.9669454E-2,-3.5336193E-2,-2.5333157E-3,-3.305122E-2,9.354048E-1,-1.9160096E-1,7.509217E-1,2.5839338E-2,5.934269E-2,4.791194E-2,-1.538038E-3,-3.5419364E-2,-2.5001457E-2,-2.9652847E-2,-8.563005E-3,-2.2371469E-2,5.3527623E-2,3.168325E-2,5.9245963E-2,-3.5247244E-2,1.7635042E-2,1.1590428E-2,5.966812E-2],"categories":[],"categories_nodes":[],"categories_segments":[],"categories_sizes":[],"default_left":[0,0,0,0,0,0,0,0,0,0,0,0,0,0,0,0,0,0,0,0,0,0,0,0,0,0,0,0,0,0,0,0,0,0,0,0,0,0,0,0,0,0,0,0,0,0,0],"id":14,"left_children":[1,3,5,7,9,11,-1,-1,-1,13,15,17,19,21,23,25,27,29,-1,31,33,35,37,39,-1,-1,-1,-1,41,43,45,-1,-1,-1,-1,-1,-1,-1,-1,-1,-1,-1,-1,-1,-1,-1,-1],"loss_changes":[2.3733519E2,5.2872566E1,2.427355E2,2.6048832E0,1.0324348E1,2.4969849E1,0E0,0E0,0E0,5.5671463E0,1.7225496E1,2.264456E1,4.3395386E0,6.5110016E-1,4.587247E0,1.0427284E0,2.9344063E1,1.0886406E1,0E0,2.750244E-1,2.4781036E0,6.5245056E-1,4.369111E-1,9.304522E0,0E0,0E0,0E0,0E0,9.5064735E-1,1.0914964E1,3.7271662E0,0E0,0E0,0E0,0E0,0E0,0E0,0E0,0E0,0E0,0E0,0E0,0E0,0E0,0E0,0E0,0E0],"parents":[2147483647,0,0,1,1,2,2,3,3,4,4,5,5,9,9,10,10,11,11,12,12,13,13,14,14,15,15,16,16,17,17,19,19,20,20,21,21,22,22,23,23,28,28,29,29,30,30],"right_children":[2,4,6,8,10,12,-1,-1,-1,14,16,18,20,22,24,26,28,30,-1,32,34,36,38,40,-1,-1,-1,-1,42,44,46,-1,-1,-1,-1,-1,-1,-1,-1,-1,-1,-1,-1,-1,-1,-1,-1],"split_conditions":[4.4E1,3E0,7.244E-1,1.2E1,1.1E1,6.9E1,-3.4735814E-2,1.3666441E-2,5.8445908E-2,1.0419797E1,9.51E-2,1.1E1,9.433564E0,4.1E1,4E-1,4.2E1,2.1E1,8.340564E0,5.4422464E-2,3.386757E0,2E0,9.433564E0,2.417E-1,1.1E1,-2.9669454E-2,-3.5336193E-2,-2.5333157E-3,-3.305122E-2,7.238702E0,2.417E-1,5.7E1,2.5839338E-2,5.934269E-2,4.791194E-2,-1.538038E-3,-3.5419364E-2,-2.5001457E-2,-2.9652847E-2,-8.563005E-3,-2.2371469E-2,5.3527623E-2,3.168325E-2,5.9245963E-2,-3.5247244E-2,1.7635042E-2,1.1590428E-2,5.966812E-2],"split_indices":[11,2,16,11,0,11,0,0,0,15,17,0,8,11,16,11,11,15,0,15,0,8,16,11,0,0,0,0,15,16,11,0,0,0,0,0,0,0,0,0,0,0,0,0,0,0,0],"split_type":[0,0,0,0,0,0,0,0,0,0,0,0,0,0,0,0,0,0,0,0,0,0,0,0,0,0,0,0,0,0,0,0,0,0,0,0,0,0,0,0,0,0,0,0,0,0,0],"sum_hessian":[8.790007E2,4.138599E2,4.6514078E2,2.2998274E1,3.908616E2,3.5369928E2,1.1144149E2,5.1933517E0,1.7804922E1,3.01519E2,8.934258E1,9.615587E1,2.575434E2,2.733569E2,2.8162117E1,4.4994144E1,4.4348442E1,5.4100693E1,4.205518E1,2.486977E2,8.84572E0,2.6052747E2,1.2829445E1,1.4633576E1,1.3528541E1,4.1904903E1,3.08924E0,2.0333353E1,2.4015089E1,3.7047863E1,1.705283E1,3.3011467E0,2.4539655E2,3.3337183E0,5.512002E0,2.2840681E2,3.2120636E1,5.1475053E0,7.681939E0,8.739574E0,5.894002E0,1.2653495E1,1.1361594E1,1.90088E1,1.8039062E1,8.651739E0,8.40109E0],"tree_param":{"num_deleted":"0","num_feature":"18","num_nodes":"47","size_leaf_vector":"1"}},{"base_weights":[-8.106971E-3,3.9773038E-1,-4.2573768E-1,-5.524723E-1,6.0554147E-1,-5.6182474E-1,1.0329393E0,5.2953877E-2,-6.472862E-1,8.367118E-1,3.454794E-3,-3.8634852E-1,-6.5644187E-1,5.3853672E-2,2.2200564E-2,-4.5209414E-1,-3.409469E-2,8.8216674E-1,-3.0506736E-2,-2.687196E-1,9.6584165E-1,5.415243E-1,-5.62388E-1,-6.707596E-1,-1.4171562E-1,-5.827615E-3,-3.118529E-2,5.4495003E-2,5.322116E-1,3.2021844E-1,-5.5646545E-1,5.655855E-2,2.2710387E-3,-2.40921E-1,5.362617E-2,2.3254912E-2,-6.13994E-1,-5.3621453E-1,-3.4453966E-2,-1.857391E-2,8.313093E-3,5.0724912E-2,2.1345422E-3,-1.545575E-2,5.0933886E-2,-1.7002232E-2,-3.467114E-2,1.6302293E-2,-2.8879313E-2,-3.2622565E-2,-6.7639197E-3,9.271991E-3,-3.328988E-2],"categories":[],"categories_nodes":[],"categories_segments":[],"categories_sizes":[],"default_left":[0,0,0,0,0,0,0,0,0,0,0,0,0,0,0,0,0,0,0,0,0,0,0,0,0,0,0,0,0,0,0,0,0,0,0,0,0,0,0,0,0,0,0,0,0,0,0,0,0,0,0,0,0],"id":15,"left_children":[1,3,5,7,9,11,13,-1,15,17,19,21,23,-1,-1,25,-1,27,-1,29,31,33,35,37,39,-1,-1,-1,41,43,45,-1,-1,47,-1,-1,49,51,-1,-1,-1,-1,-1,-1,-1,-1,-1,-1,-1,-1,-1,-1,-1],"loss_changes":[1.4617917E2,8.668801E1,8.49305E1,1.2701588E1,4.9933014E1,6.110489E0,3.2017517E-1,0E0,8.633995E-2,1.7635208E1,2.6739435E1,2.305678E1,1.6757965E0,0E0,0E0,7.013762E-1,0E0,1.7586334E1,0E0,1.3640236E1,3.2589703E0,9.743612E0,6.538761E0,1.0951996E-1,6.666524E-1,0E0,0E0,0E0,2.2526525E1,1.2055539E1,1.2540588E0,0E0,0E0,2.1010842E0,0E0,0E0,1.9049568E0,3.3893032E0,0E0,0E0,0E0,0E0,0E0,0E0,0E0,0E0,0E0,0E0,0E0,0E0,0E0,0E0,0E0],"parents":[2147483647,0,0,1,1,2,2,3,3,4,4,5,5,6,6,8,8,9,9,10,10,11,11,12,12,15,15,17,17,19,19,20,20,21,21,22,22,23,23,24,24,28,28,29,29,30,30,33,33,36,36,37,37],"right_children":[2,4,6,8,10,12,14,-1,16,18,20,22,24,-1,-1,26,-1,28,-1,30,32,34,36,38,40,-1,-1,-1,42,44,46,-1,-1,48,-1,-1,50,52,-1,-1,-1,-1,-1,-1,-1,-1,-1,-1,-1,-1,-1,-1,-1],"split_conditions":[4.2E1,7.8244457E0,7.339E-1,3E0,3.0445225E0,7.6E1,9.4E1,5.2953877E-2,7E0,2E0,5E-1,3.713572E0,9.433564E0,5.3853672E-2,2.2200564E-2,1.0418682E1,-3.409469E-2,2.4E1,-3.0506736E-2,1.4E1,3E1,1.0819798E1,1.5E-1,8.7E1,1E-1,-5.827615E-3,-3.118529E-2,5.4495003E-2,6.8426833E0,2.418E-1,2.3E1,5.655855E-2,2.2710387E-3,5.3E1,5.362617E-2,2.3254912E-2,1.3E1,3.713572E0,-3.4453966E-2,-1.857391E-2,8.313093E-3,5.0724912E-2,2.1345422E-3,-1.545575E-2,5.0933886E-2,-1.7002232E-2,-3.467114E-2,1.6302293E-2,-2.8879313E-2,-3.2622565E-2,-6.7639197E-3,9.271991E-3,-3.328988E-2],"split_indices":[11,8,16,11,9,11,11,0,11,7,6,15,8,0,0,15,0,11,0,11,11,1,16,11,6,0,0,0,15,16,11,0,0,11,0,0,0,15,0,0,0,0,0,0,0,0,0,0,0,0,0,0,0],"split_type":[0,0,0,0,0,0,0,0,0,0,0,0,0,0,0,0,0,0,0,0,0,0,0,0,0,0,0,0,0,0,0,0,0,0,0,0,0,0,0,0,0,0,0,0,0,0,0,0,0,0,0,0,0],"sum_hessian":[8.6044855E2,4.3628848E2,4.2416006E2,7.7910065E1,3.5837842E2,3.8859003E2,3.557005E1,3.7053595E0,7.4204704E1,2.58552E2,9.982644E1,1.3827899E2,2.5031102E2,3.216123E1,3.408824E0,1.3728268E1,6.0476437E1,2.5112201E2,7.4299855E0,7.829933E1,2.1527111E1,2.1629509E1,1.1664948E2,2.4305276E2,7.2582545E0,5.410777E0,8.317491E0,1.5607549E2,9.504652E1,2.5548357E1,5.2750973E1,1.7962927E1,3.5641832E0,8.8890915E0,1.27404175E1,5.1027346E0,1.11546745E2,3.3409775E1,2.09643E2,4.2248635E0,3.0333912E0,4.723391E1,4.7812603E1,1.36571245E1,1.18912325E1,2.207729E1,3.0673683E1,3.2128866E0,5.6762047E0,1.0272278E2,8.823969E0,4.902843E0,2.8506931E1],"tree_param":{"num_deleted":"0","num_feature":"18","num_nodes":"53","size_leaf_vector":"1"}},{"base_weights":[-7.693086E-2,-2.7843973E-1,1.3937028E-1,-7.8638956E-2,-6.9076884E-1,2.5809002E-1,-5.8071965E-1,-4.6713242E-1,1.7469361E-1,-1.4341257E-2,-3.4877535E-2,4.4346088E-1,-1.8711373E-1,-6.091129E-1,-3.3747782E-3,-5.4957575E-1,8.478807E-1,-3.7196493E-1,4.0696248E-1,1.7075334E-1,1.0358908E0,1.0131161E0,-5.9737474E-1,-3.364309E-2,-3.37406E-1,-3.327788E-2,1.1140392E-1,5.4294437E-2,1.8882193E-2,-1.0389504E-1,-3.4052964E-2,5.3657174E-1,-2.9857228E-2,4.1171414E-1,-3.083463E-1,-2.8026605E-2,5.6407966E-2,1.1287956E0,2.8927136E-2,-6.4579556E-3,-3.3845577E-2,-3.0842623E-2,1.8408014E-2,-3.0881254E-2,3.4722045E-2,-2.3977093E-2,1.3952732E-2,3.6057882E-2,6.3664042E-3,2.4770357E-2,-2.0084018E-2,-3.3665907E-2,1.4450875E-2,2.5688326E-2,6.071653E-2,4.4052612E-2,-3.1341866E-2],"categories":[],"categories_nodes":[],"categories_segments":[],"categories_sizes":[],"default_left":[0,0,0,0,0,0,0,0,0,0,0,0,0,0,0,0,0,0,0,0,0,0,0,0,0,0,0,0,0,0,0,0,0,0,0,0,0,0,0,0,0,0,0,0,0,0,0,0,0,0,0,0,0,0,0,0,0],"id":16,"left_children":[1,3,5,7,9,11,13,15,17,-1,-1,19,21,23,-1,25,27,29,31,33,35,37,39,-1,41,-1,43,-1,-1,45,-1,47,-1,49,51,-1,-1,53,-1,55,-1,-1,-1,-1,-1,-1,-1,-1,-1,-1,-1,-1,-1,-1,-1,-1,-1],"loss_changes":[3.698242E1,3.6052277E1,3.5088097E1,2.9354876E1,9.341431E-2,2.915673E1,7.376442E-1,1.31977005E1,2.3064342E1,0E0,0E0,3.9924965E1,5.1782204E1,6.19936E-1,0E0,8.673134E0,2.5679302E-1,4.341408E0,1.6872671E1,1.9970406E1,1.2202782E1,5.237961E-1,3.6031494E0,0E0,2.7569346E0,0E0,7.817178E0,0E0,0E0,4.5238085E0,0E0,8.382259E0,0E0,8.0285225E0,1.2861546E1,0E0,0E0,2.5215912E-1,0E0,6.2733827E0,0E0,0E0,0E0,0E0,0E0,0E0,0E0,0E0,0E0,0E0,0E0,0E0,0E0,0E0,0E0,0E0,0E0],"parents":[2147483647,0,0,1,1,2,2,3,3,4,4,5,5,6,6,7,7,8,8,11,11,12,12,13,13,15,15,16,16,17,17,18,18,19,19,20,20,21,21,22,22,24,24,26,26,29,29,31,31,33,33,34,34,37,37,39,39],"right_children":[2,4,6,8,10,12,14,16,18,-1,-1,20,22,24,-1,26,28,30,32,34,36,38,40,-1,42,-1,44,-1,-1,46,-1,48,-1,50,52,-1,-1,54,-1,56,-1,-1,-1,-1,-1,-1,-1,-1,-1,-1,-1,-1,-1,-1,-1,-1,-1],"split_conditions":[1.319E-1,7E1,2.56E2,2.2E1,6.1377935E0,1.1024E0,9.5E1,1.6878258E1,7.0693946E0,-1.4341257E-2,-3.4877535E-2,8.7E1,5.1E1,5E0,-3.3747782E-3,2.423E-1,1.6E1,9.36E-2,1.6878258E1,3E-1,2.2E-1,3.8E1,6.6E1,-3.364309E-2,3.8E1,-3.327788E-2,1.3E1,5.4294437E-2,1.8882193E-2,6.82986E0,-3.4052964E-2,4.9E1,-2.9857228E-2,3E1,5.2E1,-2.8026605E-2,5.6407966E-2,1.1E1,2.8927136E-2,1.0819798E1,-3.3845577E-2,-3.0842623E-2,1.8408014E-2,-3.0881254E-2,3.4722045E-2,-2.3977093E-2,1.3952732E-2,3.6057882E-2,6.3664042E-3,2.4770357E-2,-2.0084018E-2,-3.3665907E-2,1.4450875E-2,2.5688326E-2,6.071653E-2,4.4052612E-2,-3.1341866E-2],"split_indices":[17,11,13,11,15,17,11,1,15,0,0,11,11,0,0,16,11,17,1,17,17,11,11,0,11,0,11,0,0,15,0,11,0,11,11,0,0,11,0,1,0,0,0,0,0,0,0,0,0,0,0,0,0,0,0,0,0],"split_type":[0,0,0,0,0,0,0,0,0,0,0,0,0,0,0,0,0,0,0,0,0,0,0,0,0,0,0,0,0,0,0,0,0,0,0,0,0,0,0,0,0,0,0,0,0,0,0,0,0,0,0,0,0,0,0,0,0],"sum_hessian":[8.4627216E2,4.3820755E2,4.0806464E2,2.961409E2,1.4206664E2,3.5097977E2,5.7084858E1,1.1671128E2,1.7942963E2,3.304097E0,1.3876254E2,2.4796313E2,1.0301664E2,5.3730618E1,3.35424E0,1.1044516E2,6.2661176E0,5.319651E1,1.26233116E2,1.7079825E2,7.716488E1,2.5806326E1,7.721031E1,4.2025894E1,1.1704723E1,9.408114E1,1.6364023E1,3.1499095E0,3.116208E0,2.9377651E1,2.3818861E1,1.1230243E2,1.3930688E1,1.1387484E2,5.6923412E1,3.8797045E0,7.328518E1,1.893769E1,6.868636E0,9.436979E0,6.777333E1,8.575698E0,3.1290255E0,7.1690316E0,9.194991E0,1.4834724E1,1.4542927E1,7.6700714E1,3.5601715E1,1.0371693E2,1.0157917E1,3.5359837E1,2.1563572E1,3.3103824E0,1.5627308E1,3.6433935E0,5.7935863E0],"tree_param":{"num_deleted":"0","num_feature":"18","num_nodes":"57","size_leaf_vector":"1"}},{"base_weights":[8.654109E-2,-3.987726E-1,5.903607E-1,3.510071E-1,-4.6408635E-1,1.0160656E0,-3.4260016E-2,-3.5532174E-1,4.844858E-2,-5.7975966E-1,-9.7565144E-2,6.436136E-1,1.1136354E0,-2.2378649E-1,-3.0299215E-2,-6.3928664E-1,-1.3320106E-1,-6.331677E-1,2.77696E-1,8.987767E-1,-2.2191519E-1,1.1317407E0,4.532771E-1,-1.6767947E-2,1.8803958E-3,-6.6560745E-1,-1.3024907E-1,5.202654E-2,-4.7817713E-1,-2.7893603E-1,-3.4818325E-2,-3.9211223E-1,9.8428804E-1,-2.3299126E-2,1.0418112E0,-3.381341E-2,3.1706404E-2,2.5036296E-2,5.689953E-2,3.782818E-3,3.2663636E-2,-3.4281176E-2,-2.375854E-2,-3.104784E-2,2.3071185E-2,-3.3427846E-2,1.738936E-2,-2.858748E-2,5.6055347E-3,-3.4366425E-2,1.4934072E-2,5.740704E-2,8.016432E-3,2.168753E-2,5.7826467E-2],"categories":[],"categories_nodes":[],"categories_segments":[],"categories_sizes":[],"default_left":[0,0,0,0,0,0,0,0,0,0,0,0,0,0,0,0,0,0,0,0,0,0,0,0,0,0,0,0,0,0,0,0,0,0,0,0,0,0,0,0,0,0,0,0,0,0,0,0,0,0,0,0,0,0,0],"id":17,"left_children":[1,3,5,7,9,11,-1,13,-1,15,17,19,21,23,-1,25,27,29,31,33,35,37,39,-1,-1,41,43,-1,45,47,-1,49,51,-1,53,-1,-1,-1,-1,-1,-1,-1,-1,-1,-1,-1,-1,-1,-1,-1,-1,-1,-1,-1,-1],"loss_changes":[2.1116666E2,2.171453E1,2.3081973E2,1.5985069E1,1.7053436E1,1.0669556E1,0E0,3.5219717E-1,0E0,8.013283E0,2.0030045E1,1.5423685E1,2.3238525E0,4.2738682E-1,0E0,3.4636383E0,1.5680864E1,6.269531E-1,2.816363E1,1.0945606E1,6.78773E0,2.2479248E-1,5.197135E-1,0E0,0E0,5.3842926E-1,4.584989E0,0E0,4.9566264E0,1.0399443E0,0E0,6.5066204E0,3.5811672E0,0E0,2.730133E0,0E0,0E0,0E0,0E0,0E0,0E0,0E0,0E0,0E0,0E0,0E0,0E0,0E0,0E0,0E0,0E0,0E0,0E0,0E0,0E0],"parents":[2147483647,0,0,1,1,2,2,3,3,4,4,5,5,7,7,9,9,10,10,11,11,12,12,13,13,15,15,16,16,17,17,18,18,19,19,20,20,21,21,22,22,25,25,26,26,28,28,29,29,31,31,32,32,34,34],"right_children":[2,4,6,8,10,12,-1,14,-1,16,18,20,22,24,-1,26,28,30,32,34,36,38,40,-1,-1,42,44,-1,46,48,-1,50,52,-1,54,-1,-1,-1,-1,-1,-1,-1,-1,-1,-1,-1,-1,-1,-1,-1,-1,-1,-1,-1,-1],"split_conditions":[5E1,1.609438E0,7.244E-1,1.3E1,1.1E1,6.9E1,-3.4260016E-2,2E-1,4.844858E-2,2E0,2.3E1,5E-1,2E2,1E1,-3.0299215E-2,1.6875546E1,1.4899273E1,2.374E-1,3.0445225E0,1.0819798E1,3.0445225E0,2.2E-1,3.0445225E0,-1.6767947E-2,1.8803958E-3,1.1024E0,2.9E1,5.202654E-2,1.8019531E1,1.3E1,-3.4818325E-2,4.3E1,1E-1,-2.3299126E-2,2.371E-1,-3.381341E-2,3.1706404E-2,2.5036296E-2,5.689953E-2,3.782818E-3,3.2663636E-2,-3.4281176E-2,-2.375854E-2,-3.104784E-2,2.3071185E-2,-3.3427846E-2,1.738936E-2,-2.858748E-2,5.6055347E-3,-3.4366425E-2,1.4934072E-2,5.740704E-2,8.016432E-3,2.168753E-2,5.7826467E-2],"split_indices":[11,9,16,11,0,11,0,6,0,7,11,6,11,11,0,1,1,16,9,1,9,16,9,0,0,17,11,0,1,11,0,11,6,0,16,0,0,0,0,0,0,0,0,0,0,0,0,0,0,0,0,0,0,0,0],"split_type":[0,0,0,0,0,0,0,0,0,0,0,0,0,0,0,0,0,0,0,0,0,0,0,0,0,0,0,0,0,0,0,0,0,0,0,0,0,0,0,0,0,0,0,0,0,0,0,0,0,0,0,0,0,0,0],"sum_hessian":[8.615888E2,4.3885934E2,4.2272946E2,3.4692787E1,4.0416656E2,3.171619E2,1.05567566E2,1.6311758E1,1.8381027E1,3.065617E2,9.760486E1,6.7627914E1,2.4953397E2,1.2201001E1,4.110757E0,2.699248E2,3.6636917E1,4.003827E1,5.756659E1,5.228971E1,1.5338201E1,2.4203279E2,7.5011854E0,8.620897E0,3.5801044E0,2.5617474E2,1.3750069E1,7.798277E0,2.883864E1,7.120964E0,3.2917305E1,2.9708344E1,2.7858244E1,4.679877E0,4.7609837E1,1.0233499E1,5.104702E0,3.3261445E0,2.3870665E2,3.2475812E0,4.253604E0,2.2898196E2,2.7192774E1,7.581675E0,6.168394E0,2.3689905E1,5.1487355E0,3.9539173E0,3.167047E0,2.091845E1,8.789894E0,2.280786E1,5.050384E0,8.453729E0,3.915611E1],"tree_param":{"num_deleted":"0","num_feature":"18","num_nodes":"55","size_leaf_vector":"1"}},{"base_weights":[-6.1691557E-3,-1.0651608E-1,9.5599174E-1,-3.6233023E-1,2.3921536E-1,5.051389E-2,-1.4502442E-2,-4.071217E-1,4.468547E-2,5.6570303E-1,-6.0976196E-2,-5.543343E-1,3.7136144E-4,8.340788E-1,-2.1157041E-2,-1.5986171E-1,6.292183E-1,-3.777461E-1,-6.167132E-1,-7.914958E-3,7.015127E-3,6.6990274E-1,5.508518E-2,-1.1276084E-2,6.3169575E-3,-1.0182438E-1,-3.260295E-2,5.2909363E-2,-3.1822357E-2,-1.9602915E-2,-5.552674E-3,-3.2121304E-2,-2.2001732E-2,3.877568E-2,2.706379E-3,-2.6604475E-3,-1.4200049E-2],"categories":[],"categories_nodes":[],"categories_segments":[],"categories_sizes":[],"default_left":[0,0,0,0,0,0,0,0,0,0,0,0,0,0,0,0,0,0,0,0,0,0,0,0,0,0,0,0,0,0,0,0,0,0,0,0,0],"id":18,"left_children":[1,3,5,7,9,-1,-1,11,-1,13,15,17,19,21,23,25,27,29,31,-1,-1,33,-1,-1,-1,35,-1,-1,-1,-1,-1,-1,-1,-1,-1,-1,-1],"loss_changes":[8.265191E1,6.873436E1,5.833168E0,2.5439953E1,3.247261E1,0E0,0E0,2.5968742E1,0E0,2.5070698E1,1.185442E1,3.1650925E0,2.5839474E0,3.871338E0,1.564021E0,4.204808E0,1.2521047E1,2.3395538E-1,6.658859E-1,0E0,0E0,4.4469986E0,0E0,0E0,0E0,1.1687539E0,0E0,0E0,0E0,0E0,0E0,0E0,0E0,0E0,0E0,0E0,0E0],"parents":[2147483647,0,0,1,1,2,2,3,3,4,4,7,7,9,9,10,10,11,11,12,12,13,13,14,14,15,15,16,16,17,17,18,18,21,21,25,25],"right_children":[2,4,6,8,10,-1,-1,12,-1,14,16,18,20,22,24,26,28,30,32,-1,-1,34,-1,-1,-1,36,-1,-1,-1,-1,-1,-1,-1,-1,-1,-1,-1],"split_conditions":[2.56E2,1E-2,1.6522392E1,1.6E1,7.758171E0,5.051389E-2,-1.4502442E-2,7.244E-1,4.468547E-2,2.418E-1,5E1,2.396E-1,1.0819798E1,1.5495849E1,1.5755177E1,1.284E-1,9.23E-2,1.42E-1,8.810478E0,-7.914958E-3,7.015127E-3,1.312E-1,5.508518E-2,-1.1276084E-2,6.3169575E-3,1E-4,-3.260295E-2,5.2909363E-2,-3.1822357E-2,-1.9602915E-2,-5.552674E-3,-3.2121304E-2,-2.2001732E-2,3.877568E-2,2.706379E-3,-2.6604475E-3,-1.4200049E-2],"split_indices":[13,12,1,2,15,0,0,16,0,16,2,16,1,1,1,17,17,17,15,0,0,17,0,0,0,14,0,0,0,0,0,0,0,0,0,0,0],"split_type":[0,0,0,0,0,0,0,0,0,0,0,0,0,0,0,0,0,0,0,0,0,0,0,0,0,0,0,0,0,0,0,0,0,0,0,0,0],"sum_hessian":[8.548791E2,7.750408E2,7.983832E1,4.4558444E2,3.2945633E2,7.676344E1,3.0748758E0,4.3097113E2,1.4613313E1,1.5755188E2,1.7190443E2,3.165118E2,1.144593E2,1.0793946E2,4.9612423E1,1.5116063E2,2.074381E1,8.488113E1,2.316307E2,5.3241684E1,6.1217617E1,6.930232E1,3.8637142E1,2.0859436E1,2.8752987E1,1.3647792E2,1.46827135E1,1.5674296E1,5.0695143E0,7.975594E1,5.125182E0,1.994078E2,3.2222897E1,5.8796413E1,1.0505907E1,1.0918258E2,2.7295341E1],"tree_param":{"num_deleted":"0","num_feature":"18","num_nodes":"37","size_leaf_vector":"1"}},{"base_weights":[-9.1359735E-2,-3.1439844E-1,1.0350693E-1,-5.02763E-1,-1.8925841E-1,2.0084666E-1,-5.415981E-1,-4.3711424E-1,-3.3047013E-2,-3.1529942E-1,1.9825427E-2,3.7561826E-2,5.616068E-1,-3.1239647E-2,-9.448343E-3,-5.310269E-1,-2.7203223E-1,-3.536667E-1,3.8395994E-3,1.1925951E-2,-2.5081015E-3,-7.595571E-2,6.021463E-1,3.4005985E-2,2.1096539E-2,-3.3567157E-2,-4.326477E-1,8.764129E-3,-1.7774446E-2,-3.899589E-1,-6.886841E-4,-3.5470247E-3,1.7902179E-3,-1.5079798E-1,3.523377E-1,2.6214066E-1,8.5679406E-1,-8.5410924E-5,-2.5547927E-2,-1.743698E-2,-3.2281872E-2,2.1321362E-2,-1.0802616E-2,5.756165E-3,4.975358E-2,3.2827135E-2,4.9898974E-3,4.7842093E-2,1.3295126E-2],"categories":[],"categories_nodes":[],"categories_segments":[],"categories_sizes":[],"default_left":[0,0,0,0,0,0,0,0,0,0,0,0,0,0,0,0,0,0,0,0,0,0,0,0,0,0,0,0,0,0,0,0,0,0,0,0,0,0,0,0,0,0,0,0,0,0,0,0,0],"id":19,"left_children":[1,3,5,7,9,11,13,15,-1,17,19,21,23,-1,-1,25,27,29,-1,-1,31,33,35,-1,-1,-1,37,-1,-1,39,-1,-1,-1,41,43,45,47,-1,-1,-1,-1,-1,-1,-1,-1,-1,-1,-1,-1],"loss_changes":[3.6759884E1,9.129887E0,2.8410742E1,1.2260437E0,6.329652E0,2.3066559E1,1.5401917E0,1.5421963E0,0E0,2.3017635E0,4.6605253E-1,1.7516628E1,1.6252632E0,0E0,0E0,5.8213615E-1,1.7140894E0,1.6375465E0,0E0,0E0,2.2276744E-1,7.3100114E0,3.6251621E0,0E0,0E0,0E0,1.4695826E0,0E0,0E0,9.716053E-1,0E0,0E0,0E0,7.384043E0,4.938548E0,1.2164464E0,1.1339321E0,0E0,0E0,0E0,0E0,0E0,0E0,0E0,0E0,0E0,0E0,0E0,0E0],"parents":[2147483647,0,0,1,1,2,2,3,3,4,4,5,5,6,6,7,7,9,9,10,10,11,11,12,12,15,15,16,16,17,17,20,20,21,21,22,22,26,26,29,29,33,33,34,34,35,35,36,36],"right_children":[2,4,6,8,10,12,14,16,-1,18,20,22,24,-1,-1,26,28,30,-1,-1,32,34,36,-1,-1,-1,38,-1,-1,40,-1,-1,-1,42,44,46,48,-1,-1,-1,-1,-1,-1,-1,-1,-1,-1,-1,-1],"split_conditions":[1.312E-1,7.339321E0,2.56E2,1E-4,2E-1,7.244E-1,6.15754E0,6.82986E0,-3.3047013E-2,1.2E1,2E0,7.9314895E0,1.0819798E1,-3.1239647E-2,-9.448343E-3,9.07E-2,1E0,2.418E-1,3.8395994E-3,1.1925951E-2,7E0,1E-4,1.609438E0,3.4005985E-2,2.1096539E-2,-3.3567157E-2,2E0,8.764129E-3,-1.7774446E-2,2E1,-6.886841E-4,-3.5470247E-3,1.7902179E-3,2E0,4E-1,1.0418682E1,1.8019531E1,-8.5410924E-5,-2.5547927E-2,-1.743698E-2,-3.2281872E-2,2.1321362E-2,-1.0802616E-2,5.756165E-3,4.975358E-2,3.2827135E-2,4.9898974E-3,4.7842093E-2,1.3295126E-2],"split_indices":[17,15,13,14,6,16,15,15,0,0,0,15,1,0,0,17,0,16,0,0,0,14,9,0,0,0,0,0,0,2,0,0,0,0,16,15,1,0,0,0,0,0,0,0,0,0,0,0,0],"split_type":[0,0,0,0,0,0,0,0,0,0,0,0,0,0,0,0,0,0,0,0,0,0,0,0,0,0,0,0,0,0,0,0,0,0,0,0,0,0,0,0,0,0,0,0,0,0,0,0,0],"sum_hessian":[8.4354395E2,3.9329254E2,4.502514E2,1.554651E2,2.3782744E2,3.9195334E2,5.829806E1,1.1297318E2,4.2491924E1,1.4836159E2,8.946585E1,2.7077728E2,1.2117608E2,4.6315624E1,1.1982437E1,7.020954E1,4.2763645E1,1.3545952E2,1.290206E1,7.8078456E0,8.1658005E1,2.2602097E2,4.47563E1,6.307378E1,5.8102295E1,2.6117779E1,4.409176E1,6.3625975E0,3.640105E1,1.2199225E2,1.3467277E1,2.9939531E1,5.171847E1,1.9315025E2,3.2870712E1,2.0203163E1,2.4553139E1,7.1337852E0,3.6957973E1,1.07428246E2,1.4564004E1,1.8899775E1,1.7425049E2,2.4984398E1,7.8863144E0,4.82382E0,1.5379344E1,2.0323483E1,4.2296576E0],"tree_param":{"num_deleted":"0","num_feature":"18","num_nodes":"49","size_leaf_vector":"1"}},{"base_weights":[8.609469E-2,-4.423389E-1,5.38225E-1,-6.095135E-1,-7.570875E-3,8.98862E-1,-3.3761904E-2,-3.355073E-2,-2.6728523E-1,-2.423233E-1,8.763777E-1,5.146478E-1,1.0592526E0,-5.879755E-1,3.5934508E-1,-3.4214556E-2,-8.5197285E-2,8.95004E-3,5.398346E-2,1.2580498E-1,1.0281588E0,5.4038864E-2,2.5441796E-1,-3.3772033E-2,-9.630684E-4,-3.1302948E-2,5.5126477E-2,-3.3889362E-1,7.993572E-1,-1.3095914E-1,6.533112E-1,5.5141952E-2,6.944145E-1,2.7417062E-2,-5.8224294E-3,-2.6864905E-2,-7.9651916E-4,1.5779154E-2,4.455236E-2,-3.472012E-2,1.8601375E-2,6.134613E-3,4.9394142E-2,1.1372201E-2,4.7929745E-2],"categories":[],"categories_nodes":[],"categories_segments":[],"categories_sizes":[],"default_left":[0,0,0,0,0,0,0,0,0,0,0,0,0,0,0,0,0,0,0,0,0,0,0,0,0,0,0,0,0,0,0,0,0,0,0,0,0,0,0,0,0,0,0,0,0],"id":20,"left_children":[1,3,5,7,9,11,-1,-1,13,15,17,19,21,23,25,-1,27,-1,-1,29,31,-1,33,-1,-1,-1,-1,35,37,39,41,-1,43,-1,-1,-1,-1,-1,-1,-1,-1,-1,-1,-1,-1],"loss_changes":[2.0930493E2,2.9290413E1,2.0722993E2,5.863228E0,2.3670822E1,2.1755371E1,0E0,0E0,9.542872E0,6.1453013E0,3.0711384E0,2.161105E1,4.02594E0,1.4658203E0,1.2599119E1,0E0,1.5491106E1,0E0,0E0,8.743927E0,2.238121E-1,0E0,9.8960197E-1,0E0,0E0,0E0,0E0,3.374289E0,2.8001308E-1,1.2602484E1,3.5130796E0,0E0,1.0849972E0,0E0,0E0,0E0,0E0,0E0,0E0,0E0,0E0,0E0,0E0,0E0,0E0],"parents":[2147483647,0,0,1,1,2,2,3,3,4,4,5,5,8,8,9,9,10,10,11,11,12,12,13,13,14,14,16,16,19,19,20,20,22,22,27,27,28,28,29,29,30,30,32,32],"right_children":[2,4,6,8,10,12,-1,-1,14,16,18,20,22,24,26,-1,28,-1,-1,30,32,-1,34,-1,-1,-1,-1,36,38,40,42,-1,44,-1,-1,-1,-1,-1,-1,-1,-1,-1,-1,-1,-1],"split_conditions":[4.3E1,1.28E2,7.244E-1,9E0,1E-3,6.9E1,-3.3761904E-2,-3.355073E-2,7.762116E0,2.396E-1,1.2E1,1.1E1,9.433564E0,3.7E1,1.8E1,-3.4214556E-2,2.3E1,8.95004E-3,5.398346E-2,8.340564E0,1E-1,5.4038864E-2,1.01E2,-3.3772033E-2,-9.630684E-4,-3.1302948E-2,5.5126477E-2,2.8E-1,2.7E1,2.417E-1,2.371E-1,5.5141952E-2,5.1E1,2.7417062E-2,-5.8224294E-3,-2.6864905E-2,-7.9651916E-4,1.5779154E-2,4.455236E-2,-3.472012E-2,1.8601375E-2,6.134613E-3,4.9394142E-2,1.1372201E-2,4.7929745E-2],"split_indices":[11,3,16,0,12,11,0,0,15,16,11,0,8,11,11,0,11,0,0,15,6,0,11,0,0,0,0,17,11,16,16,0,11,0,0,0,0,0,0,0,0,0,0,0,0],"split_type":[0,0,0,0,0,0,0,0,0,0,0,0,0,0,0,0,0,0,0,0,0,0,0,0,0,0,0,0,0,0,0,0,0,0,0,0,0,0,0,0,0,0,0,0,0],"sum_hessian":[8.7400635E2,4.029055E2,4.711009E2,2.9055206E2,1.1235341E2,3.634319E2,1.07669014E2,2.4522946E2,4.53226E1,8.943968E1,2.2913727E1,1.0845681E2,2.5497507E2,3.0126202E1,1.5196401E1,2.2410738E1,6.7028946E1,5.707382E0,1.7206345E1,6.253986E1,4.591695E1,2.4787866E2,7.0964055E0,2.5795496E1,4.3307056E0,6.543405E0,8.652995E0,5.2656597E1,1.4372349E1,4.2442905E1,2.0096954E1,3.5393143E1,1.0523805E1,3.8423345E0,3.2540712E0,3.201543E1,2.0641165E1,3.1714816E0,1.1200868E1,1.9932674E1,2.2510231E1,8.415643E0,1.1681311E1,4.6116433E0,5.9121614E0],"tree_param":{"num_deleted":"0","num_feature":"18","num_nodes":"45","size_leaf_vector":"1"}},{"base_weights":[-1.998778E-2,3.7264958E-1,-4.218285E-1,-5.0681794E-1,5.461854E-1,-5.416035E-1,9.3426305E-1,5.3822335E-2,-6.248098E-1,6.972327E-1,5.8408186E-2,-6.2615824E-1,-1.834328E-1,4.901871E-2,1.9390848E-2,-3.86764E-1,-3.324673E-2,7.404503E-1,-4.4153824E-1,2.8346148E-1,-3.31255E-2,5.8416305E-3,-6.405358E-1,2.3054726E-1,-6.1510104E-1,-2.9445965E-2,-2.2765032E-3,8.7410027E-1,4.7871175E-1,-2.9051393E-2,-2.8984186E-3,7.36098E-1,-2.298216E-1,-3.9023302E-2,-6.5538293E-1,1.0007526E0,-3.2616884E-2,-3.324228E-2,-1.2280479E-2,3.3566125E-2,5.354711E-2,4.5680806E-2,-4.073367E-3,5.0911915E-2,2.8158145E-3,-3.0439263E-2,2.380939E-2,2.0907111E-2,-2.6405562E-2,-2.6198572E-2,-3.3596635E-2,5.34679E-2,2.3546193E-2],"categories":[],"categories_nodes":[],"categories_segments":[],"categories_sizes":[],"default_left":[0,0,0,0,0,0,0,0,0,0,0,0,0,0,0,0,0,0,0,0,0,0,0,0,0,0,0,0,0,0,0,0,0,0,0,0,0,0,0,0,0,0,0,0,0,0,0,0,0,0,0,0,0],"id":21,"left_children":[1,3,5,7,9,11,13,-1,15,17,19,21,23,-1,-1,25,-1,27,29,31,-1,-1,33,35,37,-1,-1,39,41,-1,-1,43,45,47,49,51,-1,-1,-1,-1,-1,-1,-1,-1,-1,-1,-1,-1,-1,-1,-1,-1,-1],"loss_changes":[1.3237791E2,6.502985E1,6.7830444E1,1.3767969E1,2.6032707E1,1.1366348E1,3.386116E-1,0E0,2.6952934E-1,1.3681595E1,1.3967546E1,3.419754E0,1.350336E1,0E0,0E0,7.5768924E-1,0E0,8.587082E0,4.610691E-1,1.5486244E1,0E0,0E0,2.6079483E0,2.6980814E1,4.236822E-1,0E0,0E0,5.9528656E0,2.2276428E1,0E0,0E0,6.5977135E0,8.717849E0,2.1359787E0,1.7022705E-1,1.0957146E-1,0E0,0E0,0E0,0E0,0E0,0E0,0E0,0E0,0E0,0E0,0E0,0E0,0E0,0E0,0E0,0E0,0E0],"parents":[2147483647,0,0,1,1,2,2,3,3,4,4,5,5,6,6,8,8,9,9,10,10,11,11,12,12,15,15,17,17,18,18,19,19,22,22,23,23,24,24,27,27,28,28,31,31,32,32,33,33,34,34,35,35],"right_children":[2,4,6,8,10,12,14,-1,16,18,20,22,24,-1,-1,26,-1,28,30,32,-1,-1,34,36,38,-1,-1,40,42,-1,-1,44,46,48,50,52,-1,-1,-1,-1,-1,-1,-1,-1,-1,-1,-1,-1,-1,-1,-1,-1,-1],"split_conditions":[4.2E1,7.8244457E0,7.339E-1,3E0,1.1E1,5E-4,9.4E1,5.3822335E-2,7E0,1.28E2,7.762116E0,4E0,8.7E1,4.901871E-2,1.9390848E-2,3.2E1,-3.324673E-2,2.5E1,6E0,2.3E1,-3.31255E-2,5.8416305E-3,2.371E-1,1.5585736E1,1E1,-2.9445965E-2,-2.2765032E-3,3E0,6.8426833E0,-2.9051393E-2,-2.8984186E-3,2.397E-1,5E-4,1E-4,5.2E1,7.9E1,-3.2616884E-2,-3.324228E-2,-1.2280479E-2,3.3566125E-2,5.354711E-2,4.5680806E-2,-4.073367E-3,5.0911915E-2,2.8158145E-3,-3.0439263E-2,2.380939E-2,2.0907111E-2,-2.6405562E-2,-2.6198572E-2,-3.3596635E-2,5.34679E-2,2.3546193E-2],"split_indices":[11,8,16,11,0,14,11,0,11,3,15,0,11,0,0,13,0,11,0,11,0,0,16,1,2,0,0,0,15,0,0,16,14,14,11,11,0,0,0,0,0,0,0,0,0,0,0,0,0,0,0,0,0],"split_type":[0,0,0,0,0,0,0,0,0,0,0,0,0,0,0,0,0,0,0,0,0,0,0,0,0,0,0,0,0,0,0,0,0,0,0,0,0,0,0,0,0,0,0,0,0,0,0,0,0,0,0,0,0],"sum_hessian":[8.369881E2,4.232528E2,4.1373526E2,6.934094E1,3.5391187E2,3.8077792E2,3.2957348E1,4.187031E0,6.515391E1,2.6974652E2,8.416537E1,3.072231E2,7.35548E1,2.949164E1,3.4657052E0,1.1292262E1,5.386165E1,2.6030524E2,9.441275E0,6.4709984E1,1.9455381E1,5.564852E0,3.0165826E2,3.7666237E1,3.588856E1,6.451393E0,4.840869E0,1.7051472E2,8.979052E1,6.3547854E0,3.0864897E0,3.4259293E1,3.045069E1,7.5161276E0,2.9414215E2,2.0106033E1,1.7560205E1,3.068716E1,5.2014008E0,8.641369E1,8.4101036E1,5.02926E1,3.9497917E1,2.3754925E1,1.0504368E1,1.999653E1,1.0454159E1,3.8541396E0,3.661988E0,3.7229378E1,2.5691275E2,1.6732374E1,3.3736598E0],"tree_param":{"num_deleted":"0","num_feature":"18","num_nodes":"53","size_leaf_vector":"1"}},{"base_weights":[-6.67493E-2,-2.8768373E-1,1.2561886E-1,-1.14676625E-1,-6.6913986E-1,2.278013E-1,-5.2480555E-1,-4.6166268E-1,1.8409976E-1,-3.383844E-2,-1.3854151E-2,7.007438E-2,5.517357E-1,-2.562792E-1,-6.3144577E-1,-5.156513E-1,3.4277063E-2,3.81354E-1,-3.16193E-1,3.9956394E-1,-6.1375093E-1,-3.4289733E-1,9.9640334E-1,-2.7138546E-2,1.6452736E-1,-3.261454E-2,-1.2920836E-2,-5.7424897E-1,2.4590822E-2,-1.7373508E-1,5.8853936E-1,4.1455248E-1,-3.3205103E-2,-3.2074478E-2,4.789883E-1,-2.1938984E-1,-3.3121254E-2,-3.4194846E-2,3.5766944E-2,3.7233102E-1,5.235323E-2,-1.8883334E-2,4.172113E-2,-3.1629305E-2,-8.278869E-3,2.26179E-3,-3.1292956E-2,4.193152E-2,9.529392E-3,4.5877736E-2,-3.0300198E-2,4.187476E-2,1.4963723E-2,1.9356757E-2,-3.1252842E-2,3.7833344E-2,-3.249625E-2,4.192419E-2,-6.9680796E-3],"categories":[],"categories_nodes":[],"categories_segments":[],"categories_sizes":[],"default_left":[0,0,0,0,0,0,0,0,0,0,0,0,0,0,0,0,0,0,0,0,0,0,0,0,0,0,0,0,0,0,0,0,0,0,0,0,0,0,0,0,0,0,0,0,0,0,0,0,0,0,0,0,0,0,0,0,0,0,0],"id":22,"left_children":[1,3,5,7,9,11,13,15,17,-1,-1,19,21,23,25,27,-1,29,31,33,35,37,39,-1,41,-1,-1,43,-1,45,47,49,-1,-1,51,53,-1,-1,55,57,-1,-1,-1,-1,-1,-1,-1,-1,-1,-1,-1,-1,-1,-1,-1,-1,-1,-1,-1],"loss_changes":[3.5561592E1,2.554456E1,2.9803402E1,2.8031254E1,7.936859E-2,1.9682749E1,1.4924564E0,8.080788E0,1.4462219E1,0E0,0E0,5.920252E1,5.0707905E1,2.4480743E0,7.175636E-2,7.3790894E0,0E0,1.2194182E1,1.0846052E1,1.4955412E1,1.4059601E0,5.5964656E0,2.1490402E0,0E0,3.4205012E0,0E0,0E0,2.5339088E0,0E0,2.969331E0,7.3668156E0,7.723775E0,0E0,0E0,1.0294937E1,2.9980166E0,0E0,0E0,1.0893162E1,2.110855E0,0E0,0E0,0E0,0E0,0E0,0E0,0E0,0E0,0E0,0E0,0E0,0E0,0E0,0E0,0E0,0E0,0E0,0E0,0E0],"parents":[2147483647,0,0,1,1,2,2,3,3,4,4,5,5,6,6,7,7,8,8,11,11,12,12,13,13,14,14,15,15,17,17,18,18,19,19,20,20,21,21,22,22,24,24,27,27,29,29,30,30,31,31,34,34,35,35,38,38,39,39],"right_children":[2,4,6,8,10,12,14,16,18,-1,-1,20,22,24,26,28,-1,30,32,34,36,38,40,-1,42,-1,-1,44,-1,46,48,50,-1,-1,52,54,-1,-1,56,58,-1,-1,-1,-1,-1,-1,-1,-1,-1,-1,-1,-1,-1,-1,-1,-1,-1,-1,-1],"split_conditions":[1.312E-1,7E1,8.541105E0,2.5E1,1.5E2,7.244E-1,2.2E-1,1.6878258E1,9.38E-2,-3.383844E-2,-1.3854151E-2,5.8E1,7.7E1,4.1E1,9.2E1,2.435E-1,3.4277063E-2,1.549908E1,7E0,1.5E-1,7.1E1,4.6E1,8.7E1,-2.7138546E-2,1.8E-1,-3.261454E-2,-1.2920836E-2,2.2E1,2.4590822E-2,4.3E1,5E1,4E1,-3.3205103E-2,-3.2074478E-2,5E0,1.0819798E1,-3.3121254E-2,-3.4194846E-2,1.0819798E1,1.0819798E1,5.235323E-2,-1.8883334E-2,4.172113E-2,-3.1629305E-2,-8.278869E-3,2.26179E-3,-3.1292956E-2,4.193152E-2,9.529392E-3,4.5877736E-2,-3.0300198E-2,4.187476E-2,1.4963723E-2,1.9356757E-2,-3.1252842E-2,3.7833344E-2,-3.249625E-2,4.192419E-2,-6.9680796E-3],"split_indices":[17,11,8,11,11,16,16,1,17,0,0,11,11,11,11,16,0,1,0,16,11,11,11,0,17,0,0,11,0,11,11,11,0,0,0,1,0,0,1,1,0,0,0,0,0,0,0,0,0,0,0,0,0,0,0,0,0,0,0],"split_type":[0,0,0,0,0,0,0,0,0,0,0,0,0,0,0,0,0,0,0,0,0,0,0,0,0,0,0,0,0,0,0,0,0,0,0,0,0,0,0,0,0,0,0,0,0,0,0,0,0,0,0,0,0,0,0,0,0,0,0],"sum_hessian":[8.3449695E2,3.884208E2,4.4607614E2,2.6829846E2,1.2012235E2,3.862062E2,5.986993E1,1.2403688E2,1.4426158E2,1.1686699E2,3.2553608E0,2.607631E2,1.2544312E2,1.8251787E1,4.161814E1,1.1907096E2,4.9659214E0,1.0378077E2,4.0480816E1,1.7635254E2,8.441054E1,4.1650295E1,8.379283E1,1.0827832E1,7.4239554E0,3.845267E1,3.16547E0,1.13026245E2,6.0447173E0,2.8120193E1,7.5660576E1,1.29021845E1,2.7578632E1,1.1909759E1,1.6444278E2,1.0104552E1,7.4305984E1,2.1629883E1,2.002041E1,7.0665545E0,7.672627E1,4.2616506E0,3.1623046E0,9.821381E1,1.4812428E1,1.9402178E1,8.718015E0,4.5627502E1,3.0033077E1,8.775775E0,4.126409E0,5.3500107E1,1.1094268E2,3.9692218E0,6.13533E0,9.780278E0,1.0240133E1,3.4658985E0,3.6006563E0],"tree_param":{"num_deleted":"0","num_feature":"18","num_nodes":"59","size_leaf_vector":"1"}},{"base_weights":[9.755098E-2,-3.5609958E-1,5.8312124E-1,-5.2074915E-1,9.26688E-2,9.598387E-1,-3.3275403E-2,-6.100149E-1,-5.91879E-2,8.7767535E-1,-8.91959E-2,5.642286E-1,1.0082356E0,-6.4058405E-1,-1.11937895E-1,-3.4474927E-1,5.651776E-1,1.8935496E-2,5.166408E-2,-3.3228102E-1,4.2497605E-1,-3.1464178E-2,7.529657E-1,1.5790494E-3,1.0192432E0,-6.662782E-1,-4.1188106E-1,-2.858091E-2,4.6451103E-2,-3.3279892E-2,3.201339E-1,-2.8109452E-2,4.8743952E-2,-5.0810534E-1,1.595254E-1,7.905207E-1,-2.7608532E-2,5.0893772E-2,-2.500697E-1,5.150583E-2,7.660241E-3,-3.3674095E-2,-1.3646095E-2,-3.2357346E-2,9.490832E-3,-3.0113488E-2,5.1393956E-2,-2.8958965E-2,-1.0859871E-3,-1.0000205E-2,2.4122624E-2,1.0278507E-2,4.9570013E-2,-1.7476164E-2,-2.6837415E-3],"categories":[],"categories_nodes":[],"categories_segments":[],"categories_sizes":[],"default_left":[0,0,0,0,0,0,0,0,0,0,0,0,0,0,0,0,0,0,0,0,0,0,0,0,0,0,0,0,0,0,0,0,0,0,0,0,0,0,0,0,0,0,0,0,0,0,0,0,0,0,0,0,0,0,0],"id":23,"left_children":[1,3,5,7,9,11,-1,13,15,17,19,21,23,25,27,29,31,-1,-1,33,35,-1,37,-1,39,41,43,-1,-1,-1,45,-1,-1,47,49,51,-1,-1,53,-1,-1,-1,-1,-1,-1,-1,-1,-1,-1,-1,-1,-1,-1,-1,-1],"loss_changes":[1.9195706E2,3.3377903E1,1.9864464E2,1.3488968E1,1.7518024E1,5.4735413E0,0E0,4.0575027E0,9.934467E0,1.2586174E0,1.2572659E1,8.998963E0,2.9483337E0,1.1442413E0,8.806427E0,8.417832E0,8.649746E0,0E0,0E0,6.0199494E0,1.1982745E1,0E0,9.141956E0,0E0,2.3952026E0,3.7760162E-1,4.30903E0,0E0,0E0,0E0,9.1743765E0,0E0,0E0,1.6794691E0,2.283356E0,2.4921293E0,0E0,0E0,9.037262E-2,0E0,0E0,0E0,0E0,0E0,0E0,0E0,0E0,0E0,0E0,0E0,0E0,0E0,0E0,0E0,0E0],"parents":[2147483647,0,0,1,1,2,2,3,3,4,4,5,5,7,7,8,8,9,9,10,10,11,11,12,12,13,13,14,14,15,15,16,16,19,19,20,20,22,22,24,24,25,25,26,26,30,30,33,33,34,34,35,35,38,38],"right_children":[2,4,6,8,10,12,-1,14,16,18,20,22,24,26,28,30,32,-1,-1,34,36,-1,38,-1,40,42,44,-1,-1,-1,46,-1,-1,48,50,52,-1,-1,54,-1,-1,-1,-1,-1,-1,-1,-1,-1,-1,-1,-1,-1,-1,-1,-1],"split_conditions":[5.3E1,1.28E2,7.244E-1,9E0,1.5162718E1,6.4E1,-3.3275403E-2,1.6875546E1,3.7E1,1.2E1,2.7E1,1.0819798E1,1.2E-1,1.1024E0,4.1E1,7.762116E0,7.0693946E0,1.8935496E-2,5.166408E-2,5E-4,1E-1,-3.1464178E-2,5E-1,1.5790494E-3,1.689742E1,5.1E1,4.1E1,-2.858091E-2,4.6451103E-2,-3.3279892E-2,1.8E1,-2.8109452E-2,4.8743952E-2,2.3E1,9E0,1.549908E1,-2.7608532E-2,5.0893772E-2,6E1,5.150583E-2,7.660241E-3,-3.3674095E-2,-1.3646095E-2,-3.2357346E-2,9.490832E-3,-3.0113488E-2,5.1393956E-2,-2.8958965E-2,-1.0859871E-3,-1.0000205E-2,2.4122624E-2,1.0278507E-2,4.9570013E-2,-1.7476164E-2,-2.6837415E-3],"split_indices":[11,3,16,0,1,11,0,1,11,11,11,1,16,17,11,15,15,0,0,14,6,0,6,0,1,11,11,0,0,0,11,0,0,11,11,1,0,0,11,0,0,0,0,0,0,0,0,0,0,0,0,0,0,0,0],"split_type":[0,0,0,0,0,0,0,0,0,0,0,0,0,0,0,0,0,0,0,0,0,0,0,0,0,0,0,0,0,0,0,0,0,0,0,0,0,0,0,0,0,0,0,0,0,0,0,0,0,0,0,0,0,0,0],"sum_hessian":[8.693804E2,4.4949463E2,4.1988577E2,3.2888995E2,1.2060469E2,3.2280524E2,9.708052E1,2.7513977E2,5.3750183E1,2.2069046E1,9.8535645E1,3.679085E1,2.8601437E2,2.5877097E2,1.6368795E1,3.7299015E1,1.6451168E1,6.2153583E0,1.5853687E1,6.727723E1,3.1258419E1,4.632487E0,3.2158363E1,3.3320303E0,2.8268234E2,2.3052197E2,2.8249002E1,1.173406E1,4.6347356E0,2.525918E1,1.2039838E1,4.2207494E0,1.2230418E1,4.968476E1,1.7592466E1,2.2961857E1,8.296562E0,2.5506733E1,6.651633E0,2.7887607E2,3.8062806E0,2.2542723E2,5.0947294E0,2.0373539E1,7.875463E0,5.230573E0,6.809264E0,4.3004303E1,6.6804585E0,8.35805E0,9.234416E0,6.5141525E0,1.6447704E1,3.559992E0,3.0916407E0],"tree_param":{"num_deleted":"0","num_feature":"18","num_nodes":"55","size_leaf_vector":"1"}},{"base_weights":[1.774626E-2,3.4755996E-1,-4.4166672E-1,-5.077792E-1,5.108791E-1,-5.7968885E-1,8.965154E-1,5.2176304E-2,-6.119764E-1,7.649406E-1,2.346873E-1,-6.600968E-1,-2.1867731E-1,4.7082927E-2,1.8821372E-2,-3.4936106E-1,-6.460323E-1,9.37589E-1,5.2919513E-1,-6.332129E-2,4.8292305E-2,-1.4007431E-2,-3.31738E-2,3.5214016E-1,-6.032896E-1,-2.9332886E-2,4.3377946E-3,-3.2941893E-2,-1.4287204E-2,4.9475435E-2,6.061845E-1,2.4605808E-1,4.8679005E-2,3.5810146E-1,-3.3225223E-1,4.810899E-2,-2.9814169E-2,-3.269866E-2,-1.0243666E-2,2.0660315E-2,4.3558862E-2,2.7819145E-3,4.8254706E-2,-8.8931306E-4,5.365404E-2,-2.5759775E-2,9.349547E-3],"categories":[],"categories_nodes":[],"categories_segments":[],"categories_sizes":[],"default_left":[0,0,0,0,0,0,0,0,0,0,0,0,0,0,0,0,0,0,0,0,0,0,0,0,0,0,0,0,0,0,0,0,0,0,0,0,0,0,0,0,0,0,0,0,0,0,0],"id":24,"left_children":[1,3,5,7,9,11,13,-1,15,17,19,21,23,-1,-1,25,27,29,31,33,-1,-1,-1,35,37,-1,-1,-1,-1,-1,39,41,-1,43,45,-1,-1,-1,-1,-1,-1,-1,-1,-1,-1,-1,-1],"loss_changes":[1.2657988E2,6.820953E1,6.495237E1,1.326659E1,2.8422127E1,8.971626E0,2.8752708E-1,0E0,3.3790207E-1,8.002876E0,4.320926E1,5.177307E-2,1.3295552E1,0E0,0E0,1.2419842E0,1.3118744E-2,1.3239365E0,1.1257011E1,1.6122698E1,0E0,0E0,0E0,1.4768003E1,5.0725174E-1,0E0,0E0,0E0,0E0,0E0,4.9557543E-1,7.7690144E0,0E0,1.5001108E1,8.38185E0,0E0,0E0,0E0,0E0,0E0,0E0,0E0,0E0,0E0,0E0,0E0,0E0],"parents":[2147483647,0,0,1,1,2,2,3,3,4,4,5,5,6,6,8,8,9,9,10,10,11,11,12,12,15,15,16,16,17,17,18,18,19,19,23,23,24,24,30,30,31,31,33,33,34,34],"right_children":[2,4,6,8,10,12,14,-1,16,18,20,22,24,-1,-1,26,28,30,32,34,-1,-1,-1,36,38,-1,-1,-1,-1,-1,40,42,-1,44,46,-1,-1,-1,-1,-1,-1,-1,-1,-1,-1,-1,-1],"split_conditions":[5.2E1,7.8244457E0,7.339E-1,3E0,2.3E1,1E-3,9.5E1,5.2176304E-2,7E0,1.269E-1,2.8E-1,1.8E-1,8.7E1,4.7082927E-2,1.8821372E-2,3.2E1,4.6E1,2E1,2.8E-1,7.0693946E0,4.8292305E-2,-1.4007431E-2,-3.31738E-2,5E0,5E0,-2.9332886E-2,4.3377946E-3,-3.2941893E-2,-1.4287204E-2,4.9475435E-2,3E-1,5E-1,4.8679005E-2,1.6E1,5E-1,4.810899E-2,-2.9814169E-2,-3.269866E-2,-1.0243666E-2,2.0660315E-2,4.3558862E-2,2.7819145E-3,4.8254706E-2,-8.8931306E-4,5.365404E-2,-2.5759775E-2,9.349547E-3],"split_indices":[11,8,16,11,11,14,11,0,11,17,17,16,11,0,0,13,11,11,17,15,0,0,0,2,2,0,0,0,0,0,6,6,0,2,6,0,0,0,0,0,0,0,0,0,0,0,0],"split_type":[0,0,0,0,0,0,0,0,0,0,0,0,0,0,0,0,0,0,0,0,0,0,0,0,0,0,0,0,0,0,0,0,0,0,0,0,0,0,0,0,0,0,0,0,0,0,0],"sum_hessian":[8.3344574E2,4.8542157E2,3.480242E2,7.739021E1,4.0803134E2,3.160662E2,3.1958014E1,4.2431335E0,7.314708E1,2.1142003E2,1.9661131E2,2.5758823E2,5.8477962E1,2.8482878E1,3.475135E0,1.0026261E1,6.3120815E1,1.2007887E2,9.1341156E1,1.4023174E2,5.6379578E1,3.271281E0,2.5431694E2,2.3469873E1,3.500809E1,6.4181676E0,3.608093E0,5.9886105E1,3.2347112E0,1.0183697E2,1.8241907E1,5.687949E1,3.446167E1,5.4353996E1,8.587774E1,1.4338243E1,9.131631E0,3.0265505E1,4.7425857E0,1.2254428E1,5.9874787E0,4.5931946E1,1.0947543E1,3.6172306E1,1.818169E1,6.3651867E1,2.2225872E1],"tree_param":{"num_deleted":"0","num_feature":"18","num_nodes":"47","size_leaf_vector":"1"}},{"base_weights":[-6.344429E-2,2.498686E-2,-4.6797422E-1,-9.244578E-2,5.3708965E-1,-3.134081E-1,-5.6458473E-1,6.2773037E-1,-1.5882407E-1,3.1726174E-2,2.1307405E-2,-3.5236147E-1,6.0940306E-3,-3.0947283E-2,-2.282441E-2,4.6614948E-1,3.89626E-2,-1.1947023E-1,-1.9935876E-2,-0E0,-1.8966053E-2,2.4879204E-1,4.075169E-2,4.678442E-2,-1.4099982E-1,1.1595235E-4,3.9677307E-2,-1.0530238E-2,5.7094567E-3],"categories":[],"categories_nodes":[],"categories_segments":[],"categories_sizes":[],"default_left":[0,0,0,0,0,0,0,0,0,0,0,0,0,0,0,0,0,0,0,0,0,0,0,0,0,0,0,0,0],"id":25,"left_children":[1,3,5,7,9,11,13,15,17,-1,-1,19,-1,-1,-1,21,-1,23,-1,-1,-1,25,-1,-1,27,-1,-1,-1,-1],"loss_changes":[3.022551E1,4.175847E1,1.9981842E0,2.7027412E1,1.0238152E0,1.0991821E0,1.4822769E-1,6.799183E-1,4.7868767E0,0E0,0E0,5.0012684E-1,0E0,0E0,0E0,1.654098E0,0E0,1.0193939E1,0E0,0E0,0E0,2.2773023E0,0E0,0E0,7.821782E0,0E0,0E0,0E0,0E0],"parents":[2147483647,0,0,1,1,2,2,3,3,4,4,5,5,6,6,7,7,8,8,11,11,15,15,17,17,21,21,24,24],"right_children":[2,4,6,8,10,12,14,16,18,-1,-1,20,-1,-1,-1,22,-1,24,-1,-1,-1,26,-1,-1,28,-1,-1,-1,-1],"split_conditions":[8.541105E0,7.244E-1,2.396E-1,1E-4,1.0819798E1,9.927253E0,1.1E1,1.609438E0,1.92E2,3.1726174E-2,2.1307405E-2,3.7367167E0,6.0940306E-3,-3.0947283E-2,-2.282441E-2,7.3783836E0,3.89626E-2,1E-3,-1.9935876E-2,-0E0,-1.8966053E-2,1.8019531E1,4.075169E-2,4.678442E-2,3.9318256E0,1.1595235E-4,3.9677307E-2,-1.0530238E-2,5.7094567E-3],"split_indices":[8,16,16,12,1,8,0,9,3,0,0,15,0,0,0,8,0,12,0,0,0,1,0,0,9,0,0,0,0],"split_type":[0,0,0,0,0,0,0,0,0,0,0,0,0,0,0,0,0,0,0,0,0,0,0,0,0,0,0,0,0],"sum_hessian":[8.4235895E2,6.918172E2,1.5054175E2,5.6327435E2,1.2854283E2,5.993366E1,9.060809E1,4.6694588E1,5.165798E2,6.5445175E1,6.3097652E1,5.5396545E1,4.537114E0,5.6529083E1,3.407901E1,2.4889324E1,2.1805264E1,4.454241E2,7.1155685E1,4.2558002E0,5.1140743E1,1.656743E1,8.321895E0,7.9648304E0,4.3745926E2,1.2224365E1,4.3430653E0,3.4415475E2,9.330453E1],"tree_param":{"num_deleted":"0","num_feature":"18","num_nodes":"29","size_leaf_vector":"1"}},{"base_weights":[8.33379E-2,-4.0808183E-1,5.3372437E-1,7.511795E-1,-4.7290298E-1,8.7960136E-1,-3.28132E-2,2.2835809E-1,4.9450666E-2,-5.8470595E-1,-1.2319714E-1,4.0386733E-1,9.472923E-1,1.2984265E-3,1.7106446E-2,-6.244607E-1,-1.4498866E-1,-3.2421738E-2,2.943652E-1,6.8973213E-1,-4.3798137E-1,1.0161801E-3,9.5739096E-1,-6.513347E-1,-2.785451E-1,-3.5560408E-1,1.9783248E-1,-5.714622E-1,6.296869E-1,-7.6893135E-4,7.8905827E-1,-3.141853E-2,-5.009868E-3,7.009317E-1,9.8927367E-1,-3.3068944E-2,-2.3208532E-2,5.1191024E-4,-3.2066803E-2,-3.1221936E-2,5.816112E-3,4.5159694E-2,-2.7645005E-2,-1.2423837E-2,-3.128333E-2,3.9359458E-2,-1.5355645E-3,2.0382755E-2,4.333845E-2,4.8494E-3,4.5315977E-2,4.9864244E-2,1.320812E-2],"categories":[],"categories_nodes":[],"categories_segments":[],"categories_sizes":[],"default_left":[0,0,0,0,0,0,0,0,0,0,0,0,0,0,0,0,0,0,0,0,0,0,0,0,0,0,0,0,0,0,0,0,0,0,0,0,0,0,0,0,0,0,0,0,0,0,0,0,0,0,0,0,0],"id":26,"left_children":[1,3,5,7,9,11,-1,13,-1,15,17,19,21,-1,-1,23,25,-1,27,29,31,-1,33,35,37,39,41,43,45,-1,47,-1,-1,49,51,-1,-1,-1,-1,-1,-1,-1,-1,-1,-1,-1,-1,-1,-1,-1,-1,-1,-1],"loss_changes":[1.864558E2,3.0597923E1,1.815209E2,2.3427916E0,1.4800232E1,1.0465729E1,0E0,1.4304397E-1,0E0,4.8865967E0,2.08581E1,1.1015231E1,2.669159E0,0E0,0E0,2.1856995E0,1.9260908E0,0E0,1.575017E1,2.4448824E0,6.2182117E-1,0E0,1.5441284E0,4.017639E-2,2.2795389E0,2.1943986E0,5.914329E0,2.3827076E-2,4.1309595E0,0E0,3.9718437E-1,0E0,0E0,4.3171825E0,1.1149292E0,0E0,0E0,0E0,0E0,0E0,0E0,0E0,0E0,0E0,0E0,0E0,0E0,0E0,0E0,0E0,0E0,0E0,0E0],"parents":[2147483647,0,0,1,1,2,2,3,3,4,4,5,5,7,7,9,9,10,10,11,11,12,12,15,15,16,16,18,18,19,19,20,20,22,22,23,23,24,24,25,25,26,26,27,27,28,28,30,30,33,33,34,34],"right_children":[2,4,6,8,10,12,-1,14,-1,16,18,20,22,-1,-1,24,26,-1,28,30,32,-1,34,36,38,40,42,44,46,-1,48,-1,-1,50,52,-1,-1,-1,-1,-1,-1,-1,-1,-1,-1,-1,-1,-1,-1,-1,-1,-1,-1],"split_conditions":[4.7E1,3E0,7.244E-1,1.2E1,3.0445225E0,5.8E1,-3.28132E-2,8E0,4.9450666E-2,1.0419797E1,2E1,3E-1,2.3585684E0,1.2984265E-3,1.7106446E-2,4.3E1,1.1E1,-3.2421738E-2,1.2E1,2.374E-1,1.8E1,1.0161801E-3,6.9E1,1.6878258E1,1.5585736E1,1.8019531E1,1.609438E0,1.4508658E1,3.4E1,-7.6893135E-4,1.5410756E1,-3.141853E-2,-5.009868E-3,1E2,1.689742E1,-3.3068944E-2,-2.3208532E-2,5.1191024E-4,-3.2066803E-2,-3.1221936E-2,5.816112E-3,4.5159694E-2,-2.7645005E-2,-1.2423837E-2,-3.128333E-2,3.9359458E-2,-1.5355645E-3,2.0382755E-2,4.333845E-2,4.8494E-3,4.5315977E-2,4.9864244E-2,1.320812E-2],"split_indices":[11,2,16,11,9,11,0,11,0,15,11,6,15,0,0,11,11,0,2,16,2,0,11,1,1,1,9,1,2,0,1,0,0,13,1,0,0,0,0,0,0,0,0,0,0,0,0,0,0,0,0,0,0],"split_type":[0,0,0,0,0,0,0,0,0,0,0,0,0,0,0,0,0,0,0,0,0,0,0,0,0,0,0,0,0,0,0,0,0,0,0,0,0,0,0,0,0,0,0,0,0,0,0,0,0,0,0,0,0],"sum_hessian":[8.4039716E2,4.0182983E2,4.3856732E2,2.0636452E1,3.811934E2,3.4006912E2,9.849819E1,7.1967397E0,1.3439711E1,2.8812137E2,9.3072E1,4.3412003E1,2.9665714E2,3.348042E0,3.848698E0,2.6363834E2,2.4483051E1,4.1082405E1,5.1989594E1,3.263103E1,1.0780971E1,3.3362107E0,2.9332092E2,2.4354541E2,2.0092922E1,1.532339E1,9.159661E0,1.4233952E1,3.7755642E1,4.0090914E0,2.8621939E1,6.155278E0,4.625693E0,3.53215E1,2.5799942E2,2.2822949E2,1.5315913E1,1.15751705E1,8.517752E0,9.691384E0,5.632006E0,4.6865077E0,4.473154E0,3.113086E0,1.1120866E1,3.045232E1,7.303321E0,6.119612E0,2.2502327E1,9.460869E0,2.5860628E1,2.546725E2,3.3269258E0],"tree_param":{"num_deleted":"0","num_feature":"18","num_nodes":"53","size_leaf_vector":"1"}},{"base_weights":[-2.3006612E-2,-5.9319705E-1,1.0104898E-1,-3.1654216E-2,-2.271113E-2,2.615216E-1,-4.4920424E-1,1.7961083E-1,4.5017563E-2,-3.1154078E-1,-5.8409536E-1,6.072766E-1,3.065783E-2,7.4807964E-3,-1.6655494E-2,-3.242331E-2,-2.4573682E-2,7.9200196E-1,-2.3218396E-1,7.309901E-1,-4.8317753E-2,1.6866947E-2,4.4096377E-2,8.326825E-3,-2.541616E-2,-1.3959035E-2,4.217085E-2,-1.810737E-2,2.0981852E-4],"categories":[],"categories_nodes":[],"categories_segments":[],"categories_sizes":[],"default_left":[0,0,0,0,0,0,0,0,0,0,0,0,0,0,0,0,0,0,0,0,0,0,0,0,0,0,0,0,0],"id":27,"left_children":[1,3,5,-1,-1,7,9,11,-1,13,15,17,19,-1,-1,-1,-1,21,23,25,27,-1,-1,-1,-1,-1,-1,-1,-1],"loss_changes":[5.9351627E1,4.3491364E-1,6.0900337E1,0E0,0E0,2.7666485E1,2.6197262E0,3.015003E1,0E0,8.596225E-1,2.7170181E-2,1.9215805E1,1.9639914E1,0E0,0E0,0E0,0E0,3.6946487E0,2.6233063E0,4.3788204E0,5.2819757E0,0E0,0E0,0E0,0E0,0E0,0E0,0E0,0E0],"parents":[2147483647,0,0,1,1,2,2,5,5,6,6,7,7,9,9,10,10,11,11,12,12,17,17,18,18,19,19,20,20],"right_children":[2,4,6,-1,-1,8,10,12,-1,14,16,18,20,-1,-1,-1,-1,22,24,26,28,-1,-1,-1,-1,-1,-1,-1,-1],"split_conditions":[7.8244457E0,6E0,1.28E2,-3.1654216E-2,-2.271113E-2,7.339E-1,2.396E-1,4E0,4.5017563E-2,1.1E1,1.2E1,1.312E-1,1.5E-1,7.4807964E-3,-1.6655494E-2,-3.242331E-2,-2.4573682E-2,2.367E-1,1E0,5E0,2.374E-1,1.6866947E-2,4.4096377E-2,8.326825E-3,-2.541616E-2,-1.3959035E-2,4.217085E-2,-1.810737E-2,2.0981852E-4],"split_indices":[8,0,3,0,0,16,16,0,0,0,0,17,16,0,0,0,0,16,0,0,16,0,0,0,0,0,0,0,0],"split_type":[0,0,0,0,0,0,0,0,0,0,0,0,0,0,0,0,0,0,0,0,0,0,0,0,0,0,0,0,0],"sum_hessian":[8.365233E2,1.4894757E2,6.8757574E2,1.1240973E2,3.653784E1,5.328771E2,1.5469867E2,4.735909E2,5.9286156E1,7.856741E1,7.6131256E1,1.2137042E2,3.522205E2,3.0381188E0,7.55293E1,4.073801E1,3.539324E1,9.962366E1,2.1746767E1,3.498592E1,3.1723456E2,1.7418621E1,8.220503E1,8.912577E0,1.2834191E1,3.2661767E0,3.1719746E1,4.490226E1,2.723323E2],"tree_param":{"num_deleted":"0","num_feature":"18","num_nodes":"29","size_leaf_vector":"1"}},{"base_weights":[-6.2487204E-2,-2.5920728E-1,1.0761117E-1,-8.9840785E-2,-6.52066E-1,2.0468014E-1,-5.1005745E-1,-4.76347E-1,2.0929481E-1,-1.2349956E-2,-3.301013E-2,5.069004E-1,5.9133627E-2,-5.93512E-1,4.9023513E-2,-5.4084706E-1,3.0957181E-2,-2.8641626E-1,4.348317E-1,-3.3201143E-1,9.0855145E-1,3.578705E-1,-6.1653996E-1,-3.199939E-2,-3.8050285E-1,2.082089E-2,-1.0366373E-2,-6.0284054E-1,-2.453169E-1,-1.1209536E-2,-3.2178048E-2,5.7799923E-1,-3.0904567E-2,-6.1234933E-1,1.349162E-1,3.6635074E-1,4.816414E-2,-3.850739E-1,4.4867843E-1,-3.0219907E-1,-3.2309808E-2,-2.9203033E-2,7.830105E-3,-3.0999912E-2,-1.0530226E-2,-3.1211054E-2,1.0723018E-2,1.2368771E-2,-3.02086E-2,3.8931146E-2,8.91758E-3,-3.355399E-2,-1.416179E-2,4.4248793E-2,-3.0832425E-2,4.1170023E-2,-9.351658E-3,1.4886692E-2,-3.2901812E-2,3.5526644E-2,6.751917E-3,-4.3750615E-3,-2.6254037E-2],"categories":[],"categories_nodes":[],"categories_segments":[],"categories_sizes":[],"default_left":[0,0,0,0,0,0,0,0,0,0,0,0,0,0,0,0,0,0,0,0,0,0,0,0,0,0,0,0,0,0,0,0,0,0,0,0,0,0,0,0,0,0,0,0,0,0,0,0,0,0,0,0,0,0,0,0,0,0,0,0,0,0,0],"id":28,"left_children":[1,3,5,7,9,11,13,15,17,-1,-1,19,21,23,25,27,-1,29,31,33,35,37,39,-1,41,-1,-1,43,45,47,-1,49,-1,51,53,55,-1,57,59,61,-1,-1,-1,-1,-1,-1,-1,-1,-1,-1,-1,-1,-1,-1,-1,-1,-1,-1,-1,-1,-1,-1,-1],"loss_changes":[2.7632248E1,2.534406E1,2.6610737E1,3.1214787E1,1.252594E-1,1.67757E1,2.8949862E0,8.648119E0,1.7147213E1,0E0,0E0,4.2225693E1,5.269454E1,1.7577744E-1,9.1667926E-1,1.816227E0,0E0,4.648555E0,1.6195152E1,5.4814415E0,2.017891E0,1.2396393E1,4.556961E-1,0E0,1.4772413E0,0E0,0E0,4.019966E-1,3.895618E0,4.525205E0,0E0,7.2310867E0,0E0,2.1430588E-1,9.604339E0,2.6247299E0,0E0,3.9859462E0,1.3119984E1,3.2664722E-1,0E0,0E0,0E0,0E0,0E0,0E0,0E0,0E0,0E0,0E0,0E0,0E0,0E0,0E0,0E0,0E0,0E0,0E0,0E0,0E0,0E0,0E0,0E0],"parents":[2147483647,0,0,1,1,2,2,3,3,4,4,5,5,6,6,7,7,8,8,11,11,12,12,13,13,14,14,15,15,17,17,18,18,19,19,20,20,21,21,22,22,24,24,27,27,28,28,29,29,31,31,33,33,34,34,35,35,37,37,38,38,39,39],"right_children":[2,4,6,8,10,12,14,16,18,-1,-1,20,22,24,26,28,-1,30,32,34,36,38,40,-1,42,-1,-1,44,46,48,-1,50,-1,52,54,56,-1,58,60,62,-1,-1,-1,-1,-1,-1,-1,-1,-1,-1,-1,-1,-1,-1,-1,-1,-1,-1,-1,-1,-1,-1,-1],"split_conditions":[1.312E-1,7E1,8.541105E0,2.4E1,1E1,3.713572E0,9.8E1,1.6878258E1,7.0693946E0,-1.2349956E-2,-3.301013E-2,7.6E1,6.3E1,1E-2,2.442347E0,9.51E-2,3.0957181E-2,9.36E-2,1.284E-1,5.2E1,8.7E1,3E0,7.1E1,-3.199939E-2,3.3E1,2.082089E-2,-1.0366373E-2,2.3E1,1.5E1,4.3E1,-3.2178048E-2,4.9E1,-3.0904567E-2,4.6E1,1.0819798E1,1.0819798E1,4.816414E-2,1.1E1,1E-2,5E0,-3.2309808E-2,-2.9203033E-2,7.830105E-3,-3.0999912E-2,-1.0530226E-2,-3.1211054E-2,1.0723018E-2,1.2368771E-2,-3.02086E-2,3.8931146E-2,8.91758E-3,-3.355399E-2,-1.416179E-2,4.4248793E-2,-3.0832425E-2,4.1170023E-2,-9.351658E-3,1.4886692E-2,-3.2901812E-2,3.5526644E-2,6.751917E-3,-4.3750615E-3,-2.6254037E-2],"split_indices":[17,11,8,11,2,15,11,1,15,0,0,11,11,12,15,17,0,17,17,11,11,2,11,0,11,0,0,11,11,11,0,11,0,11,1,1,0,11,12,0,0,0,0,0,0,0,0,0,0,0,0,0,0,0,0,0,0,0,0,0,0,0,0],"split_type":[0,0,0,0,0,0,0,0,0,0,0,0,0,0,0,0,0,0,0,0,0,0,0,0,0,0,0,0,0,0,0,0,0,0,0,0,0,0,0,0,0,0,0,0,0,0,0,0,0,0,0,0,0,0,0,0,0,0,0,0,0,0,0],"sum_hessian":[8.234991E2,3.8189667E2,4.4160242E2,2.678893E2,1.1400735E2,3.8234586E2,5.925658E1,1.1676362E2,1.511257E2,3.1044354E0,1.1090291E2,1.2325111E2,2.5909476E2,5.1662197E1,7.5943856E0,1.1083545E2,5.9281673E0,4.7034508E1,1.04091194E2,3.987994E1,8.337117E1,1.8008969E2,7.900505E1,4.0378223E1,1.1283973E1,3.024891E0,4.5694947E0,9.047768E1,2.0357779E1,2.7305195E1,1.9729313E1,9.211254E1,1.1978652E1,2.4858131E1,1.5021809E1,8.517053E0,7.485411E1,1.9141544E1,1.6094815E2,8.066471E0,7.093858E1,8.254394E0,3.0295792E0,8.588516E1,4.5925107E0,1.1083588E1,9.27419E0,1.930197E1,8.003225E0,6.0528595E1,3.1583944E1,1.9954365E1,4.9037666E0,7.4961824E0,7.525626E0,4.496271E0,4.0207815E0,5.3361673E0,1.3805378E1,8.685208E1,7.409606E1,5.0465145E0,3.0199564E0],"tree_param":{"num_deleted":"0","num_feature":"18","num_nodes":"63","size_leaf_vector":"1"}},{"base_weights":[8.4104076E-2,-4.049457E-1,4.773456E-1,8.022409E-1,-4.9059722E-1,-6.031019E-1,7.884267E-1,7.129812E-3,4.7300003E-2,-5.8713233E-1,-1.7943199E-1,3.0773548E-2,-3.2573584E-2,2.394586E-1,9.0428287E-1,-3.2055862E-2,-6.3109136E-1,-3.195227E-2,2.1022388E-1,5.361389E-1,-4.550085E-1,6.656371E-1,9.457341E-1,-4.0664452E-1,4.422174E-1,-6.4216083E-1,9.465617E-5,-3.523654E-1,7.034497E-1,-3.1447798E-2,6.8400633E-1,-3.4420256E-2,1.3234787E-2,9.24707E-1,-6.215854E-2,4.7998723E-2,1.09359715E-2,-2.4445137E-2,-8.24074E-3,3.1055389E-2,1.0287187E-2,-3.243363E-2,-1.9967867E-2,-2.9651297E-2,2.6419306E-2,4.6994854E-2,-0E0,4.1698445E-2,-0E0,5.7404554E-3,5.0825603E-2,-3.369002E-2,4.8634686E-2],"categories":[],"categories_nodes":[],"categories_segments":[],"categories_sizes":[],"default_left":[0,0,0,0,0,0,0,0,0,0,0,0,0,0,0,0,0,0,0,0,0,0,0,0,0,0,0,0,0,0,0,0,0,0,0,0,0,0,0,0,0,0,0,0,0,0,0,0,0,0,0,0,0],"id":29,"left_children":[1,3,5,7,9,11,13,-1,-1,15,17,-1,-1,19,21,23,25,-1,27,29,31,33,35,37,39,41,-1,43,45,-1,47,-1,-1,49,51,-1,-1,-1,-1,-1,-1,-1,-1,-1,-1,-1,-1,-1,-1,-1,-1,-1,-1],"loss_changes":[1.6234857E2,3.9262447E1,1.577652E2,2.148512E0,1.03912735E1,6.599373E0,2.2808563E1,0E0,0E0,6.451889E0,1.5405321E1,0E0,0E0,1.3626202E1,2.1760864E0,3.8865182E0,1.8034744E0,0E0,1.3228087E1,8.367795E0,3.5623116E0,9.216097E0,2.2893066E0,9.887004E-2,1.9466579E-1,2.1881104E-2,0E0,5.0603456E0,4.178137E0,0E0,4.314886E0,0E0,0E0,2.4207935E0,9.1496525E0,0E0,0E0,0E0,0E0,0E0,0E0,0E0,0E0,0E0,0E0,0E0,0E0,0E0,0E0,0E0,0E0,0E0,0E0],"parents":[2147483647,0,0,1,1,2,2,3,3,4,4,5,5,6,6,9,9,10,10,13,13,14,14,15,15,16,16,18,18,19,19,20,20,21,21,22,22,23,23,24,24,25,25,27,27,28,28,30,30,33,33,34,34],"right_children":[2,4,6,8,10,12,14,-1,-1,16,18,-1,-1,20,22,24,26,-1,28,30,32,34,36,38,40,42,-1,44,46,-1,48,-1,-1,50,52,-1,-1,-1,-1,-1,-1,-1,-1,-1,-1,-1,-1,-1,-1,-1,-1,-1,-1],"split_conditions":[4.3E1,3E0,3.713572E0,1E1,3.0445225E0,2.5E-1,5.7E1,7.129812E-3,4.7300003E-2,1.609438E0,2E1,3.0773548E-2,-3.2573584E-2,3E-1,7E1,1.1E1,1.8019531E1,-3.195227E-2,9E0,1.0819798E1,9E0,5E-1,1.689742E1,1.8019531E1,1.5E1,4.1E1,9.465617E-5,1E-4,1E-1,-3.1447798E-2,1E-4,-3.4420256E-2,1.3234787E-2,1.0819798E1,3.0445225E0,4.7998723E-2,1.09359715E-2,-2.4445137E-2,-8.24074E-3,3.1055389E-2,1.0287187E-2,-3.243363E-2,-1.9967867E-2,-2.9651297E-2,2.6419306E-2,4.6994854E-2,-0E0,4.1698445E-2,-0E0,5.7404554E-3,5.0825603E-2,-3.369002E-2,4.8634686E-2],"split_indices":[11,2,15,11,9,17,11,0,0,9,11,0,0,6,11,11,1,0,0,1,0,6,1,1,11,11,0,14,6,0,14,0,0,1,9,0,0,0,0,0,0,0,0,0,0,0,0,0,0,0,0,0,0],"split_type":[0,0,0,0,0,0,0,0,0,0,0,0,0,0,0,0,0,0,0,0,0,0,0,0,0,0,0,0,0,0,0,0,0,0,0,0,0,0,0,0,0,0,0,0,0,0,0,0,0,0,0,0,0],"sum_hessian":[8.4213916E2,3.752189E2,4.6692026E2,2.422691E1,3.50992E2,1.04099945E2,3.628203E2,4.8160024E0,1.9410908E1,2.6696207E2,8.402992E1,3.4478183E0,1.0065212E2,6.3912083E1,2.9890823E2,1.98843E1,2.4707777E2,3.8378128E1,4.5651794E1,4.5041904E1,1.8870176E1,4.71165E1,2.5179173E2,1.1307164E1,8.577137E0,2.4297223E2,4.1055427E0,2.1365015E1,2.4286781E1,4.6300974E0,4.0411808E1,1.4386983E1,4.4831934E0,3.4649372E1,1.246713E1,2.4650533E2,5.2864037E0,7.36632E0,3.940844E0,3.716338E0,4.860799E0,2.3459708E2,8.375153E0,1.7125727E1,4.239289E0,1.7894003E1,6.392777E0,3.3061638E1,7.3501697E0,3.8677943E0,3.0781578E1,8.115844E0,4.351286E0],"tree_param":{"num_deleted":"0","num_feature":"18","num_nodes":"53","size_leaf_vector":"1"}},{"base_weights":[-1.0533166E-2,3.3454067E-1,-4.0083006E-1,-5.128906E-1,5.072677E-1,-5.3236365E-1,6.6353494E-1,5.0635934E-2,-6.097882E-1,6.814607E-1,-8.673586E-3,-6.1238307E-1,-2.1404855E-1,8.2828784E-1,-2.0490536E-1,-4.1137454E-1,-3.2254923E-2,8.7165266E-1,3.862584E-1,6.2074053E-1,-2.7505994E-1,-3.642522E-1,-3.2062773E-2,2.6386684E-1,-3.2362264E-2,4.405422E-2,1.0420594E-2,-2.5651736E-2,8.412723E-3,-6.2367937E-4,-2.587289E-2,9.0760934E-1,-2.5361259E-2,8.3009577E-1,-7.359789E-2,4.995793E-2,-1.8403865E-1,2.3651688E-1,-6.052597E-1,-2.971091E-2,1.1544136E-1,9.115715E-1,-3.089163E-2,4.6490222E-2,3.152968E-2,1.1140791E-2,4.6152335E-2,-1.7656697E-2,2.2564305E-2,-3.0233016E-2,1.39146885E-2,3.1993438E-2,-1.8031238E-2,-1.7440256E-2,-3.306032E-2,-2.6636798E-2,3.415801E-2,4.8911914E-2,2.1396305E-2],"categories":[],"categories_nodes":[],"categories_segments":[],"categories_sizes":[],"default_left":[0,0,0,0,0,0,0,0,0,0,0,0,0,0,0,0,0,0,0,0,0,0,0,0,0,0,0,0,0,0,0,0,0,0,0,0,0,0,0,0,0,0,0,0,0,0,0,0,0,0,0,0,0,0,0,0,0,0,0],"id":30,"left_children":[1,3,5,7,9,11,13,-1,15,17,19,21,23,25,27,29,-1,31,33,35,37,39,-1,41,-1,-1,-1,-1,-1,-1,-1,43,-1,45,47,-1,49,51,53,-1,55,57,-1,-1,-1,-1,-1,-1,-1,-1,-1,-1,-1,-1,-1,-1,-1,-1,-1],"loss_changes":[1.1144435E2,6.452257E1,5.471477E1,1.1624941E1,3.2903748E1,8.607315E0,6.3958035E0,0E0,1.2609482E-1,1.4879341E1,1.5736848E1,1.6428375E0,1.4982292E1,9.0213966E-1,9.917098E-1,5.2908325E-1,0E0,8.6901245E0,2.2398167E1,8.751353E0,1.1359467E1,3.5846124E0,0E0,2.0310879E1,0E0,0E0,0E0,0E0,0E0,0E0,0E0,2.5006104E-1,0E0,2.8235168E0,8.127872E0,0E0,2.0817504E0,6.6560345E0,2.5117683E-1,0E0,4.3842034E0,9.771347E-2,0E0,0E0,0E0,0E0,0E0,0E0,0E0,0E0,0E0,0E0,0E0,0E0,0E0,0E0,0E0,0E0,0E0],"parents":[2147483647,0,0,1,1,2,2,3,3,4,4,5,5,6,6,8,8,9,9,10,10,11,11,12,12,13,13,14,14,15,15,17,17,18,18,19,19,20,20,21,21,23,23,31,31,33,33,34,34,36,36,37,37,38,38,40,40,41,41],"right_children":[2,4,6,8,10,12,14,-1,16,18,20,22,24,26,28,30,-1,32,34,36,38,40,-1,42,-1,-1,-1,-1,-1,-1,-1,44,-1,46,48,-1,50,52,54,-1,56,58,-1,-1,-1,-1,-1,-1,-1,-1,-1,-1,-1,-1,-1,-1,-1,-1,-1],"split_conditions":[4.3E1,7.8244457E0,9.680407E0,3E0,3.0445225E0,5E-4,2.3978953E0,5.0635934E-2,7E0,2.4E1,1.3E1,5E1,8.7E1,9.6E1,5E-4,4E0,-3.2254923E-2,2E0,6.8426833E0,7.6251073E0,1.2E1,1.4E-1,-3.2062773E-2,1.5585736E1,-3.2362264E-2,4.405422E-2,1.0420594E-2,-2.5651736E-2,8.412723E-3,-6.2367937E-4,-2.587289E-2,2.2E1,-2.5361259E-2,7.848153E0,9.38E-2,4.995793E-2,1.6065567E1,1.319E-1,7E0,-2.971091E-2,7.3783836E0,7.9E1,-3.089163E-2,4.6490222E-2,3.152968E-2,1.1140791E-2,4.6152335E-2,-1.7656697E-2,2.2564305E-2,-3.0233016E-2,1.39146885E-2,3.1993438E-2,-1.8031238E-2,-1.7440256E-2,-3.306032E-2,-2.6636798E-2,3.415801E-2,4.8911914E-2,2.1396305E-2],"split_indices":[11,8,8,11,9,14,9,0,11,11,11,11,11,11,14,2,0,7,15,15,2,17,0,1,0,0,0,0,0,0,0,11,0,8,17,0,1,17,0,0,8,11,0,0,0,0,0,0,0,0,0,0,0,0,0,0,0,0,0],"split_type":[0,0,0,0,0,0,0,0,0,0,0,0,0,0,0,0,0,0,0,0,0,0,0,0,0,0,0,0,0,0,0,0,0,0,0,0,0,0,0,0,0,0,0,0,0,0,0,0,0,0,0,0,0,0,0,0,0,0,0],"sum_hessian":[8.2542267E2,4.3803165E2,3.87391E2,7.373342E1,3.6429822E2,3.453114E2,4.20796E1,3.777349E0,6.995607E1,2.722528E2,9.204542E1,2.7495425E2,7.035714E1,3.550524E1,6.5743613E0,1.2907759E1,5.7048313E1,1.641824E2,1.0807041E2,2.6864565E1,6.5180855E1,3.0438997E1,2.4451526E2,3.352805E1,3.682909E1,3.2181538E1,3.3237033E0,